BIGRAM: method Katz, cutoff 0
  coef[7]: 0.267553 0.492789 0.608063 0.663183 0.810856 0.903676 0.808926

\data\
ngram 1=2767
ngram 2~13168

\1-grams:
-1.0948	</s>	-0.1352
-3.6359	<ah>	-0.1880
-4.3348	<bat>	-0.1342
-4.3348	<cuku>	-0.1344
-4.3348	<da>	-0.1339
-4.3348	<eh>	-0.1351
-4.3348	<eu>	-0.1344
-2.6188	<euh>	-0.1298
-3.4897	<eum>	-0.1577
-3.8577	<hem>	-0.1321
-4.3348	<hmm>	-0.1351
-4.3348	<ik>	-0.1352
-4.3348	<kontro>kontribusi	-0.1209
-4.3348	<mek>	-0.1352
-4.3348	<mintadat>	-0.1349
-4.3348	<nyaran>	-0.1352
-4.3348	<objek>ojek	-0.1351
-3.4897	<oh>	-0.2154
-4.3348	<penu>	-0.1351
-99.9900	<s>	-0.4387
-4.3348	<sua>	-0.1342
-4.3348	<tuj>	-0.1348
-4.3348	<ulusan>	-0.1347
-4.3348	<yan>	-0.1334
-3.2557	a	-0.2193
-4.0338	abis	-0.2913
-2.3710	acara	-0.2942
-4.3348	acaranya	-0.1339
-4.3348	acc	-0.1349
-3.8577	account	-0.1891
-1.8770	ada	-0.3004
-3.8577	adakah	-0.1206
-2.4540	adalah	-0.2057
-3.6359	adanya	-0.1312
-4.3348	adaptasi	-0.1345
-4.3348	adik	-0.1351
-3.5567	adik-adik	-0.2863
-4.3348	adminnya	-0.0988
-4.3348	affiliate	-0.1291
-3.5567	agak	-0.1343
-3.7328	agama	-0.4720
-3.0338	agar	-0.1833
-4.3348	agen	-0.1291
-3.5567	agenda	-0.3000
-3.7328	agustus	-0.1042
-4.3348	ah	-0.1314
-4.3348	air	-0.1317
-2.6816	aja	-0.3099
-4.3348	ajah	-0.0988
-4.3348	ajak	-0.1336
-4.0338	ajaran	-0.2935
-3.7328	aji	-0.0833
-3.6359	akademik	-0.2016
-4.0338	akademis	-0.1330
-4.3348	akademisi	-0.1339
-4.3348	akal	-0.0988
-1.8491	akan	-0.2795
-3.1587	akhir	-0.3369
-4.0338	akhiri	-0.1329
-4.3348	akhirnya	-0.1272
-4.3348	akibatnya	-0.1294
-4.3348	akmal	-0.1342
-4.3348	akrab	-0.1310
-3.7328	akses	-0.1078
-3.7328	aktif	-0.1998
-3.7328	aktivitas	-0.1348
-2.7221	aku	-0.2315
-4.3348	akui	-0.1317
-4.3348	akuisisi	-0.0988
-4.3348	akumulasi	-0.1283
-4.3348	akun	-0.1315
-4.3348	alamat	-0.1258
-4.3348	alamatnya	-0.1349
-3.6359	alasan	-0.0972
-3.8577	alasannya	-0.1312
-3.3806	alat	-0.2768
-3.7328	alat-alat	-0.3057
-4.3348	alatnya	-0.0988
-4.3348	alias	-0.1350
-4.3348	alkali	-0.1258
-4.0338	alternatif	-0.1329
-3.7328	alumni	-0.0722
-3.6359	alur	-0.3566
-4.3348	alurnya	-0.1339
-4.3348	aman	-0.1345
-4.3348	amat	-0.1283
-4.3348	ambil	-0.1352
-4.3348	amerika	-0.1352
-3.0126	anak	-0.2952
-3.4317	anak-anak	-0.0787
-3.8577	analisis	-0.2345
-4.0338	ancaman	-0.1325
-4.3348	ancol	-0.0988
-3.3348	anda	-0.0861
-4.3348	andal	-0.1291
-4.3348	andreas	-0.1352
-4.3348	anggap	-0.1340
-4.3348	anggaplah	-0.1352
-3.7328	anggaran	-0.1588
-4.3348	anggarannya	-0.1331
-3.1307	anggota	-0.1715
-4.0338	anggotanya	-0.1316
-4.3348	angka	-0.1352
-4.3348	angkat	-0.1351
-4.0338	angkatan	-0.1196
-4.3348	anjuran	-0.1266
-4.3348	anonim	-0.1351
-3.7328	antar	-0.2072
-3.2557	antara	-0.2824
-4.3348	antaranya	-0.0988
-2.5219	apa	-0.4554
-4.3348	apa-apa	-0.0988
-3.2934	apabila	-0.2091
-2.4427	apakah	-0.5715
-4.0338	apalagi	-0.1246
-4.3348	apalah	-0.1352
-2.8435	aplikasi	-0.1788
-4.3348	aplikasi-aplikasi	-0.1339
-4.3348	aplikasinya	-0.1350
-4.3348	approval	-0.1348
-4.3348	apresiasi	-0.1291
-4.3348	apresiasinya	-0.1339
-4.3348	april	-0.0988
-3.8577	aqua	-0.1944
-4.3348	arahannya	-0.0988
-4.3348	area	-0.1334
-4.3348	arif	-0.1342
-4.0338	artinya	-0.1288
-4.0338	asesmen	-0.1266
-4.3348	asia	-0.1352
-4.3348	aspek	-0.1350
-4.3348	aspirasi	-0.1283
-4.3348	assalamualaikum	-0.0988
-4.0338	asuhan	-0.2584
-4.3348	asumsi	-0.1272
-2.8034	atas	-0.3494
-4.0338	atasan	-0.0832
-4.0338	atasannya	-0.1342
-2.3664	atau	-0.1324
-3.5567	ataupun	-0.1298
-4.3348	atribut	-0.1333
-4.3348	atributnya	-0.1272
-3.8577	aturan	-0.2249
-4.3348	aturan-aturan	-0.1209
-4.3348	audience	-0.0988
-4.3348	aula	-0.1352
-4.3348	australia	-0.1352
-4.3348	autentikasi	-0.1350
-4.3348	auto	-0.1345
-3.3348	awal	-0.0765
-4.3348	awal-awal	-0.1342
-4.3348	awalnya	-0.1283
-4.3348	awareness	-0.1352
-4.0338	ayah	-0.1239
-4.3348	ayam	-0.1351
-3.7328	b	-0.1082
-4.3348	baca	-0.1346
-4.3348	bacakan	-0.1352
-3.8577	backend	-0.0854
-4.3348	badan	-0.1350
-2.8435	bagaimana	-0.1461
-2.7785	bagi	-0.1978
-2.5790	bagian	-0.4484
-3.2934	bagus	-0.1580
-3.4897	bahan	-0.7275
-4.3348	bahannya	-0.1209
-3.3348	bahas	-0.1200
-4.3348	bahasan	-0.1325
-3.6359	bahkan	-0.1310
-3.2557	bahwa	-0.1206
-2.3262	baik	-0.2147
-3.2209	baiklah	-0.2952
-3.5567	baiknya	-0.0870
-4.3348	bajunya	-0.1348
-2.7438	bakal	-0.1725
-4.3348	bakar	-0.0988
-3.7328	bakat	-0.3125
-4.3348	bakti	-0.1350
-3.4897	baku	-0.2204
-4.0338	bali	-0.1342
-3.8577	balik	-0.1186
-4.3348	banding	-0.0988
-3.8577	bandung	-0.1967
-4.3348	banget	-0.1291
-4.3348	bangun	-0.1346
-4.3348	bank	-0.1349
-3.5567	bantu	-0.1046
-4.3348	bantuan	-0.1272
-3.8577	banu	-0.1142
-2.7551	banyak	-0.1443
-4.0338	banyak-banyaknya	-0.0965
-4.0338	banyaknya	-0.1350
-2.9199	bapak	-0.1747
-4.0338	bapak-bapak	-0.2887
-4.3348	bapak-ibu	-0.1209
-2.9035	barang	-0.2569
-3.7328	barang-barang	-0.1193
-4.3348	barangnya	-0.1352
-4.3348	barat	-0.1310
-4.3348	bareng	-0.0988
-4.0338	barrier	-0.1349
-2.5219	baru	-0.2288
-4.3348	barunya	-0.0988
-4.3348	barusan	-0.1325
-3.6359	basis	-0.7227
-4.0338	batas	-0.2939
-3.7328	bawa	-0.2040
-4.3348	bayam	-0.0988
-4.3348	bbm	-0.0988
-4.3348	beban	-0.1209
-3.7328	bebas	-0.0974
-2.6106	beberapa	-0.1710
-3.0126	begitu	-0.3000
-4.3348	bekal	-0.1352
-4.0338	bekas	-0.2584
-2.9731	bekerja	-0.2933
-4.3348	bekerjamasama	-0.1351
-4.3348	bekerjanya	-0.1283
-3.6359	belajar	-0.1812
-4.0338	belakang	-0.1312
-4.3348	belakangi	-0.1349
-3.0561	belas	-0.1601
-3.3348	belasan	-0.1563
-3.8577	beliau	-0.1235
-3.8577	belom	-0.1344
-2.6914	belum	-0.1501
-4.3348	belut	-0.1333
-4.3348	benar	-0.1348
-4.0338	benar-benar	-0.1350
-4.0338	benarnya	-0.2584
-4.3348	bendahara	-0.1348
-4.0338	bener	-0.1350
-4.3348	bener-bener	-0.1344
-4.3348	bentar	-0.1352
-4.3348	bentrok	-0.1344
-3.4897	bentuk	-0.1661
-3.5567	berada	-0.3020
-4.3348	beradaptasi	-0.0988
-4.3348	beragam	-0.0988
-4.0338	berakhir	-0.1287
-4.3348	beralih	-0.1323
-4.3348	beranjak	-0.1323
-3.0796	berapa	-0.2697
-3.0561	berarti	-0.1049
-3.3806	berbagai	-0.1308
-4.3348	berbahan	-0.1348
-4.0338	berbahaya	-0.1340
-3.4897	berbeda	-0.1714
-4.3348	berbeda-beda	-0.1345
-4.3348	berbentuk	-0.1351
-4.3348	berbicara	-0.1343
-4.3348	berbincang	-0.1334
-4.0338	berbobot	-0.0913
-4.3348	berbuah	-0.0988
-4.0338	berdampak	-0.1318
-3.2557	berdasarkan	-0.1556
-4.3348	berdekatan	-0.1310
-4.3348	berdiri	-0.1349
-2.8577	berdoa	-0.5981
-3.8577	berdua	-0.1336
-4.3348	berefek	-0.1325
-3.8577	berencana	-0.2191
-4.3348	beres	-0.1344
-4.3348	berfokus	-0.1325
-4.0338	berfungsi	-0.1307
-3.7328	bergabung	-0.1256
-3.7328	bergantung	-0.3144
-4.0338	berguna	-0.1251
-3.4317	berharap	-0.1230
-3.4317	berhasil	-0.1684
-4.3348	berhubung	-0.1310
-3.3348	berhubungan	-0.1310
-4.3348	beri	-0.1351
-3.5567	berikan	-0.1313
-3.5567	berikut	-0.5123
-2.9199	berikutnya	-0.4791
-3.6359	berisi	-0.1897
-4.3348	berisiko	-0.1345
-3.8577	berita	-0.1201
-3.5567	berjaga	-0.3142
-3.1587	berjalan	-0.2942
-4.3348	berjalannya	-0.1343
-4.0338	berjualan	-0.1288
-4.0338	berkaitan	-0.2906
-4.3348	berkat	-0.1347
-4.3348	berkata	-0.1352
-4.3348	berkemauan	-0.1352
-3.3806	berkembang	-0.0887
-4.3348	berkemungkinan	-0.1323
-4.3348	berkenan	-0.1349
-4.3348	berkisar	-0.1350
-4.3348	berkomentar	-0.1350
-4.3348	berkomunikasi	-0.1310
-4.3348	berkontribusi	-0.1323
-4.3348	berkumpul	-0.1336
-4.0338	berlaku	-0.2854
-4.3348	berlangganan	-0.1352
-3.8577	berlangsung	-0.0905
-3.8577	berlanjut	-0.4039
-4.3348	berlebih	-0.1334
-4.3348	berlomba	-0.1348
-4.3348	bermanfaat	-0.0988
-4.3348	bernada	-0.1352
-4.3348	bernama	-0.1352
-4.3348	bernilai	-0.0988
-4.3348	beroperasi	-0.1347
-4.3348	berpartisipasi	-0.0988
-3.8577	berpengaruh	-0.1289
-4.0338	berperan	-0.2938
-4.3348	berperilaku	-0.1352
-3.6359	berpikir	-0.1849
-4.0338	berpindah	-0.1323
-4.3348	berpola	-0.1352
-3.3348	bersama	-0.1830
-4.3348	bersangkutan	-0.0988
-3.4317	bersedia	-0.1976
-4.3348	bersemangat	-0.1258
-4.3348	bersiap-siap	-0.1258
-4.0338	bersifat	-0.1321
-4.3348	bersih	-0.1339
-3.8577	bersih-bersih	-0.4067
-4.0338	bertahan	-0.1282
-4.3348	bertambah	-0.0988
-3.8577	bertanggung	-0.4065
-3.2209	bertanya	-0.5942
-4.3348	bertentangan	-0.0988
-4.3348	berterima	-0.1331
-4.3348	bertiga	-0.1336
-4.3348	bertindak	-0.1345
-3.8577	bertugas	-0.2333
-4.0338	bertujuan	-0.1256
-3.8577	berubah	-0.0912
-4.3348	berunding	-0.1258
-3.5567	berupa	-0.1341
-3.8577	berusaha	-0.2254
-4.0338	berwarna	-0.1257
-2.8034	besar	-0.2127
-4.0338	beserta	-0.1349
-4.3348	besok	-0.1344
-4.0338	besoknya	-0.1325
-4.3348	beta	-0.1334
-3.6359	betul	-0.2393
-3.4317	biar	-0.1234
-3.8577	biasa	-0.1260
-3.8577	biasanya	-0.0892
-3.0561	biaya	-0.2933
-4.3348	bicara	-0.1349
-4.0338	bicarakan	-0.0984
-3.1307	bidang	-0.1480
-4.0338	bidangnya	-0.0982
-3.7328	bikin	-0.1346
-3.7328	bila	-0.3183
-4.0338	bilang	-0.1320
-4.0338	bincang-bincang	-0.1334
-4.3348	bingung	-0.1336
-4.0338	biro	-0.1346
-4.0338	birokrasi	-0.1263
-2.3220	bisa	-0.1788
-3.6359	biskuit	-0.2677
-2.8577	bisnis	-0.1995
-4.0338	bitbucket	-0.1330
-4.0338	bka	-0.1343
-4.3348	blog	-0.1258
-4.3348	board	-0.1209
-3.6359	boleh	-0.0938
-4.3348	bonus	-0.1258
-4.3348	book	-0.1352
-3.6359	bot	-0.0721
-4.3348	botnya	-0.1344
-4.3348	breakdown	-0.0988
-4.3348	broadcast	-0.1334
-4.3348	brokoli	-0.1291
-4.3348	browser	-0.0988
-3.8577	brt	-0.0942
-3.0796	bu	-1.2487
-4.3348	buah	-0.1349
-4.3348	buang	-0.1351
-2.6359	buat	-0.0994
-4.3348	buatkan	-0.1351
-4.3348	buatlah	-0.1350
-4.3348	bubar	-0.1294
-3.8577	budi	-0.0980
-3.7328	bujet	-0.1912
-3.4317	buka	-0.2024
-4.3348	bukalapak	-0.1352
-3.2934	bukan	-0.2096
-4.3348	bukankah	-0.1343
-4.0338	bukannya	-0.2939
-4.3348	bukit	-0.1352
-2.4836	bulan	-0.5043
-4.3348	bulan-bulan	-0.1347
-4.3348	bulanannya	-0.1351
-4.3348	buru-buru	-0.1351
-4.0338	buruk	-0.1323
-3.6359	business	-0.7230
-4.3348	butir	-0.1349
-3.0561	butuh	-0.3313
-4.3348	cabang	-0.1336
-4.3348	cadangan	-0.1209
-4.0338	calon	-0.1349
-4.3348	candi	-0.1352
-4.3348	canggihnya	-0.1350
-3.8577	canvas	-0.0942
-3.2209	cara	-0.1216
-4.0338	caranya	-0.1344
-4.3348	cari	-0.1339
-3.7328	catat	-0.1707
-3.8577	catatan	-0.0986
-4.3348	catet	-0.1347
-4.0338	cek	-0.1340
-4.3348	celah	-0.1272
-4.0338	cenderung	-0.1344
-4.3348	ceo	-0.1336
-3.7328	cepat	-0.0804
-3.8577	cerita	-0.0974
-4.3348	change	-0.1209
-4.0338	channel	-0.0832
-4.3348	channels	-0.1350
-4.0338	chatbot	-0.0894
-3.8577	chatbotnya	-0.2255
-4.3348	ciri	-0.1209
-3.5567	coba	-0.1263
-3.7328	cocok	-0.1975
-4.3348	cokelat	-0.1352
-4.3348	contact	-0.1352
-3.8577	contoh	-0.1255
-4.3348	contohkan	-0.1339
-4.3348	contohnya	-0.1352
-4.0338	control	-0.1345
-4.3348	crash	-0.1352
-4.3348	cuaca	-0.1209
-2.7328	cukup	-0.2782
-3.8577	cukupkan	-0.1237
-3.6359	cuma	-0.1828
-3.6359	cuman	-0.1877
-4.0338	cumi	-0.2947
-3.8577	customer	-0.1207
-4.3348	customer-oriented	-0.1209
-4.3348	customernya	-0.1342
-4.3348	cuti	-0.1349
-3.6359	daerah	-0.1330
-4.3348	daerah-daerah	-0.1352
-3.3806	daftar	-0.1642
-4.3348	dah	-0.1325
-3.1887	dahulu	-0.5056
-2.5287	dalam	-0.2019
-4.3348	dampak	-0.1351
-1.8563	dan	-0.1103
-2.8435	dana	-0.2521
-4.0338	dananya	-0.2584
-2.3220	dapat	-0.1673
-4.3348	dapatkan	-0.1348
-4.0338	dapet	-0.1350
-1.7995	dari	-0.3315
-4.0338	darien	-0.1325
-4.3348	darimana	-0.1349
-4.3348	darimanapun	-0.1291
-3.3348	daring	-0.0933
-3.8577	daripada	-0.1315
-3.0561	dasar	-0.1117
-4.0338	dasarnya	-0.1316
-2.9199	data	-0.1307
-3.5567	database	-0.1290
-4.3348	databasenya	-0.1350
-3.1587	datang	-0.2212
-4.0338	datanya	-0.1333
-4.0338	dateng	-0.1329
-3.4317	daya	-0.5869
-4.3348	de	-0.1352
-4.3348	deal	-0.1342
-4.3348	definisi	-0.1351
-3.7328	deh	-0.0972
-4.3348	dekorasi	-0.1209
-3.0338	delapan	-0.1426
-4.0338	demikian	-0.1258
-4.3348	demonstrasinya	-0.1350
-4.3348	denda	-0.1348
-2.0147	dengan	-0.1841
-4.0338	dengarkan	-0.1348
-2.7116	depan	-0.5164
-4.0338	depannya	-0.1304
-2.5640	departemen	-0.3618
-4.0338	departemennya	-0.0978
-4.3348	deployment	-0.0988
-3.3806	desain	-0.1388
-3.6359	desember	-0.1495
-4.3348	detail	-0.0988
-3.6359	detil	-0.2693
-4.3348	detil-detil	-0.1351
-4.0338	developer	-0.2584
-4.0338	devops	-0.0921
-2.0630	di	-0.3134
-3.0796	dia	-0.1714
-4.3348	diacak	-0.1317
-3.2557	diadakan	-0.1127
-4.3348	diadakannya	-0.1342
-4.3348	diagram	-0.1283
-4.3348	diajak	-0.1325
-4.3348	diajarkan	-0.1325
-4.3348	diakses	-0.1349
-3.4897	dialokasikan	-0.1781
-4.3348	diambil	-0.1346
-4.3348	dianggap	-0.1349
-4.0338	diantaranya	-0.1313
-4.3348	diapresiasi	-0.0988
-4.3348	diarahkan	-0.1323
-4.3348	diasesmen	-0.1266
-4.0338	diawal	-0.1332
-4.3348	dibagi	-0.1346
-3.1887	dibahas	-0.1598
-3.7328	dibanding	-0.1910
-3.6359	dibandingkan	-0.1864
-4.0338	dibantu	-0.1339
-4.3348	dibatasi	-0.1340
-3.7328	dibawa	-0.3115
-4.3348	dibayar	-0.0988
-4.3348	dibayarkan	-0.1258
-4.3348	dibeli	-0.1340
-4.3348	dibelinya	-0.1349
-3.6359	diberi	-0.1342
-3.1307	diberikan	-0.3560
-4.3348	diberitahukan	-0.1340
-4.0338	diberlakukan	-0.1305
-4.3348	dibersihkan	-0.1310
-3.7328	dibicarakan	-0.0919
-4.3348	dibikin	-0.1350
-4.0338	dibilang	-0.1308
-4.3348	dibilanginkan	-0.1350
-4.0338	dibroadcast	-0.1308
-3.5567	dibuat	-0.1294
-3.8577	dibuka	-0.4026
-3.7328	dibutuhkan	-0.1303
-4.3348	dibutuhkannya	-0.0988
-4.3348	dicanangkan	-0.1291
-4.3348	dicapai	-0.1337
-3.8577	dicari	-0.1327
-4.3348	dicatat	-0.1258
-4.3348	diciptakan	-0.0988
-3.4897	dicukupkan	-0.6905
-4.3348	didampingi	-0.1340
-4.3348	didapat	-0.1348
-3.7328	didapatkan	-0.1233
-4.3348	didata	-0.1332
-4.3348	didatangi	-0.1323
-3.7328	didiskusikan	-0.1282
-4.3348	dievaluasi	-0.1325
-4.3348	difokuskan	-0.1346
-3.8577	digabungkan	-0.1244
-4.3348	diganti	-0.0988
-4.3348	digelutin	-0.1315
-4.3348	digemari	-0.1349
-3.7328	digital	-0.0888
-2.9731	digunakan	-0.3977
-3.7328	dihadapi	-0.1695
-3.3348	diharapkan	-0.1128
-4.3348	diharapkannya	-0.1343
-4.0338	diharuskan	-0.1345
-4.3348	dihasilkan	-0.1331
-4.0338	dihentikan	-0.2948
-4.3348	dihilangkan	-0.0988
-4.3348	dihitung	-0.1350
-4.3348	diidentifikasi	-0.1339
-4.3348	diikuti	-0.1340
-4.3348	diimplementasikan	-0.1352
-4.3348	diinfokan	-0.1336
-4.0338	diingat	-0.0986
-4.3348	diingatkan	-0.1350
-3.7328	diinginkan	-0.1698
-4.3348	diinisiasikan	-0.1310
-4.3348	diintegrasiin	-0.1323
-3.6359	diisi	-0.1785
-4.3348	dijabarkan	-0.1340
-4.3348	dijadikan	-0.1342
-4.3348	dijalin	-0.0988
-3.8577	dijawab	-0.1333
-4.0338	dijelaskan	-0.2936
-4.0338	dijual	-0.1343
-3.8577	dikabarin	-0.1297
-4.3348	dikabulkan	-0.1283
-3.7328	dikarenakan	-0.1342
-3.8577	dikasih	-0.2347
-3.5567	dikatakan	-0.2254
-4.3348	dikategoriin	-0.1352
-3.7328	dikeluarkan	-0.0975
-4.0338	dikembangkan	-0.0922
-4.0338	dikenal	-0.1249
-3.7328	dikenalkan	-0.2041
-4.0338	dikerjain	-0.0981
-3.3348	dikerjakan	-0.1262
-3.8577	diklat	-0.0921
-4.0338	dikomunikasikan	-0.1349
-4.0338	dikontak	-0.1321
-4.3348	dikumpulkan	-0.1290
-4.3348	dikunjungi	-0.1340
-4.3348	dikurangi	-0.1343
-3.4317	dilaksanakan	-0.1557
-2.9731	dilakukan	-0.1372
-3.8577	dilanjut	-0.2277
-3.4317	dilanjutkan	-0.1676
-4.3348	dilansir	-0.1283
-4.0338	dilaporkan	-0.2584
-3.3806	dilihat	-0.2452
-4.0338	diluangkan	-0.1254
-4.3348	diluncurkan	-0.1338
-4.0338	dimana	-0.1269
-4.3348	dimasuki	-0.1340
-3.8577	dimasukin	-0.4039
-3.7328	dimasukkan	-0.2819
-4.0338	dimiliki	-0.2932
-4.0338	diminati	-0.0988
-3.4897	diminta	-0.1248
-3.8577	dimohon	-0.1228
-4.3348	dimudahkan	-0.1310
-3.0338	dimulai	-0.5592
-4.3348	dinaikkan	-0.0988
-3.7328	dini	-0.1668
-4.0338	dinilai	-0.1347
-4.3348	dinyatakan	-0.1352
-4.3348	dion	-0.1352
-4.3348	dipahami	-0.1352
-4.0338	dipakai	-0.1257
-4.0338	dipakek	-0.0988
-4.3348	dipaketkan	-0.1323
-4.3348	dipasarkan	-0.1291
-4.3348	dipastikan	-0.1294
-4.3348	dipatiukur	-0.0988
-4.3348	dipecah	-0.1336
-3.8577	dipelajari	-0.2307
-4.3348	dipenuhi	-0.1340
-4.3348	diperbaharui	-0.1334
-4.3348	diperbaiki	-0.0988
-4.3348	dipercepat	-0.1332
-3.8577	diperhatikan	-0.0892
-4.0338	diperjelas	-0.1324
-3.8577	diperkirakan	-0.2284
-4.0338	diperluas	-0.2919
-3.8577	diperlukan	-0.1253
-4.3348	diperoleh	-0.1310
-3.8577	dipersiapkan	-0.1277
-3.8577	dipersilahkan	-0.0881
-3.4897	dipersilakan	-0.3085
-3.6359	dipertimbangkan	-0.1164
-4.3348	dipesan	-0.0988
-3.8577	dipikirkan	-0.1984
-3.7328	dipilih	-0.1325
-3.7328	dipimpin	-0.4714
-4.3348	dipinjamkannya	-0.1341
-4.3348	dipisah	-0.1340
-3.7328	diproses	-0.1199
-4.3348	diproyeksikan	-0.1290
-4.0338	dipublikasikan	-0.1337
-4.0338	dirancang	-0.1302
-4.0338	dirasa	-0.1351
-4.3348	direkrut	-0.1351
-3.6359	direncanakan	-0.0894
-4.3348	direspon	-0.1310
-3.7328	diri	-0.2046
-4.0338	dirinci	-0.1348
-4.3348	disadari	-0.1346
-3.8577	disajikan	-0.1247
-3.6359	disampaikan	-0.1535
-4.0338	disampein	-0.1311
-4.3348	disamping	-0.1349
-4.3348	disana	-0.1339
-4.3348	disasar	-0.0988
-4.3348	disebabkan	-0.1340
-4.3348	disebarkan	-0.1323
-4.3348	disebut	-0.1349
-3.7328	disebutkan	-0.1298
-3.4897	disediakan	-0.1998
-3.7328	diselesaikan	-0.1300
-4.3348	diseragamkan	-0.1352
-3.7328	disesuaikan	-0.1701
-3.7328	disetujui	-0.0953
-4.3348	disewa	-0.0988
-4.3348	disiapin	-0.1336
-3.8577	disiapkan	-0.1287
-4.3348	disimpan	-0.1310
-4.3348	disimpen	-0.1350
-3.0561	disini	-0.0987
-4.3348	disitu	-0.0988
-3.8577	diskon	-0.1067
-4.3348	diskusi	-0.1266
-4.3348	diskusikan	-0.1340
-4.3348	disponsori	-0.1340
-3.7328	distribusi	-0.1194
-4.0338	distributor	-0.1345
-4.3348	disukai	-0.1349
-4.0338	disusun	-0.1170
-4.0338	ditakutkan	-0.1290
-4.3348	ditambah	-0.1310
-4.0338	ditambahkan	-0.0947
-3.7328	ditampilkan	-0.1710
-4.3348	ditanda	-0.1351
-4.3348	ditanggapi	-0.1291
-4.3348	ditanggulangi	-0.1310
-3.7328	ditanyakan	-0.1692
-4.3348	ditargetkan	-0.1258
-3.8577	ditawarkan	-0.0983
-4.3348	ditegaskan	-0.1348
-3.7328	ditempatkan	-0.2820
-4.3348	ditempel	-0.1315
-4.3348	ditemukan	-0.1351
-4.0338	ditentukan	-0.1297
-3.6359	diterapkan	-0.1473
-4.3348	diterima	-0.1350
-4.0338	diterusin	-0.1343
-4.3348	dites	-0.0988
-4.3348	ditetapkan	-0.1334
-4.3348	ditindaklanjuti	-0.1291
-4.3348	ditopang	-0.1340
-4.0338	ditugaskan	-0.2854
-4.0338	ditujukan	-0.1256
-4.0338	ditulis	-0.1273
-4.3348	ditunda	-0.1351
-4.3348	ditunggu	-0.1258
-4.3348	ditunjukkan	-0.1331
-4.3348	ditutup	-0.1310
-3.8577	diubah	-0.0955
-4.3348	diundang	-0.1350
-4.3348	diunduh	-0.1346
-4.3348	diunggah	-0.1325
-4.0338	diurus	-0.1338
-4.3348	diusahakan	-0.1351
-4.3348	diusulkan	-0.1340
-4.3348	divalidasi	-0.1291
-2.0630	divisi	-0.4527
-3.8577	divisi-divisi	-0.2203
-3.8577	divisinya	-0.0877
-4.3348	diwakili	-0.1340
-4.3348	dlapan	-0.1348
-2.9546	doa	-0.3417
-4.3348	doang	-0.0988
-3.3806	dokumentasi	-0.2056
-4.0338	dokumentasinya	-0.0966
-4.3348	dolar	-0.1283
-4.3348	dollar	-0.0988
-4.3348	dompet	-0.1352
-4.3348	dompetnya	-0.1352
-3.5567	dong	-0.1177
-4.3348	dosen	-0.1351
-4.3348	dp	-0.1325
-4.3348	drastis	-0.0988
-3.7328	drive	-0.0987
-2.5640	dua	-0.4474
-4.3348	duit	-0.0988
-4.3348	dukungan	-0.1352
-2.9199	dulu	-0.2807
-3.4897	dunia	-0.1187
-4.3348	durasi	-0.1343
-4.3348	duri	-0.1352
-4.3348	e-commerce	-0.1346
-3.4897	eben	-0.0880
-4.0338	eceng	-0.2948
-4.3348	edukatif	-0.1350
-3.5567	efektif	-0.1436
-3.8577	efektivitas	-0.1274
-4.3348	effort	-0.1209
-4.0338	eksplorasi	-0.1329
-3.7328	eksternal	-0.0903
-4.3348	ekstrem	-0.1336
-4.0338	elektronik	-0.2584
-3.5567	elemen	-0.1575
-3.8577	elisa	-0.1974
-4.3348	email	-0.1347
-3.8577	emas	-0.2252
-4.3348	embernya	-0.1352
-3.1044	empat	-0.2753
-3.7328	enam	-0.1277
-4.3348	engan	-0.1350
-4.0338	engga	-0.0985
-3.4897	enggak	-0.2466
-3.8577	engineer	-0.1284
-4.0338	ensof	-0.2584
-4.3348	entry	-0.0988
-4.3348	era	-0.1351
-3.8577	estavet	-0.0921
-4.0338	estimasi	-0.1342
-4.3348	etis	-0.1291
-3.8577	evaluasi	-0.1345
-4.3348	expo	-0.1348
-4.3348	exponya	-0.1345
-4.3348	facto	-0.1283
-4.0338	fair	-0.1119
-4.0338	fakultas	-0.1336
-4.3348	fasilitas-fasilitas	-0.1315
-4.3348	fatal	-0.1283
-3.4317	fatma	-0.1501
-4.3348	februari	-0.0988
-4.3348	feedback	-0.1351
-4.3348	felis	-0.1348
-3.1887	finlandia	-0.1478
-4.3348	first	-0.1352
-4.3348	fisik	-0.0988
-3.0796	fitur	-0.2120
-4.3348	fiturnya	-0.1290
-4.0338	fix	-0.2584
-4.3348	fleksibel	-0.0988
-3.7328	flyer	-0.1678
-3.2209	fokus	-0.3182
-4.3348	fokusnya	-0.1348
-4.3348	follow	-0.1351
-4.3348	ford	-0.1352
-4.0338	form	-0.1258
-4.3348	format	-0.1209
-3.6359	foto	-0.3747
-4.3348	foto-foto	-0.1315
-4.3348	founder	-0.1258
-4.0338	full	-0.1352
-3.8577	funding	-0.2336
-3.5567	fungsi	-0.1191
-3.4317	futsal	-0.1588
-2.9731	ga	-0.2087
-3.8577	gagal	-0.0920
-3.8577	gaji	-0.1244
-4.3348	gajinya	-0.0988
-3.0796	gak	-0.1435
-3.8577	gambar	-0.0947
-3.8577	gambaran	-0.1329
-4.0338	ganti	-0.1351
-4.0338	gantian	-0.1314
-4.3348	gara-gara	-0.1352
-4.3348	garis	-0.1345
-4.3348	gausah	-0.1345
-4.3348	gebetanmu	-0.1340
-4.3348	gedung	-0.1350
-4.3348	gembira	-0.0988
-4.3348	gencar	-0.1348
-4.0338	giliran	-0.1324
-3.1044	gimana	-0.2320
-4.0338	gio	-0.0913
-3.7328	git	-0.1674
-3.5567	github	-0.1925
-4.3348	gitlab	-0.0988
-3.0126	gitu	-0.3443
-4.3348	gituh	-0.0988
-3.5567	go-jek	-0.0823
-4.3348	gojek	-0.1266
-4.0338	gondok	-0.0832
-3.7328	goreng	-0.2076
-3.8577	grafik	-0.2203
-4.3348	grafis	-0.1349
-4.0338	gratis	-0.1253
-3.7328	grup	-0.1140
-4.3348	grupnya	-0.1343
-4.3348	gua	-0.1352
-3.0126	gudang	-0.2495
-3.3348	gue	-0.1579
-4.3348	gulung	-0.1352
-3.8577	gunakan	-0.1882
-4.0338	guru-guru	-0.1342
-4.0338	habis	-0.1351
-4.3348	habisnya	-0.0988
-3.8577	hadapi	-0.1285
-3.3348	hadiah	-0.0797
-4.3348	hadiahnya	-0.1266
-3.1307	hadir	-0.3139
-4.0338	hailing	-0.0947
-2.6627	hal	-0.6780
-3.5567	hal-hal	-0.2334
-3.3348	halaman	-0.1421
-4.3348	halamannya	-0.0988
-4.3348	hallo	-0.1345
-4.3348	halnya	-0.1310
-4.3348	halo	-0.1346
-4.0338	halu	-0.1335
-3.8577	haluluntur	-0.1975
-4.3348	hambatan	-0.1344
-3.8577	hampir	-0.1319
-4.0338	handy	-0.1278
-2.8877	hanya	-0.1311
-3.8577	harap	-0.4067
-3.6359	harapan	-0.2527
-3.8577	harapannya	-0.1338
-4.3348	harapkan	-0.1283
-3.1587	harga	-0.1979
-4.3348	harga-harga	-0.1351
-2.4158	hari	-0.5881
-4.3348	hari-hari	-0.1351
-4.0338	harian	-0.1285
-3.7328	harinya	-0.1677
-2.6359	harus	-0.1751
-4.0338	harusnya	-0.1325
-2.9924	hasil	-0.1537
-3.8577	hati	-0.4067
-4.3348	hebat	-0.1350
-4.3348	henry	-0.1352
-4.3348	hidup	-0.1352
-3.5567	hijau	-0.1345
-3.8577	hilang	-0.1348
-3.0338	himpunan	-0.1912
-3.4897	hingga	-0.1715
-4.3348	historis	-0.1310
-4.0338	hosting	-0.1283
-3.6359	hubungan	-0.2625
-4.3348	hujan	-0.1334
-3.8577	humas	-0.1320
-4.3348	hutang	-0.1209
-4.0338	ia	-0.1323
-4.0338	ialah	-0.1248
-4.3348	ibarat	-0.1352
-3.1307	ibu	-0.3090
-4.0338	ibu-ibu	-0.2946
-3.3806	ide	-0.1384
-4.0338	identitas	-0.1255
-4.3348	idenya	-0.1344
-4.3348	iga	-0.1352
-4.3348	ijin	-0.1346
-4.0338	ika	-0.1283
-4.3348	ikan	-0.1351
-3.3806	iklan	-0.1603
-3.6359	ikut	-0.1906
-4.3348	ikut-ikutan	-0.0988
-4.3348	ilham	-0.1352
-4.3348	ilmu-ilmu	-0.1347
-3.7328	implementasi	-0.4724
-4.3348	indimi	-0.1291
-3.7328	indonesia	-0.4362
-4.0338	industri	-0.1208
-4.3348	infonya	-0.1291
-4.3348	informal	-0.1339
-3.5567	informasi	-0.1570
-3.7328	informatika	-0.1973
-4.3348	informatikanya	-0.1272
-4.3348	infrastruktur	-0.1352
-4.3348	ingat	-0.1336
-2.7328	ingin	-0.2261
-1.7054	ini	-0.3380
-4.3348	inkubator	-0.1346
-4.0338	inovasi	-0.1258
-4.3348	insentif	-0.1351
-4.3348	instagram	-0.1317
-4.3348	integrasi	-0.1310
-3.3348	internal	-0.0992
-3.8577	internasional	-0.1828
-4.3348	interupsi	-0.1350
-4.0338	inti	-0.1348
-4.3348	inventaris	-0.1334
-3.7328	inventarisasi	-0.1713
-4.3348	investasi	-0.1333
-4.3348	investigasi	-0.1350
-3.7328	investor	-0.0915
-4.0338	ipa	-0.0921
-4.3348	isi	-0.1337
-3.7328	isinya	-0.1334
-4.0338	isoma	-0.0971
-4.3348	istirahat	-0.1349
-3.2557	it	-0.1703
-3.2934	itb	-0.0865
-4.3348	item	-0.1209
-2.0893	itu	-0.1461
-4.0338	ituh	-0.0832
-4.0338	itulah	-0.1194
-3.2209	iya	-0.1248
-4.3348	iyaa	-0.1351
-3.1044	izin	-0.1539
-4.3348	izinkan	-0.1314
-3.8577	izinnya	-0.2300
-2.3178	jadi	-0.0693
-4.3348	jadikan	-0.1351
-3.4317	jadwal	-0.1177
-3.8577	jadwalkan	-0.1320
-4.3348	jaga	-0.1352
-4.3348	jagung	-0.1352
-3.8577	jakarta	-0.1918
-4.3348	jaket	-0.1348
-3.7328	jalan	-0.2060
-3.6359	jalan-jalan	-0.0883
-4.3348	jalan-jalannya	-0.0988
-4.3348	jalankan	-0.1258
-4.0338	jalu	-0.1342
-4.3348	jalur	-0.1352
-4.3348	jalur-jalur	-0.1209
-3.2557	jam	-0.4201
-4.3348	jaman	-0.1352
-4.3348	jamin	-0.1345
-4.3348	jaminan	-0.1352
-3.1587	jangan	-0.3171
-4.0338	jangka	-0.1352
-4.3348	jangkauan	-0.1350
-4.3348	jantung	-0.1283
-3.8577	januari	-0.0970
-4.3348	jaringan	-0.1351
-4.0338	jasa	-0.1207
-4.3348	jasanya	-0.1331
-3.5567	jauh	-0.0966
-4.3348	jawa	-0.1352
-3.1887	jawab	-0.1803
-4.3348	jawaban	-0.1209
-4.0338	jawabannya	-0.0972
-4.3348	jawabnya	-0.1337
-4.0338	jaya	-0.1334
-4.3348	jeje	-0.1352
-4.3348	jelajahi	-0.0988
-3.3348	jelas	-0.1364
-3.8577	jelasin	-0.1326
-3.6359	jelaskan	-0.1310
-4.3348	jelek	-0.1291
-3.3348	jenis	-0.2395
-4.3348	jenis-jenis	-0.1347
-4.3348	jenjang	-0.1349
-4.0338	jepang	-0.1248
-2.9546	jika	-0.3438
-4.3348	jobdesc	-0.1283
-4.3348	jobdesk	-0.1352
-4.0338	jual	-0.1340
-3.5567	jualan	-0.3240
-2.2276	juga	-0.1550
-4.0338	jumat	-0.2584
-4.3348	jumatnya	-0.1344
-3.2557	jumlah	-0.1467
-4.0338	jumlahnya	-0.0921
-4.0338	jumpa	-0.0985
-3.5567	jurusan	-0.1226
-4.3348	jus	-0.1258
-4.3348	justru	-0.1351
-3.2934	juta	-0.2048
-4.3348	jutaan	-0.1352
-3.7328	kabar	-0.0965
-4.3348	kabarnya	-0.1332
-3.7328	kaderisasi	-0.2847
-4.3348	kadivnya	-0.1258
-3.5567	kado	-0.1593
-3.6359	kak	-0.1460
-4.0338	kakak	-0.1349
-4.3348	kala	-0.0988
-4.3348	kalah	-0.1350
-2.4158	kalau	-0.3791
-2.8435	kali	-0.8518
-2.8435	kalian	-0.1033
-2.9731	kalo	-0.5255
-4.0338	kame	-0.1288
-3.2934	kamera	-0.1248
-2.6359	kami	-0.1866
-4.3348	kamis	-0.1336
-3.3348	kampus	-0.2772
-3.6359	kamu	-0.1294
-2.8435	kan	-0.1966
-4.0338	kanal	-0.1350
-4.3348	kanban	-0.1352
-4.3348	kanker	-0.1351
-3.3806	kantor	-0.1598
-4.3348	kanvas	-0.1352
-3.8577	kaos	-0.1263
-4.3348	kapal	-0.1209
-3.4897	kapan	-0.1262
-4.3348	kapanpun	-0.0988
-4.3348	kapasitas	-0.1351
-4.0338	karakteristik	-0.1345
-4.0338	karakteristiknya	-0.0982
-2.4264	karena	-0.1327
-4.3348	karenanya	-0.1342
-4.3348	karisma	-0.1352
-3.2209	kartu	-0.2206
-4.3348	karung	-0.1344
-2.8034	karyawan	-0.2257
-4.0338	karyawan-karyawan	-0.1184
-4.0338	kas	-0.2584
-4.3348	kasar	-0.1343
-4.3348	kasat	-0.1351
-2.3055	kasih	-0.5664
-4.3348	kasus	-0.1349
-4.3348	kata	-0.1351
-4.0338	katakan	-0.1292
-3.6359	katanya	-0.1886
-4.3348	kategorinya	-0.1317
-3.7328	kaya	-0.0933
-3.2934	kayak	-0.1799
-3.4317	kayaknya	-0.1260
-2.1795	ke	-0.2422
-4.0338	keadaan	-0.1322
-4.0338	keamanan	-0.1207
-4.3348	keanggotaan	-0.1349
-4.0338	kebanyakan	-0.1341
-4.3348	kebebasan	-0.1258
-4.0338	keberatan	-0.2584
-3.8577	keberhasilan	-0.2301
-3.8577	keberjalanan	-0.1180
-4.0338	keberjalanannya	-0.1274
-4.3348	keberlangsungan	-0.1350
-3.7328	kebijakan	-0.0967
-4.3348	kebudayaan	-0.1351
-3.2934	kebutuhan	-0.1465
-4.3348	kebutuhannya	-0.1351
-4.3348	kecelakaan	-0.1209
-3.5567	kecil	-0.1345
-4.3348	kedatangan	-0.1347
-3.8577	kedepannya	-0.0884
-3.2557	kedua	-0.1581
-4.3348	keempat	-0.1337
-4.3348	kegagalan	-0.1266
-3.1307	kegiatan	-0.1210
-4.3348	kegiatan-kegiatan	-0.1348
-4.3348	kegiatannya	-0.1341
-4.3348	kehabisan	-0.1347
-4.3348	kehadiran	-0.1351
-4.3348	kehadirannya	-0.1337
-3.7328	kehidupan	-0.0952
-3.5567	kehijauan	-0.1806
-4.3348	keindahan	-0.1352
-4.3348	keisi	-0.1345
-4.3348	keistimewaan	-0.1283
-4.3348	kejadian	-0.1266
-4.3348	kejamnya	-0.1352
-4.3348	kejar	-0.1351
-4.0338	kekeluargaan	-0.1320
-3.7328	kekurangan	-0.1198
-4.3348	kekurangannya	-0.1342
-4.3348	kelancaran	-0.1291
-4.3348	kelanjutan	-0.1342
-3.5567	kelas	-0.2971
-4.3348	kelebihan	-0.1291
-4.3348	kelebihannya	-0.1351
-4.0338	kelemahannya	-0.2584
-4.3348	kelengkapan	-0.1352
-3.7328	kelereng	-0.1973
-3.8577	keliatannya	-0.1274
-3.8577	kelihatannya	-0.1330
-4.3348	keliling	-0.1326
-4.3348	kelima	-0.0988
-3.8577	kelompok	-0.1347
-3.7328	keluar	-0.2008
-4.3348	kelulusan	-0.1352
-4.0338	kemahasiswaan	-0.0922
-3.6359	kemajuan	-0.1070
-4.3348	kemajuannya	-0.0988
-3.6359	kemampuan	-0.1793
-4.3348	kemanusiaan	-0.1291
-4.0338	kemaren	-0.0981
-3.1044	kemarin	-0.1576
-4.0338	kemasan	-0.0976
-3.2209	kembali	-0.1410
-4.0338	kembalikan	-0.2919
-3.7328	kembangkan	-0.1196
-4.0338	kemeja	-0.0886
-4.0338	kemerdekaan	-0.1335
-3.8577	kemudahan	-0.2335
-2.9924	kemudian	-0.1666
-3.6359	kemungkinan	-0.2612
-3.1587	kenaikan	-0.3003
-4.0338	kenal	-0.0913
-3.5567	kenapa	-0.0869
-3.4897	kendala	-0.1747
-4.3348	kendalanya	-0.1351
-4.3348	kendaraan	-0.1346
-2.9731	kepada	-0.2631
-3.8577	kepala	-0.2299
-4.3348	kepastian	-0.0988
-3.7328	kepengurusan	-0.3204
-3.6359	kepercayaan	-0.2705
-3.8577	keperluan	-0.2243
-4.3348	kepopulerannya	-0.1326
-4.3348	kepresidenan	-0.1348
-3.4897	keputusan	-0.1019
-4.3348	kerangka	-0.1347
-4.0338	keras	-0.1237
-4.3348	kerasnya	-0.1343
-3.6359	keripik	-0.2685
-2.8877	kerja	-0.1855
-4.3348	kerjain	-0.1343
-3.8577	kerjakan	-0.2306
-3.8577	kerjanya	-0.0968
-4.3348	kerjasama	-0.1310
-3.8577	kerugian	-0.1197
-3.7328	kerupuk	-0.2841
-4.3348	kesaktian	-0.1352
-3.8577	kesalahan	-0.1314
-4.3348	kesatuan	-0.0988
-4.0338	kesediaan	-0.1282
-3.8577	kesejahteraan	-0.1258
-3.4897	kesempatan	-0.1389
-4.3348	kesepakatan	-0.1283
-4.3348	kesepakatannya	-0.1331
-4.3348	kesetiaan	-0.0988
-3.8577	kesiapan	-0.2279
-4.3348	kesiapannya	-0.0988
-4.3348	kesimpan	-0.1323
-4.0338	kesimpulan	-0.1196
-4.3348	kesukaan	-0.1333
-4.0338	kesulitan	-0.2854
-4.0338	ketahui	-0.1345
-4.0338	ketemu	-0.1334
-4.3348	keterampilan	-0.1209
-4.3348	keterbatasan	-0.1343
-3.6359	keterlambatan	-0.0861
-4.3348	ketersediaannya	-0.0988
-4.3348	ketertarikan	-0.1349
-4.3348	ketidakpastian	-0.0988
-4.3348	ketidakpuasan	-0.1350
-3.6359	ketiga	-0.0790
-3.1887	ketika	-0.1608
-4.3348	ketinggalan	-0.1315
-3.1044	ketua	-0.5167
-4.3348	ketujuh	-0.1314
-2.8877	keuangan	-0.3218
-4.3348	keunikan	-0.1333
-3.1044	keuntungan	-0.2320
-3.8577	kewirausahaan	-0.0930
-3.8577	keyakinan	-0.4062
-3.4317	khusus	-0.1754
-3.3806	khususnya	-0.1963
-3.2934	kinerja	-0.1503
-4.3348	kinerja-kinerja	-0.1209
-4.3348	kinerjanya	-0.1350
-3.6359	kira	-0.1331
-2.8297	kira-kira	-0.1066
-3.6359	kirim	-0.1880
-1.7360	kita	-0.2881
-4.3348	klarifikasi	-0.1343
-3.4897	klien	-0.1158
-4.3348	klik	-0.1350
-4.3348	kode	-0.1258
-4.3348	koding	-0.1291
-4.0338	kok	-0.1342
-4.0338	kolom	-0.2947
-4.0338	komentar	-0.1325
-4.3348	kompeten	-0.1315
-4.3348	kompetitif	-0.1315
-4.0338	kompetitor	-0.1197
-4.0338	kompetitormu	-0.0975
-3.8577	kompleks	-0.0832
-4.0338	komputasi	-0.0971
-3.8577	komputer	-0.0986
-3.8577	komulatif	-0.2304
-3.7328	komunikasi	-0.0788
-4.3348	komunikasikan	-0.1336
-4.3348	komunitas	-0.1209
-3.2209	kondisi	-0.2443
-4.3348	koneksi	-0.1323
-3.6359	konfirmasi	-0.1857
-4.3348	konflik	-0.1209
-3.8577	konsep	-0.1351
-4.3348	konsepnya	-0.1317
-3.7328	konstruksi	-0.2059
-4.3348	konsultan	-0.0988
-3.2934	konsumen	-0.2788
-3.1044	konsumsi	-0.1347
-4.3348	konsumsinya	-0.1336
-4.3348	kontak	-0.1344
-3.3348	konten	-0.1316
-4.3348	kontinu	-0.1339
-3.8577	kontrak	-0.1939
-3.8577	kontraktor	-0.0987
-4.3348	kontribusi	-0.1351
-3.7328	koordinasi	-0.1285
-4.3348	koordinasikan	-0.1310
-4.3348	koordinator	-0.1315
-3.8577	korea	-0.1918
-4.3348	korporasi	-0.0988
-4.3348	korupsi	-0.1325
-4.3348	kosong	-0.0988
-3.8577	kostum	-0.1909
-3.7328	kotak	-0.3213
-4.3348	kotaknya	-0.1342
-4.3348	kriteria	-0.1351
-4.3348	kriteria-kriteria	-0.1266
-3.7328	kritik	-0.3151
-3.6359	ktp	-0.1501
-3.7328	kualitas	-0.1185
-4.0338	kuantitas	-0.1332
-3.7328	kuliah	-0.0775
-4.3348	kultur	-0.1350
-4.3348	kumpulin	-0.1351
-3.5567	kunjungan	-0.2892
-3.5567	kupon	-0.1359
-2.9924	kurang	-0.1701
-4.0338	kurangnya	-0.1336
-4.0338	kurikulum	-0.1321
-4.0338	kursi	-0.1264
-3.4897	kusni	-0.2521
-2.4264	lagi	-0.2471
-4.3348	lagipula	-0.1341
-3.8577	lah	-0.0893
-2.5567	lain	-0.3069
-3.6359	lain-lain	-0.3435
-3.0561	lainnya	-0.4042
-4.3348	lajur	-0.1351
-4.0338	laki	-0.1258
-3.4317	lakukan	-0.1165
-2.6816	lalu	-0.4411
-3.5567	lama	-0.0660
-3.3348	lancar	-0.4067
-4.3348	landasan	-0.1350
-4.0338	langkah	-0.2939
-4.0338	langkah-langkah	-0.1269
-3.3348	langsung	-0.1840
-2.8297	lanjut	-0.2791
-3.3348	lanjutkan	-0.1818
-4.3348	lanjutnya	-0.1336
-3.8577	lantai	-0.4061
-4.3348	lapak	-0.1351
-3.2934	lapangan	-0.3950
-4.3348	lapisan	-0.1349
-3.0796	laporan	-0.1765
-4.3348	laporannnya	-0.1325
-3.7328	laporannya	-0.4362
-4.3348	larangan	-0.1209
-3.0561	lari	-1.4136
-4.3348	latar	-0.1352
-4.0338	latian	-0.2947
-3.7328	latihan	-0.1172
-4.3348	laut	-0.1345
-3.8577	layak	-0.1257
-3.7328	layanan	-0.1220
-4.0338	layar	-0.1258
-4.3348	lebar	-0.1352
-4.3348	lebi	-0.1350
-2.3758	lebih	-0.3838
-4.3348	leluasa	-0.1342
-4.3348	lemari	-0.1209
-4.3348	lembaga	-0.1352
-3.8577	lengkap	-0.0941
-4.3348	lepas	-0.1283
-4.3348	letak	-0.1348
-3.4897	level	-0.1590
-4.3348	levelnya	-0.0988
-3.4317	lewat	-0.1652
-4.3348	lho	-0.0988
-4.3348	liat-liat	-0.1344
-4.0338	libur	-0.2947
-3.8577	liburan	-0.1962
-4.3348	lif	-0.1350
-3.8577	lihat	-0.1255
-3.0796	lima	-0.2517
-4.0338	limited	-0.1351
-4.3348	line	-0.1343
-3.7328	lingkungan	-0.1188
-4.3348	link	-0.1209
-4.3348	lintas	-0.1315
-4.3348	lisensi	-0.1352
-4.3348	literasi	-0.1351
-4.0338	lk	-0.0985
-4.0338	lkm	-0.1290
-2.7785	logistik	-0.2844
-4.0338	logo	-0.2948
-4.3348	logonya	-0.1336
-3.4897	lokasi	-0.4607
-4.3348	lokasinya	-0.1351
-2.7014	lomba	-0.3441
-3.6359	lomba-lomba	-0.1178
-3.7328	lombanya	-0.1661
-4.3348	lompat	-0.1352
-4.3348	lonjakan	-0.1350
-4.3348	loyal	-0.1350
-3.8577	lpj	-0.1272
-4.0338	lpk	-0.1247
-3.8577	lu	-0.1292
-3.5567	luar	-0.1382
-4.0338	luas	-0.0886
-3.8577	lulus	-0.0912
-4.3348	lulusan-lulusannya	-0.1344
-4.3348	lumayan	-0.1351
-4.3348	lunasi	-0.0988
-3.4317	lupa	-0.1302
-3.7328	maaf	-0.1303
-4.3348	macam	-0.1352
-4.3348	macemnya	-0.1331
-4.0338	mading	-0.1287
-4.0338	magang	-0.1343
-4.0338	mahal	-0.1243
-3.0126	mahasiswa	-0.2133
-4.0338	mahasiswa-mahasiswa	-0.1208
-4.3348	mainstream	-0.1351
-4.3348	maju	-0.1339
-3.1044	maka	-0.1762
-3.1887	makan	-0.2852
-3.7328	makanan	-0.1143
-4.3348	makanya	-0.1272
-4.3348	makasih	-0.1352
-4.0338	makin	-0.1351
-4.3348	maksakan	-0.1350
-3.6359	maksimal	-0.2389
-3.5567	maksud	-0.1408
-3.8577	maksudnya	-0.1336
-3.8577	malah	-0.1338
-3.6359	malam	-0.1228
-4.3348	malamnya	-0.1346
-4.0338	mampu	-0.1351
-3.1587	mana	-0.1618
-4.3348	mana-mana	-0.0988
-3.6359	manajemen	-0.1204
-4.3348	manfaat	-0.1350
-4.3348	mangkok	-0.0988
-3.4897	manusia	-0.2518
-4.0338	maret	-0.1291
-2.9924	mari	-1.4686
-3.7328	marilah	-0.4646
-4.3348	market	-0.1350
-3.2209	mas	-0.8313
-3.7328	masa	-0.1344
-2.5424	masalah	-0.3323
-4.3348	masalah-masalah	-0.1209
-3.8577	masalahnya	-0.1255
-2.5714	masih	-0.3056
-4.0338	masing	-0.0988
-2.8724	masing-masing	-0.4261
-3.3806	massa	-0.2322
-4.3348	mastiin	-0.1336
-2.7785	masuk	-0.3426
-3.4897	masukan	-0.1698
-4.0338	masukannya	-0.2584
-3.6359	masukin	-0.1888
-4.3348	masukkan	-0.1350
-3.0796	masyarakat	-0.4065
-3.6359	mata	-0.3445
-3.8577	matematika	-0.1984
-3.7328	materi	-0.1315
-3.8577	materinya	-0.1320
-4.0338	mati	-0.2906
-2.6446	mau	-0.1807
-4.3348	maulana	-0.1352
-3.2934	maupun	-0.1745
-3.3806	media	-0.4964
-4.3348	media-media	-0.1352
-3.4317	medis	-0.2231
-3.3806	meeting	-0.0967
-4.3348	megang	-0.1209
-3.8577	mekanisme	-0.0825
-4.3348	melainkan	-0.1290
-3.8577	melaksanakan	-0.1341
-2.7438	melakukan	-0.1858
-3.3806	melalui	-0.1648
-4.3348	melampaui	-0.1351
-3.7328	melanjutkan	-0.3182
-3.3348	melaporkan	-0.2194
-4.3348	melatar	-0.1352
-4.0338	melebihi	-0.2942
-4.3348	melegakan	-0.1336
-4.3348	melekat	-0.1325
-4.3348	melewati	-0.1352
-3.4897	melihat	-0.1282
-4.3348	melingkupi	-0.1352
-4.3348	melonjak	-0.0988
-4.0338	meluangkan	-0.1342
-4.3348	meluncurkan	-0.1348
-4.3348	memacu	-0.1351
-4.3348	memadai	-0.1258
-3.7328	memahami	-0.2063
-4.3348	memakai	-0.1347
-4.3348	memakan	-0.1344
-4.3348	memaksimalkan	-0.1348
-4.3348	memanfaatkannya	-0.1291
-3.0338	memang	-0.1137
-4.3348	memanjakan	-0.1345
-4.3348	memantau	-0.1337
-3.8577	memaparkan	-0.1338
-4.0338	memastikan	-0.1351
-4.3348	memasukan	-0.1351
-3.7328	memasukkan	-0.4725
-3.6359	membaca	-0.3804
-3.8577	membagi	-0.1317
-4.0338	membagikan	-0.1351
-2.7785	membahas	-0.3875
-4.3348	membalas	-0.1291
-4.3348	membandingkan	-0.1310
-3.6359	membangun	-0.3574
-3.4897	membantu	-0.1197
-4.0338	membawa	-0.1271
-3.6359	membayar	-0.0895
-4.0338	membebani	-0.2942
-4.3348	membeli	-0.1341
-4.3348	membenarkan	-0.1209
-4.3348	membentuk	-0.1351
-4.3348	memberatkan	-0.1351
-3.3806	memberi	-0.1317
-3.1044	memberikan	-0.1469
-4.3348	memberitahukan	-0.1352
-4.0338	membicarakan	-0.1349
-4.3348	membuahkan	-0.1348
-2.9731	membuat	-0.1370
-4.3348	membuatnya	-0.1352
-4.0338	membuka	-0.1350
-4.3348	memburuk	-0.1283
-3.2934	membutuhkan	-0.1152
-4.3348	memegang	-0.1348
-3.8577	memenuhi	-0.1345
-4.3348	memeriahkan	-0.1352
-4.3348	memeriksa	-0.1352
-4.0338	memerlukan	-0.1346
-3.5567	memikirkan	-0.1334
-4.0338	memikirkannya	-0.2932
-3.3806	memilih	-0.1632
-3.1307	memiliki	-0.2045
-4.3348	meminjamkan	-0.1350
-3.5567	meminta	-0.1729
-4.3348	memotivasi	-0.1351
-4.3348	mempengaruhi	-0.1352
-4.0338	memperbaiki	-0.1348
-3.7328	memperhatikan	-0.1291
-4.3348	memperingati	-0.1336
-4.3348	memperjelas	-0.1336
-3.5567	memperkenalkan	-0.1772
-4.3348	mempermudah	-0.1333
-4.0338	memperoleh	-0.1349
-4.3348	mempersiapkan	-0.1348
-4.3348	mempertimbangkan	-0.1350
-4.3348	mempresentasikan	-0.1352
-4.3348	mempromosikan	-0.1352
-3.8577	mempunyai	-0.1341
-3.2934	memulai	-0.1980
-4.3348	memungkinkan	-0.1258
-4.3348	memutuskan	-0.1351
-4.3348	memvalidasi	-0.1349
-4.3348	memvisualisasikan	-0.1352
-4.3348	menaik	-0.0988
-4.3348	menaikkan	-0.1349
-3.8577	menambah	-0.2348
-4.0338	menambahkan	-0.1339
-4.3348	menampilkan	-0.1351
-4.0338	menampung	-0.1347
-4.0338	menangani	-0.1348
-3.5567	menarik	-0.0966
-3.8577	menawarkan	-0.1339
-4.3348	mencakup	-0.1349
-3.4897	mencapai	-0.1740
-3.5567	mencari	-0.1809
-4.3348	mencatat	-0.1352
-4.3348	mencegah	-0.1352
-4.3348	menceritakan	-0.1352
-4.3348	mencermati	-0.1342
-4.3348	menciptakan	-0.1350
-4.3348	mencitrakan	-0.1341
-3.7328	mencoba	-0.1253
-4.3348	mendadak	-0.1342
-4.3348	mendaftarkan	-0.1352
-3.0796	mendaki	-0.2496
-4.3348	mendakinya	-0.1350
-4.3348	mendalam	-0.0988
-4.3348	mendanai	-0.1349
-3.5567	mendapat	-0.1326
-3.7328	mendapatkan	-0.1350
-4.3348	mendapatkannya	-0.0988
-4.3348	mendata	-0.1350
-3.7328	mendatang	-0.1651
-4.3348	mendatangi	-0.1323
-4.3348	mendefinisikan	-0.1350
-4.3348	mendemonstrasikan	-0.1348
-4.3348	mendengar	-0.1351
-4.3348	mendengarkan	-0.1352
-4.3348	mendesak	-0.0988
-4.3348	mendetail	-0.1346
-3.8577	mendirikan	-0.4062
-4.0338	mendiskusikan	-0.1340
-4.3348	mendorong	-0.1350
-3.5567	mendukung	-0.0982
-4.3348	menegaskan	-0.1336
-4.3348	menekan	-0.1351
-4.3348	menekankan	-0.1351
-4.3348	menekuni	-0.1349
-4.3348	menempati	-0.1352
-4.3348	menemukan	-0.1345
-4.3348	menengah	-0.1344
-4.3348	menentu	-0.0988
-3.3348	menentukan	-0.1884
-4.3348	menerapkan	-0.1340
-4.3348	menerima	-0.1346
-4.3348	menetapkan	-0.1350
-4.3348	meng	-0.1344
-3.3348	mengadakan	-0.1896
-4.3348	mengadopsi	-0.1350
-4.3348	mengajak	-0.1351
-4.3348	mengajarkan	-0.1351
-3.8577	mengajukan	-0.1322
-4.3348	mengakhirinya	-0.1310
-3.7328	mengakses	-0.1282
-3.3806	mengalami	-0.1649
-4.3348	mengamati	-0.1351
-3.8577	mengambil	-0.2348
-4.3348	mengandalkan	-0.1352
-4.3348	menganggap	-0.1352
-4.3348	menganjurkan	-0.1345
-4.0338	mengapa	-0.0987
-4.3348	mengatasi	-0.1345
-4.0338	mengatur	-0.1349
-4.3348	mengawali	-0.1350
-4.3348	mengecek	-0.1352
-4.3348	mengejar	-0.1351
-3.7328	mengembangkan	-0.1332
-4.3348	mengen	-0.1291
-2.6721	mengenai	-0.1738
-4.0338	mengenal	-0.1349
-4.3348	mengenali	-0.1334
-3.8577	mengenalkan	-0.1344
-3.2934	mengerjakan	-0.1817
-4.0338	mengerti	-0.1331
-4.0338	mengetahui	-0.1346
-4.3348	mengevaluasi	-0.1351
-4.3348	menggabungkan	-0.1337
-4.3348	menggalang	-0.1346
-3.8577	mengganggu	-0.1347
-4.3348	mengganti	-0.1352
-4.0338	menggantikan	-0.1343
-3.4317	menggunakan	-0.1312
-4.3348	menghadapi	-0.1351
-4.0338	menghadiri	-0.1318
-4.0338	menghampiri	-0.1322
-4.3348	menghancurkan	-0.1348
-3.6359	menghasilkan	-0.1346
-4.3348	menghilang	-0.0988
-4.3348	menghimpun	-0.1347
-3.8577	menghubungi	-0.1312
-4.3348	menghubungkan	-0.1350
-3.7328	mengikuti	-0.1314
-3.7328	mengingat	-0.1334
-4.3348	mengingatkan	-0.1336
-4.0338	menginginkan	-0.1349
-4.3348	menginspirasi	-0.1272
-4.3348	mengirim	-0.1351
-4.0338	mengirimkan	-0.1338
-3.6359	mengisi	-0.1335
-4.3348	mengolah	-0.1351
-4.0338	mengontak	-0.1280
-4.3348	mengtrack	-0.1348
-4.0338	menguasai	-0.2946
-4.0338	mengubah	-0.1350
-4.3348	mengucapkan	-0.1347
-4.3348	mengumpulkan	-0.1346
-4.3348	mengundang	-0.1351
-4.3348	mengungguli	-0.1352
-4.3348	mengunjungi	-0.1351
-4.3348	mengurangi	-0.1350
-4.0338	mengurus	-0.1351
-4.3348	mengurusi	-0.1350
-4.0338	mengusulkan	-0.1337
-4.3348	menilai	-0.1291
-4.0338	menimbulkan	-0.1340
-3.7328	meningkat	-0.0884
-3.4317	meningkatkan	-0.2582
-4.3348	menit	-0.1336
-4.0338	menjabarkan	-0.1352
-4.3348	menjabat	-0.1351
-2.8297	menjadi	-0.1851
-4.0338	menjadwalkan	-0.2946
-4.0338	menjaga	-0.1351
-4.3348	menjalani	-0.1351
-4.3348	menjalankan	-0.1350
-4.0338	menjawab	-0.0988
-3.4317	menjelaskan	-0.2130
-4.3348	menjembatani	-0.1350
-4.3348	menjual	-0.1351
-4.3348	menolong	-0.1272
-4.3348	mensejahterakan	-0.1352
-4.0338	mensupport	-0.1352
-3.8577	mental	-0.1130
-4.0338	menu	-0.1348
-4.0338	menuju	-0.1350
-4.3348	menulis	-0.1349
-3.7328	menunggu	-0.1337
-4.3348	menunjukan	-0.1352
-3.8577	menunjukkan	-0.1345
-3.8577	menurun	-0.0982
-2.8724	menurut	-0.5127
-3.4897	menurutku	-0.1188
-3.8577	menutup	-0.1309
-4.3348	menutupi	-0.1351
-4.3348	menyalurkan	-0.1343
-3.6359	menyampaikan	-0.1336
-4.3348	menyangkut	-0.1343
-4.0338	menyarankan	-0.1263
-3.6359	menyebabkan	-0.1894
-4.0338	menyebar	-0.1349
-4.3348	menyebarkan	-0.1352
-4.3348	menyebutkan	-0.1294
-3.6359	menyediakan	-0.1913
-3.4317	menyelesaikan	-0.1668
-4.3348	menyelinap	-0.1352
-4.3348	menyiapkan	-0.1342
-4.3348	menyukai	-0.1352
-4.3348	menyukseskan	-0.1334
-4.0338	menyusun	-0.1349
-4.0338	mepet	-0.1344
-3.8577	mera	-0.1320
-4.3348	merahasiakan	-0.1345
-4.0338	meramaikan	-0.1271
-4.3348	merangkum	-0.1339
-4.3348	merapikannya	-0.1332
-3.8577	merasa	-0.1264
-4.0338	merasakan	-0.1352
-4.3348	meraup	-0.1350
-4.3348	merchandise	-0.1209
-4.3348	mercurial	-0.0988
-4.3348	merebut	-0.1350
-2.3526	mereka	-0.2332
-3.8577	merekrut	-0.1349
-4.3348	meresearch	-0.1336
-4.3348	mereview	-0.1346
-4.3348	merevisi	-0.1291
-4.3348	merujuk	-0.1325
-3.3806	merupakan	-0.1333
-4.3348	mesennya	-0.1317
-4.3348	mesjid	-0.1352
-4.0338	meskipun	-0.1331
-4.3348	mewah	-0.1334
-3.8577	mewakili	-0.1299
-4.3348	mi	-0.1352
-4.3348	miliar	-0.1352
-3.8577	milih	-0.2345
-3.6359	minat	-0.1849
-4.3348	mindahin	-0.1352
-2.6721	minggu	-0.6191
-3.6359	mingguan	-0.0713
-4.3348	mingguannya	-0.0988
-4.3348	minim	-0.1352
-4.3348	minimal	-0.1350
-3.1307	minta	-0.1413
-4.3348	mintanya	-0.1342
-4.3348	minuman	-0.1345
-4.3348	mirip	-0.1345
-4.0338	misal	-0.1340
-3.5567	misalkan	-0.1667
-3.2934	misalnya	-0.1153
-3.7328	mobile	-0.1282
-3.5567	modal	-0.1253
-4.0338	modalnya	-0.1279
-3.2934	model	-0.2657
-3.3348	moderator	-0.4036
-4.3348	modern	-0.1209
-4.3348	mohon	-0.1352
-4.3348	momen	-0.1209
-4.0338	moral	-0.1208
-4.3348	motong	-0.0988
-4.3348	motor	-0.1349
-4.3348	mover	-0.1339
-4.3348	muda	-0.1334
-3.5567	mudah	-0.1383
-2.6536	mulai	-0.2841
-4.3348	muncul	-0.1349
-2.4715	mungkin	-0.0712
-4.3348	murah	-0.0988
-4.3348	murni	-0.1352
-4.3348	musim	-0.1347
-4.3348	mustahil	-0.1351
-4.3348	nadia	-0.1291
-2.6536	nah	-0.1883
-3.6359	naik	-0.1235
-3.5567	nama	-0.1673
-3.7328	namanya	-0.0921
-4.3348	nambah	-0.1349
-4.3348	nambahin	-0.1349
-4.3348	nampilin	-0.1350
-3.0338	namun	-0.1690
-2.4210	nanti	-0.2501
-3.2557	nantinya	-0.2701
-3.7328	nanya	-0.2068
-4.3348	nanya-nanya	-0.1351
-4.3348	nanya-nanyain	-0.1347
-3.6359	nasi	-0.2771
-3.6359	nasional	-0.1623
-4.3348	nda	-0.0988
-3.4897	negara	-0.2144
-4.3348	negeri	-0.1266
-4.3348	negosiasi	-0.1310
-4.3348	netral	-0.0988
-4.3348	networking	-0.0988
-4.3348	ngajuin	-0.1352
-4.3348	ngapa-ngapain	-0.1343
-3.8577	ngapain	-0.4059
-4.3348	ngapainlah	-0.1350
-3.7328	ngasih	-0.1335
-4.3348	ngebagi	-0.0988
-3.8577	ngebahas	-0.1258
-4.3348	ngecek	-0.1350
-4.3348	ngedata	-0.1344
-4.3348	ngegantiin	-0.1349
-4.3348	ngerjain	-0.1339
-3.4317	nggak	-0.1282
-4.3348	ngingetin	-0.1336
-4.3348	ngisi	-0.1349
-4.3348	ngobrol	-0.1326
-4.3348	ngobrol-ngobrol	-0.1344
-4.0338	ngomong	-0.1335
-4.3348	ngopi-ngopi	-0.1310
-4.3348	ngumpul	-0.1352
-4.3348	ngumpulin	-0.1346
-4.3348	ngundang	-0.1351
-4.3348	ni	-0.1349
-3.1307	nih	-0.1157
-3.2557	nilai	-0.1851
-3.2934	nomer	-0.3382
-4.3348	nominal	-0.1348
-4.3348	nomor	-0.1351
-4.3348	nonton	-0.1340
-4.3348	normal	-0.1352
-4.3348	normalnya	-0.0988
-4.3348	notifikasiin	-0.1349
-4.3348	notul	-0.1283
-4.3348	notulen	-0.1349
-4.3348	notulensi	-0.0988
-4.3348	notulis	-0.0988
-3.8577	november	-0.0968
-4.3348	novian	-0.1315
-4.3348	ntar	-0.1350
-4.3348	number	-0.1352
-4.3348	nunjukin	-0.1209
-3.8577	nya	-0.0980
-4.3348	nyampaikan	-0.1340
-4.3348	nyaranin	-0.1323
-4.0338	nyari	-0.1247
-4.0338	nyata	-0.1208
-4.3348	nyatanya	-0.1272
-4.3348	nyimpan	-0.1351
-4.3348	obrolin	-0.1347
-4.0338	of	-0.1351
-3.8577	official	-0.4067
-3.0338	oh	-0.2428
-3.4897	ojek	-0.1347
-3.4317	ok	-0.0968
-2.6446	oke	-0.2501
-3.8577	oktober	-0.1981
-4.0338	olahraga	-0.1348
-2.5424	oleh	-0.3560
-4.3348	online	-0.1334
-4.0338	oo	-0.1347
-4.3348	ooh	-0.1350
-4.3348	operasi	-0.1272
-4.0338	operasional	-0.1210
-4.3348	opsi	-0.1209
-4.3348	opsional	-0.1343
-4.3348	optimal	-0.1258
-2.8435	orang	-0.3464
-3.5567	orang-orang	-1.0019
-3.8577	orangtua	-0.1281
-4.3348	order	-0.1347
-3.8577	organisasi	-0.1250
-4.3348	otomatis	-0.0988
-4.3348	outputnya	-0.1346
-4.0338	owner	-0.1272
-4.3348	ownernya	-0.1266
-4.0338	pabrik	-0.1336
-4.3348	pacar	-0.1348
-2.2013	pada	-0.2978
-3.6359	padahal	-0.1338
-4.0338	pagar	-0.0922
-3.2209	pagi	-0.3020
-3.8577	paham	-0.0986
-3.2209	pak	-0.3181
-3.6359	pakai	-0.0915
-4.3348	pake	-0.1341
-3.3348	paket	-0.1774
-3.2209	paling	-0.1963
-4.3348	pancasila	-0.1291
-4.3348	pandang	-0.1317
-4.3348	panduan	-0.1266
-4.3348	panel	-0.1209
-4.0338	pangkalan	-0.2947
-3.2934	panitia	-0.1775
-4.3348	panjang	-0.1351
-4.3348	pantas	-0.0988
-4.0338	panti	-0.2948
-4.3348	papa	-0.0988
-3.1887	para	-0.1512
-3.8577	parameter	-0.4067
-4.3348	part	-0.1352
-4.3348	partisipasi	-0.1350
-3.6359	pas	-0.1326
-4.3348	pasang	-0.0988
-3.2934	pasar	-0.2481
-3.8577	pasaran	-0.0987
-4.3348	pasarnya	-0.0988
-4.3348	pasca	-0.1348
-4.0338	pasifik	-0.2584
-3.4897	pasti	-0.0776
-4.0338	pastinya	-0.1322
-4.3348	patut	-0.1352
-4.3348	pdfnya	-0.1323
-4.3348	pecahkan	-0.1345
-4.3348	peduli	-0.1325
-3.5567	pegawai	-0.1711
-3.8577	pejantan	-0.0922
-3.7328	pekerja	-0.1881
-3.2209	pekerjaan	-0.2027
-3.8577	pekerjaannya	-0.1302
-3.6359	pelajaran	-0.1773
-4.3348	pelajari	-0.1348
-3.4317	pelaksanaan	-0.5845
-4.0338	pelaksanaannya	-0.1310
-3.5567	pelanggan	-0.1946
-4.3348	pelanggannya	-0.1350
-4.3348	pelantikan	-0.1349
-4.0338	pelaporan	-0.1208
-3.2934	pelatihan	-0.1970
-4.0338	peluang	-0.1170
-4.3348	pemain	-0.1345
-4.3348	pemandu	-0.1339
-4.0338	pemaparan	-0.1290
-3.4897	pemasaran	-0.2574
-3.5567	pemasukan	-0.1324
-3.7328	pemateri	-0.1246
-4.0338	pematerinya	-0.1344
-4.3348	pembacaan	-0.1347
-3.7328	pembagian	-0.2908
-4.3348	pembaharuan	-0.1350
-3.0561	pembahasan	-0.2890
-4.3348	pembahasannya	-0.0988
-4.0338	pembangunan	-0.1331
-4.3348	pembatas	-0.1350
-4.3348	pembawa	-0.1334
-4.0338	pembayaran	-0.1345
-4.3348	pembayarannya	-0.1331
-4.3348	pembeli	-0.1336
-3.5567	pembelian	-0.2919
-3.5567	pembentukan	-1.0156
-4.3348	pemberi	-0.1351
-4.0338	pemberitahuan	-0.2879
-3.1587	pembicara	-0.2133
-4.3348	pembicaraan	-0.1346
-3.4897	pembuatan	-0.2816
-4.3348	pembuka	-0.0988
-4.3348	pemenangnya	-0.1350
-4.3348	pemeriksaan	-0.1347
-4.3348	pemerintah	-0.1291
-3.2934	pemesanan	-0.1550
-4.3348	pemetaan	-0.1209
-3.8577	pemikiran	-0.4055
-4.3348	pemilihan	-0.1352
-4.0338	pemilik	-0.1335
-4.3348	pemimpin	-0.1345
-4.3348	pemindahan	-0.1323
-4.0338	peminjaman	-0.0986
-4.0338	pemrograman	-0.1348
-3.1307	pemrosesan	-0.0716
-4.3348	pemutus	-0.1351
-4.3348	penanda	-0.1352
-3.6359	penanggung	-0.7229
-4.3348	penanya	-0.1347
-4.3348	pencairan	-0.1352
-4.3348	pencapaian	-0.1266
-4.0338	pencarian	-0.1348
-4.3348	pendaftaran	-0.1283
-4.3348	pendampingan	-0.1258
-3.4897	pendanaan	-0.2561
-4.3348	pendanaannya	-0.1348
-3.1044	pendapat	-0.4947
-3.3806	pendapatan	-0.1325
-4.3348	pendapatannya	-0.0988
-4.0338	pendapatnya	-0.0886
-4.0338	pendek	-0.0987
-2.8163	pendidikan	-0.2584
-4.3348	pendiriannya	-0.1346
-4.0338	penelitian	-0.2887
-4.0338	penempatan	-0.1350
-3.8577	pengabdian	-0.2264
-2.9369	pengadaan	-0.2688
-4.3348	pengajuan	-0.1351
-4.3348	pengalaman	-0.1291
-4.3348	pengaruh	-0.1350
-4.3348	pengecekan	-0.1352
-4.3348	pengeditan	-0.1258
-3.8577	pengelolaan	-0.4065
-3.5567	pengeluaran	-0.0446
-3.2934	pengembangan	-0.1592
-3.5567	pengemudi	-0.2064
-4.3348	pengen	-0.1351
-3.2209	pengerjaan	-0.0931
-4.3348	pengerjaannya	-0.0988
-4.3348	pengetahuan	-0.1291
-4.0338	penggalangan	-0.2942
-3.2209	pengguna	-0.1610
-3.4897	penggunaan	-0.4261
-4.3348	penggunaannya	-0.1315
-4.3348	penghargaan	-0.1258
-4.3348	penghasilannya	-0.1323
-4.3348	penghubung	-0.1350
-3.7328	pengiriman	-0.1337
-4.3348	pengirimannya	-0.1209
-4.3348	pengisian	-0.1346
-3.8577	pengmas	-0.1944
-3.8577	pengumpulan	-0.2344
-4.3348	pengunjung	-0.1209
-3.6359	pengurus	-0.2430
-4.3348	pengurutan	-0.1350
-4.0338	penilaian	-0.1349
-4.3348	peninggalan	-0.1351
-3.1587	peningkatan	-0.3245
-4.0338	penjabaran	-0.1257
-4.3348	penjabarannya	-0.0988
-4.3348	penjadwalan	-0.1348
-3.6359	penjelasan	-0.1488
-4.0338	penjelasannya	-0.0985
-4.3348	penjemputan	-0.0988
-3.4317	penjual	-0.2621
-2.9924	penjualan	-0.2498
-3.3806	penting	-0.2178
-3.4897	penuh	-0.1121
-4.0338	penulis	-0.2946
-4.3348	penulisan	-0.0988
-3.6359	penumpang	-0.1172
-3.8577	penurunan	-0.0983
-4.3348	penutup	-0.0988
-4.3348	penutupan	-0.1334
-4.3348	penyampaian	-0.1352
-4.3348	penyebab	-0.1350
-4.3348	penyebaran	-0.1351
-3.5567	penyedia	-0.3287
-3.7328	penyelesaian	-0.2942
-4.3348	penyerahan	-0.1352
-4.0338	penyesuaian	-0.1345
-4.0338	penyimpanan	-0.1348
-4.3348	penyumbang	-0.1352
-3.5567	per	-0.1338
-4.0338	perak	-0.0987
-4.3348	peralatan	-0.1352
-3.7328	peran	-0.2848
-3.5567	peraturan	-0.3167
-4.3348	perawatan	-0.1348
-3.7328	perbaikan	-0.1222
-4.0338	perbandingan	-0.1310
-4.3348	perbankan	-0.1350
-4.3348	perbelanjaan	-0.1291
-4.0338	percakapan	-0.0894
-4.0338	percaya	-0.1291
-4.0338	percobaan	-0.1196
-4.3348	percuma	-0.1352
-3.8577	perdana	-0.4051
-4.3348	perekrutan	-0.1345
-3.8577	perempuan	-0.1256
-4.0338	perencanaan	-0.1256
-3.7328	performa	-0.1260
-4.3348	performanya	-0.1325
-4.0338	pergi	-0.2919
-4.0338	perhatian	-0.2942
-3.7328	perhatikan	-0.1305
-3.4317	perhitungan	-0.1597
-3.8577	perihal	-0.1351
-4.3348	peringkat	-0.1323
-3.0796	periode	-0.2423
-3.4317	perizinan	-0.0929
-4.3348	perkelas	-0.1350
-3.3348	perkembangan	-0.2555
-3.6359	perkembangannya	-0.1513
-3.6359	perkenalkan	-0.3546
-4.0338	perkiraan	-0.0976
-4.3348	perkuliahan	-0.1315
-4.3348	perlahan	-0.1351
-4.0338	perlengkapan	-0.1314
-2.6627	perlu	-0.1506
-4.0338	perluasan	-0.1314
-4.0338	perlukan	-0.1268
-3.8577	permainan	-0.0884
-3.1587	permasalahan	-0.1517
-3.2934	permintaan	-0.1658
-4.3348	permintaannya	-0.0988
-4.3348	permodalan	-0.0988
-3.8577	permohonan	-0.2342
-3.6359	pernah	-0.1812
-4.3348	persaingan	-0.0988
-3.2934	persen	-0.4893
-3.6359	persetujuan	-0.2332
-3.4317	persiapan	-0.1606
-3.8577	persilahkan	-0.1980
-4.3348	persoalan	-0.1352
-4.3348	person	-0.1272
-2.7438	pertama	-0.1218
-3.7328	pertama-tama	-0.1961
-4.0338	pertamanya	-0.0988
-4.3348	pertandingan	-0.1291
-4.3348	pertanggungjawaban	-0.1352
-2.7438	pertanyaan	-0.4516
-4.0338	pertanyaan-pertanyaan	-0.1195
-3.4897	pertanyaannya	-0.6896
-2.7221	pertemuan	-0.6213
-4.3348	pertengahan	-0.1338
-4.0338	pertimbangan	-0.1335
-4.3348	pertimbangkan	-0.1339
-3.8577	pertolongan	-0.2340
-4.0338	pertumbuhan	-0.1207
-3.3806	perubahan	-0.1916
-2.4210	perusahaan	-0.4903
-3.8577	perusahaan-perusahaan	-0.2341
-4.3348	perusahaannya	-0.1352
-3.8577	perwakilan	-0.2278
-4.3348	perwakilannya	-0.1349
-4.3348	pesaing	-0.1326
-4.3348	pesaingnya	-0.1352
-3.7328	pesan	-0.1348
-3.5567	pesanan	-0.2257
-4.3348	pesat	-0.1266
-3.4897	peserta	-0.1569
-4.3348	pesertanya	-0.1352
-4.3348	peta	-0.1283
-4.3348	peter	-0.1352
-3.4897	pihak	-0.1724
-4.0338	pihak-pihak	-0.1206
-4.0338	pikir	-0.1258
-4.3348	pikiran	-0.1351
-3.8577	pikirkan	-0.1301
-4.3348	pilar	-0.1352
-3.2557	pilihan	-0.1986
-3.8577	pimpinan	-0.1272
-3.7328	pindah	-0.4697
-4.3348	pinggir	-0.1352
-3.7328	pinjam	-0.0889
-4.0338	pinjaman	-0.1253
-4.3348	pinjamannya	-0.0988
-4.3348	pintar-pintar	-0.1352
-4.3348	pintu	-0.1345
-4.3348	pintu-pintu	-0.1325
-4.3348	pisa	-0.1209
-4.0338	pj	-0.1281
-3.5567	plan	-0.1254
-4.3348	platform	-0.1209
-4.3348	playstore	-0.0988
-2.8435	poin	-0.2448
-4.0338	poinnya	-0.1336
-4.3348	pokoknya	-0.1325
-4.3348	polban	-0.0988
-4.3348	poling	-0.1315
-4.3348	pondasi	-0.1348
-4.3348	pondok-pondok	-0.1209
-4.3348	ponsel	-0.1331
-4.0338	populer	-0.1220
-4.3348	porsi	-0.1209
-4.0338	posisi	-0.1334
-3.6359	positif	-0.1292
-4.3348	postingan	-0.1336
-4.3348	pot	-0.1346
-3.8577	potensi	-0.1249
-4.3348	potong	-0.1351
-4.3348	potongan	-0.1349
-4.3348	pr	-0.1345
-4.3348	pra	-0.1350
-4.3348	prasarana	-0.0988
-4.3348	pre-launching	-0.0988
-4.3348	premium	-0.1350
-4.3348	presentasi	-0.1283
-3.8577	presentasinya	-0.1979
-4.3348	presiden	-0.1348
-3.4897	pribadi	-0.1253
-4.3348	pribadiku	-0.1351
-4.0338	prinsip	-0.1282
-4.0338	printer	-0.2805
-4.3348	problem	-0.1352
-4.3348	problematika	-0.1209
-3.7328	product	-0.1205
-4.3348	product-product	-0.0988
-2.5714	produk	-0.5114
-3.6359	produk-produk	-0.2763
-4.3348	produknya	-0.1209
-3.4897	produksi	-0.1740
-4.0338	produksinya	-0.0973
-4.3348	produktif	-0.1336
-3.4897	produktivitas	-0.1785
-4.3348	profesional	-0.1310
-4.3348	profit	-0.0988
-3.0796	program	-0.3798
-3.8577	programmer	-0.2203
-4.3348	progres	-0.1258
-4.0338	progress	-0.1276
-4.3348	project-project	-0.1352
-3.6359	proker	-0.1281
-4.3348	promo	-0.1209
-4.0338	promosi	-0.1207
-3.2934	proposal	-0.1596
-4.3348	proposalnya	-0.0988
-4.3348	proposition	-0.0988
-3.2209	proses	-0.1622
-4.0338	prosesnya	-0.1329
-4.3348	prospek	-0.1347
-3.0338	proyek	-0.3429
-4.3348	proyekan	-0.1348
-4.0338	proyektor	-0.2584
-4.3348	puas	-0.1346
-3.4897	pubdok	-0.0666
-4.3348	public	-0.1352
-4.3348	publik	-0.1326
-3.2934	publikasi	-0.2065
-4.3348	publikasinya	-0.1341
-3.6359	pukul	-0.1332
-4.3348	pula	-0.1338
-3.0338	puluh	-0.2008
-3.4317	puma	-0.2174
-4.0338	pun	-0.1317
-3.1887	punya	-0.1933
-3.8577	rabu	-0.1296
-4.3348	ragam	-0.1350
-3.8577	rahasia	-0.1315
-4.3348	rakor	-0.1346
-4.3348	rampung	-0.1348
-4.3348	rancangan	-0.1346
-4.3348	rangkaian	-0.1334
-2.4540	rapat	-0.4876
-4.3348	rapi	-0.0988
-4.3348	rapikan	-0.1347
-3.2209	rasa	-0.3070
-4.0338	rasanya	-0.1302
-4.0338	rata-rata	-0.1281
-4.3348	rating	-0.1339
-3.4897	ratus	-0.2163
-4.3348	referral	-0.1352
-3.5567	registrasi	-0.2754
-3.7328	rekan	-0.2056
-4.3348	rekan-rekan	-0.1345
-4.3348	rekrutmen	-0.1339
-4.0338	rektor	-0.1349
-3.8577	relasi	-0.2341
-4.3348	relatif	-0.1351
-3.6359	relawan	-0.1677
-4.3348	relevan	-0.1323
-4.3348	remote	-0.1349
-3.1307	rencana	-0.2086
-4.3348	rencanain	-0.1343
-3.3348	rencananya	-0.1456
-4.3348	rendah	-0.1317
-4.3348	rentang	-0.1343
-4.0338	repositorinya	-0.1343
-3.7328	repository	-0.1707
-4.3348	requirement	-0.1345
-4.3348	requirementnya	-0.1317
-4.0338	research	-0.2930
-4.3348	resminya	-0.1351
-4.3348	respon	-0.1351
-4.3348	retrospektif	-0.1291
-3.5567	revenue	-0.3273
-4.3348	review	-0.1339
-4.0338	revisi	-0.1344
-3.8577	revolusi	-0.4067
-3.2209	ribu	-0.2699
-4.0338	ribuan	-0.0966
-4.0338	ride	-0.2948
-3.7328	rifo	-0.2847
-4.3348	rilis	-0.1341
-3.7328	rincian	-0.2060
-4.3348	rinciannya	-0.1345
-4.3348	rincinya	-0.1290
-4.3348	ringan	-0.1209
-3.8577	riset	-0.4056
-4.0338	risiko	-0.1249
-4.3348	risk	-0.1209
-4.0338	riwayat	-0.1349
-3.7328	ruang	-0.1959
-3.6359	ruangan	-0.1208
-4.3348	ruangannya	-0.1325
-3.2557	rumah	-0.1760
-4.3348	rumit	-0.0988
-3.8577	rupiah	-0.3704
-4.3348	rusak	-0.1345
-3.7328	rutin	-0.0821
-2.7908	saat	-0.5124
-3.6359	saatnya	-0.1213
-4.0338	saham	-0.2868
-4.3348	saingan	-0.1326
-3.7328	sains	-0.1249
-2.5424	saja	-0.2740
-3.1887	salah	-0.6393
-3.7328	salam	-0.4725
-3.8577	saling	-0.1351
-4.0338	sam	-0.1273
-2.7328	sama	-0.0921
-4.3348	sama-sama	-0.0988
-4.3348	samanya	-0.1283
-4.3348	sambutan	-0.1283
-2.8724	sampai	-0.2819
-4.0338	sampaikan	-0.1315
-4.0338	samsek	-0.0985
-4.0338	sana	-0.0988
-4.3348	sananya	-0.1350
-2.9199	sangat	-0.1538
-4.3348	sapi	-0.0988
-4.3348	saputra	-0.1315
-3.0561	saran	-0.2087
-3.8577	sarana	-0.2348
-4.3348	sarannya	-0.0988
-2.5023	satu	-0.1664
-4.3348	satuan	-0.1352
-4.0338	satunya	-0.2932
-3.4897	saudara	-0.2140
-2.0607	saya	-0.2721
-4.3348	sayangnya	-0.0988
-4.3348	sayur	-0.1352
-4.3348	sayuran	-0.1352
-3.7328	sbmptn	-0.1542
-4.3348	scalable	-0.0988
-4.0338	science	-0.2948
-4.3348	scm	-0.1291
-4.3348	scrum	-0.1209
-4.3348	sd	-0.1291
-4.3348	sdm-sdm	-0.1209
-4.3348	se-asia	-0.1352
-4.3348	seadil-adilnya	-0.0988
-2.6359	sebagai	-0.2271
-4.3348	sebagaimana	-0.1351
-4.3348	sebagainya	-0.0988
-3.7328	sebagian	-0.3197
-4.0338	sebaiknya	-0.1351
-4.3348	sebaliknya	-0.1333
-3.8577	sebanyak	-0.2333
-4.3348	sebarkan	-0.0988
-4.3348	sebelas	-0.1348
-3.0126	sebelum	-0.3425
-2.8163	sebelumnya	-0.2520
-3.1307	sebenarnya	-0.0923
-4.3348	sebenernya	-0.1352
-4.3348	sebentar	-0.1315
-3.8577	seberapa	-0.0973
-3.6359	sebesar	-0.1897
-4.3348	sebetulnya	-0.1272
-4.0338	sebisa	-0.2933
-2.9731	sebuah	-0.1556
-2.8877	secara	-0.2945
-4.3348	secepat	-0.1338
-4.3348	secepatnya	-0.1325
-3.0796	sedang	-0.1307
-3.6359	sedangkan	-0.2595
-4.3348	sedemikian	-0.1352
-4.3348	sederajat	-0.1348
-3.7328	sederhana	-0.1665
-4.3348	sedia	-0.1352
-4.3348	sediain	-0.1272
-4.0338	sediakan	-0.1310
-3.8577	sedikit	-0.0944
-4.3348	seduh	-0.0988
-4.0338	segala	-0.1350
-4.3348	segalanya	-0.1325
-4.3348	segan	-0.1336
-3.6359	segera	-0.1816
-3.7328	segi	-0.2064
-3.4317	segmen	-0.3097
-4.0338	segmentasi	-0.1349
-4.3348	sehabis	-0.1344
-3.8577	sehari	-0.1966
-4.3348	sehari-hari	-0.0988
-3.4317	seharusnya	-0.0553
-2.8034	sehingga	-0.1879
-4.3348	seihlasnya	-0.1283
-4.3348	seimbang	-0.0988
-4.3348	seingetku	-0.1294
-4.3348	seiring	-0.1352
-3.7328	sejahtera	-0.1603
-3.8577	sejak	-0.1322
-4.3348	sejarah	-0.1349
-3.6359	sejauh	-0.3720
-4.0338	sejenis	-0.0942
-3.2557	sekali	-0.4286
-3.2934	sekalian	-0.1140
-4.3348	sekaligus	-0.1352
-4.3348	sekalipun	-0.0988
-2.7785	sekarang	-0.2772
-4.3348	sekedar	-0.1343
-2.7908	sekian	-0.4807
-4.3348	sekilas	-0.1343
-3.0561	sekitar	-0.1319
-4.3348	sekitarnya	-0.0988
-3.3348	sekolah	-0.2106
-3.7328	sekre	-0.1282
-4.0338	sekretaris	-0.2944
-2.5866	seksi	-0.7366
-4.3348	seksinya	-0.0988
-4.0338	sektor	-0.1345
-3.0126	selain	-0.8498
-3.6359	selaku	-0.2572
-3.8577	selalu	-0.1349
-2.9924	selama	-0.2614
-2.7908	selamat	-0.8424
-2.6914	selanjutnya	-0.2255
-4.3348	selebihnya	-0.1349
-4.3348	selenggarakan	-0.0988
-3.8577	selera	-0.2343
-2.8163	selesai	-0.3475
-3.0338	seluruh	-0.1922
-4.3348	seluruhnya	-0.1352
-3.4317	semacam	-0.1576
-3.8577	semakin	-0.1344
-3.6359	semangat	-0.1522
-4.3348	semata-mata	-0.1352
-3.1887	sembilan	-0.3204
-3.3806	sementara	-0.1379
-3.3348	seminggu	-0.1254
-4.3348	seminim	-0.1338
-3.5567	semoga	-0.1229
-4.3348	sempurna	-0.1346
-2.8034	semua	-0.1780
-2.8724	semuanya	-0.3130
-4.0338	senang	-0.0983
-3.1044	sendiri	-0.1120
-4.0338	sendirinya	-0.2584
-4.3348	sendok	-0.1323
-4.0338	seni	-0.1351
-3.8577	senin	-0.0899
-4.0338	seorang	-0.1257
-4.3348	sepakati	-0.1350
-4.3348	sepanjang	-0.1352
-4.3348	sepenuhnya	-0.1348
-2.5153	seperti	-0.2864
-3.1044	sepertinya	-0.1697
-3.4897	sepuluh	-0.1328
-3.7328	seputar	-0.1346
-4.3348	serabutan	-0.1310
-4.3348	serahkan	-0.1323
-4.3348	seratus	-0.1349
-4.3348	serbaguna	-0.1352
-4.3348	serikat	-0.1339
-3.6359	sering	-0.1917
-3.4317	serta	-0.1318
-4.3348	servicenya	-0.0988
-4.3348	sesama	-0.1345
-3.3348	sesi	-0.2552
-3.0338	sesuai	-0.6469
-3.2934	sesuatu	-0.1115
-4.3348	setauku	-0.0988
-2.8577	setelah	-0.3366
-4.3348	setelahnya	-0.1272
-4.0338	setempat	-0.2584
-4.3348	setengah	-0.1340
-4.0338	seti	-0.1288
-2.8034	setiap	-0.2464
-3.7328	setidaknya	-0.1190
-2.8297	setuju	-0.5713
-4.3348	seusia	-0.1317
-4.0338	sewa	-0.1350
-4.3348	sewajibnya	-0.1323
-4.3348	sewaktu-waktu	-0.1348
-3.1307	si	-0.3682
-2.9035	siang	-0.3399
-3.7328	siap	-0.1661
-3.2934	siapa	-0.1669
-4.3348	siapa-siapa	-0.1340
-4.3348	siapkan	-0.0988
-4.0338	sibuk	-0.0985
-3.7328	signifikan	-0.1693
-2.8034	sih	-0.1395
-3.5567	silahkan	-0.1450
-2.9199	silakan	-0.2365
-4.3348	simpang	-0.1352
-4.3348	simpulkan	-0.0988
-4.0338	simulasi	-0.1255
-3.7328	singkat	-0.1259
-4.3348	singkatan	-0.1283
-3.4317	sini	-0.0883
-4.3348	sinterklas	-0.0988
-4.0338	sip	-0.0984
-4.3348	sirup	-0.1258
-4.0338	sisanya	-0.1245
-4.0338	sisi	-0.1349
-3.1307	sistem	-0.3308
-4.3348	sistemnya	-0.1347
-4.3348	sistus	-0.1209
-3.3806	siswa	-0.0899
-4.3348	siswa-siswa	-0.1209
-4.0338	siswa-siswi	-0.1347
-4.3348	siswanya	-0.0988
-3.4317	siti	-0.2746
-3.7328	situ	-0.2836
-3.8577	situasi	-0.0880
-4.0338	situs	-0.1351
-4.3348	siur	-0.1291
-4.3348	skala	-0.1209
-4.0338	skema	-0.1352
-4.3348	skill	-0.1272
-4.3348	skor	-0.1351
-4.3348	slain	-0.1317
-3.0796	sma	-0.2407
-4.0338	smartphone	-0.1146
-4.0338	smp	-0.1290
-4.3348	snmptn	-0.1350
-3.1044	soal	-0.0890
-3.8577	soal-soal	-0.1220
-3.2557	soalnya	-0.0700
-4.3348	sociopreneurship	-0.1209
-3.3806	software	-0.2462
-3.2209	solusi	-0.3161
-4.0338	solusinya	-0.0886
-4.3348	solution	-0.1346
-4.3348	solving	-0.1258
-4.3348	sop	-0.1352
-3.7328	sore	-0.1705
-3.3348	sosial	-0.1721
-4.0338	sosmed	-0.1252
-4.3348	spesifik	-0.1291
-4.3348	spesifikasi	-0.1334
-2.9924	sponsor	-0.2035
-4.3348	sponsorship	-0.0988
-3.7328	sprint	-0.1557
-3.8577	stabil	-0.0983
-4.3348	stabilitas	-0.1350
-4.3348	stagnan	-0.1347
-4.0338	stand	-0.1290
-3.5567	standar	-0.1663
-4.3348	standardnya	-0.1258
-3.5567	start	-1.0161
-2.8435	startup	-0.2725
-3.8577	statistik	-0.1345
-4.3348	status	-0.1350
-4.3348	statusnya	-0.1345
-4.0338	stiker	-0.1333
-3.6359	strategi	-0.1241
-4.3348	strategis	-0.1326
-3.7328	streams	-0.1604
-4.3348	struktur	-0.1333
-4.3348	struktural	-0.1352
-4.3348	strukturnya	-0.1352
-3.7328	studi	-0.0883
-4.3348	suasana	-0.0988
-3.4897	suatu	-0.1716
-4.3348	subsidi	-0.1258
-2.2013	sudah	-0.1609
-4.0338	sudahi	-0.1339
-4.3348	sudut	-0.1352
-4.3348	suka	-0.1349
-3.7328	sukses	-0.0908
-4.0338	sukwis	-0.1351
-4.3348	sul	-0.0988
-3.8577	sulit	-0.0970
-3.7328	sumbangan	-0.0939
-4.3348	sumbangkan	-0.1343
-3.1307	sumber	-0.4672
-4.3348	sungguh	-0.1347
-3.4317	supaya	-0.1229
-4.3348	suplai	-0.1347
-4.3348	surat	-0.1349
-4.3348	surplus	-0.1351
-3.4897	survei	-0.1493
-4.3348	susah	-0.1351
-3.7328	susan	-0.2573
-4.3348	sustain	-0.0988
-4.3348	swasta	-0.1348
-4.3348	syarat	-0.1350
-4.3348	sync	-0.1350
-4.3348	tabelnya	-0.0988
-2.9924	tadi	-0.2115
-4.3348	tadinya	-0.1352
-3.7328	tahap	-0.1201
-3.4897	tahu	-0.1353
-2.6721	tahun	-0.4844
-3.7328	tahun-tahun	-0.3202
-4.3348	tahunan	-0.1332
-4.0338	takutnya	-0.1277
-4.3348	talenta	-0.1340
-4.0338	tambah	-0.1335
-3.3348	tambahan	-0.1104
-4.3348	tampak	-0.1334
-3.0561	tampilan	-0.1579
-4.3348	tampung	-0.1347
-3.5567	tamu	-0.1109
-3.6359	tanda	-0.7231
-3.4897	tangan	-0.1628
-4.3348	tanganan	-0.1352
-4.3348	tangga	-0.1334
-3.2209	tanggal	-0.2205
-3.4317	tanggapan	-0.1700
-3.7328	tanggung	-0.3211
-3.3806	tanpa	-0.1586
-3.5567	tanya	-0.2318
-4.3348	tanyakan	-0.1323
-2.8163	tapi	-0.1526
-3.6359	target	-0.1124
-4.3348	targetkan	-0.1352
-4.3348	tata	-0.1350
-3.2557	tau	-0.1097
-4.0338	tawaran	-0.1348
-4.3348	tawarkan	-0.1337
-3.6359	teh	-0.7231
-3.2934	teknis	-0.1479
-4.3348	teknisnya	-0.1344
-3.2557	teknologi	-0.1842
-4.3348	teks	-0.1352
-2.6446	telah	-0.2471
-3.8577	telekomunikasi	-0.0878
-4.3348	televisi	-0.1291
-3.5567	teman	-0.1819
-3.0338	teman-teman	-0.4026
-4.3348	temen	-0.1258
-4.3348	temen-temen	-0.1337
-3.0338	tempat	-0.1620
-4.3348	tempat-tempat	-0.1352
-4.3348	template	-0.1351
-4.3348	temui	-0.1291
-4.3348	tenaga	-0.1347
-3.8577	tenang	-0.0921
-4.0338	tenda	-0.2887
-4.3348	tengah	-0.1349
-4.3348	tenggat	-0.1343
-4.3348	tentan	-0.1352
-3.1587	tentang	-0.1298
-3.3806	tentu	-0.7028
-3.1587	tentunya	-0.1237
-3.6359	tepat	-0.2471
-4.3348	tepatnya	-0.1333
-4.0338	tepung	-0.0922
-2.9546	terakhir	-0.1943
-4.3348	terasa	-0.1350
-3.5567	terbaik	-0.1669
-4.3348	terbatas	-0.1347
-4.0338	terbayang	-0.0988
-4.3348	terbengkalai	-0.0988
-4.3348	terbentuk	-0.1344
-4.3348	terbesar	-0.1349
-4.3348	terbesarnya	-0.0988
-4.0338	terbuka	-0.1303
-4.3348	terburu-buru	-0.1291
-4.3348	terburuk	-0.1343
-3.8577	tercapai	-0.0935
-4.3348	tercatat	-0.1351
-3.0126	terdapat	-0.3064
-4.3348	terdesak	-0.0988
-3.8577	terdiri	-0.3998
-4.3348	tergambar	-0.1349
-4.0338	tergantung	-0.1346
-3.2934	terhadap	-0.1306
-4.3348	terhalang	-0.0988
-3.8577	terhambat	-0.1967
-2.3095	terima	-1.5194
-4.3348	terimakasih	-0.1346
-4.3348	terisi	-0.1349
-3.1307	terjadi	-0.2417
-4.3348	terjangkau	-0.0988
-4.3348	terjatuh	-0.0988
-3.2934	terkait	-0.4139
-3.1587	terlalu	-0.1941
-3.2557	terlebih	-0.1349
-4.3348	terlewatkan	-0.1339
-4.3348	terlihat	-0.1352
-4.3348	termaksimalkan	-0.1310
-4.3348	termanage	-0.0988
-4.0338	termasuk	-0.1326
-4.3348	termotivasi	-0.1290
-3.8577	ternyata	-0.1332
-4.0338	terpenting	-0.1282
-4.3348	terpikir	-0.1340
-4.3348	tersampaikan	-0.1331
-4.3348	tersebar	-0.1315
-2.7221	tersebut	-0.2594
-3.6359	tersedia	-0.1849
-4.3348	terserah	-0.1352
-3.6359	tertentu	-0.2382
-4.0338	tertulis	-0.1320
-4.3348	terulang	-0.1336
-4.3348	terurus	-0.0988
-3.0126	terus	-0.1500
-4.3348	terutama	-0.1352
-3.0796	tes	-0.4155
-3.2934	tetap	-0.1297
-3.0126	tetapi	-0.1282
-4.3348	tetep	-0.1340
-3.2934	tiap	-0.1508
-4.0338	tiba	-0.1348
-2.1795	tidak	-0.3531
-2.7785	tiga	-0.2469
-4.3348	tikar	-0.0988
-3.0561	tim	-0.2455
-4.3348	timbul	-0.1336
-4.3348	time	-0.1348
-4.3348	timur	-0.1291
-3.4897	tinggal	-0.1342
-3.7328	tinggi	-0.0810
-3.2209	tingkat	-0.2215
-4.3348	tingkatnya	-0.1332
-3.8577	tipe	-0.2331
-4.3348	tipis	-0.1331
-4.0338	tips	-0.1282
-4.3348	titipkan	-0.1323
-4.3348	to	-0.1352
-4.3348	tokopedia	-0.1291
-4.3348	tolok	-0.1352
-3.1887	tolong	-0.1285
-4.3348	tool	-0.1209
-3.4897	topik	-0.2143
-4.3348	topik-topik	-0.1209
-3.5567	total	-0.1737
-4.0338	tpb	-0.0921
-4.0338	training	-0.1339
-4.3348	transaksi	-0.1352
-4.3348	transportasi	-0.1352
-4.0338	traveloka	-0.0974
-4.3348	tren	-0.1333
-4.3348	trip	-0.1345
-4.3348	trisemester	-0.1346
-3.6359	tryout	-0.2427
-3.7328	tu	-0.1313
-3.2209	tugas	-0.0926
-4.0338	tugasnya	-0.1295
-3.2557	tuh	-0.1197
-4.3348	tuju	-0.0988
-3.3806	tujuan	-0.1005
-4.3348	tujuannya	-0.1258
-3.0126	tujuh	-0.6482
-4.3348	tuk	-0.1338
-4.3348	tukang	-0.1351
-4.3348	tumbang	-0.0988
-3.8577	tumpeng	-0.1301
-4.3348	tunggal	-0.1348
-3.6359	tunggu	-0.0837
-3.8577	turun	-0.1964
-4.3348	turut	-0.1346
-4.3348	tutorial	-0.1339
-3.4897	tutup	-0.3004
-3.4317	uang	-0.1226
-4.3348	uas	-0.0988
-4.0338	ucapkan	-0.2927
-2.7116	udah	-0.1630
-3.3806	ujian	-0.2592
-4.3348	ukm	-0.1283
-4.3348	ukur	-0.1351
-4.0338	ukuran	-0.1352
-3.8577	ulang	-0.2338
-4.3348	ulangan	-0.1334
-4.3348	ultimate	-0.1352
-3.8577	umpan	-0.4067
-3.5567	umum	-0.1554
-3.8577	unggah	-0.2319
-4.0338	unit	-0.0832
-4.3348	univ	-0.1340
-3.6359	universitas	-0.1384
-4.3348	universitas-universitas	-0.1340
-4.0338	unpad	-0.0978
-1.6693	untuk	-0.1564
-4.3348	untung	-0.1345
-3.4317	up	-0.1467
-3.7328	upah	-0.1674
-4.3348	upahnya	-0.1283
-4.0338	update	-0.1302
-4.3348	urutan	-0.1315
-4.3348	urutannya	-0.1343
-3.7328	usah	-0.1700
-3.8577	usaha	-0.0830
-4.0338	usahakan	-0.0986
-3.6359	user	-0.2243
-3.4317	usia	-0.2694
-3.0796	usulan	-0.1716
-4.3348	usulannya	-0.1347
-4.3348	usulnya	-0.1352
-3.6359	utama	-0.1282
-4.0338	validasi	-0.2887
-4.3348	valuasi	-0.1347
-4.3348	value	-0.1352
-4.3348	varian	-0.1351
-3.7328	vendor	-0.3042
-4.3348	versi	-0.1352
-4.3348	version	-0.1352
-4.3348	versioning	-0.1352
-4.0338	video	-0.1278
-4.3348	visual	-0.0988
-4.3348	wafer	-0.1352
-4.3348	wah	-0.1272
-4.3348	wahabi	-0.1291
-3.6359	wajib	-0.0806
-3.5567	wakil	-0.3050
-2.6816	waktu	-0.1587
-3.4317	waktunya	-0.1622
-3.6359	walaupun	-0.1320
-4.3348	warga	-0.0988
-4.3348	warganya	-0.1350
-4.3348	warung	-0.1291
-4.3348	wawasan	-0.1323
-3.6359	web	-0.1423
-3.5567	website	-0.1120
-4.3348	weekly	-0.1350
-4.3348	well-off	-0.1350
-4.3348	win-win	-0.1352
-4.3348	wirausahawan	-0.1351
-4.0338	wisuda	-0.1335
-4.3348	wodadi	-0.0988
-4.0338	workflow	-0.0832
-4.3348	workshop	-0.1209
-4.3348	workshop-nya	-0.1351
-2.3262	ya	-0.3439
-4.0338	yah	-0.0886
-2.7221	yaitu	-0.1137
-4.0338	yakin	-0.1319
-3.5567	yakni	-0.1304
-1.4879	yang	-0.3760
-3.3806	yanto	-0.3736
-4.3348	yaudah	-0.0988
-4.3348	yayasan	-0.1331
-3.8577	yel-yel	-0.1918
-4.0338	yeyen	-0.2945
-4.0338	yoi	-0.2947
-4.3348	zaman	-0.1345

\2-grams:
 A   z  z 2 41  z  A z A  A  A K A ; xP  * xP   t   xP  xP z xP  xP  xP  xP  xP $ xP  xP P xP  xP  ;D  xP  t  t  xP  xP G xP  xP  xP  xP  xP  xP a xP e xP  xP  xP S xP a xP  xP  xP  t 	! xP 	1 xP 	9 xP 	v xP 	 t 	 ;D 
 xP 
 xP 
 v 	 Y 	 v 	 v 	 v 	
 v 	
 \ 
  \ 
^ \ 
 A - A  A 
 A [ A  A  A  Y   v  Y  v 
 v 
 A  t   t   t   mU   O  	 >  
 t   <   t   t      O  * 4O  , t  . <  9 t  = ,  C O  K t  Y t  j <  o (G  q 2  r O  s t  t t  u t   t   >   [   >   4O   t   
   "|   <   O   t   4O   t   t   (G   4O   t   4O     t  t  t A t T O V > W t [ > ` 4O f O g 4O h 4O m (G w  p z O  t  O  O  O  t  O  t  <  t  t  >  ,x  O    t  
\   p  t  t   p  t  t  t  t ) t 7 t X O d t { t  t  >  t    <  t  t  >  t  t  t  O  O  t + t - t 1 t A t C t I t O > P t T ] [ O \ t _ t a > g > i t j 4O n t s O t t  4O  t  t  t  t    [  t  t  @5  <  t  t  t  (  t  t  t  O     t  (G  < 
 t    O  O   O ) t , t - t 9 t @ t A t C t D t N t ^ t j t q "| r t s t t (G v t x O  t  t  O  t  O  (G  /  t  t  t  t  t  t  ,x   t  t  t  >  t + 4O ; O < mU U O V > ] O ^ t _ [ j t m ( o O q 4O r O t t u t z >  t  t  t  4O  t  t  t $ t D ] t 4O u mU  O  t  4O  t  t  O  ,x  j     mU  t  t  t  t  t  t  t  -    ,  <  O  t  t  t  
\ ' > ( O / t 0 t 3 > 6 t ] t e t z t  t  >  O  t  t  >  t  t  t  t  O  t  t  t  t  t  O  t  ]  O  t  t  t  t  O  t  t ! t " t % t , t 7 t R O X > Y t ^ O a t h t l t o t v t x (G  t  t  t  4O  O  (G  O  O  O  <  t  O  >  4O  6  >  t  [  O  O  t  t  O  t  4O  t 	 O 	 
\ 	 t 	 O 	 
\ 	! ] 	# t 	% t 	' O 	* - 	- / 	1 - 	2 t 	3 t 	5 O 	6 t 	: t 	; > 	> t 	? > 	A t 	C  	O [ 	P t 	Y t 	^ (A 	` O 	e t 	f O 	m O 	o O 	u  	v t 	~ > 	 t 	 t 	 O 	 O 	 O 	 t 	 (G 	 O 	 t 	 O 	 t 	 ] 	 t 	 t 
	 > 
 > 
 > 
! ) 
) t 
? mU 
D t 
E t 
F t 
G  
H O 
J ( 
L O 
^ O 
` O 
m O 
q 4O 
y O 
 4 
 O 
 t 
 t 
 t 
  
 O 
 t 
 > 
 ] 
 O 
 A   A 
s A   A  m=  ! m=   ' - m=  m=  m= ( \ 
 m= 
 [  eG   "T   ,&  9 "T  o "T   "T  "T * "T Q  z   "T  ,&  "T  "T c "T  "T    "T  "T  "T  "T j ,&  !  ,&  ,&  "T  "T  "T  "T 	* "T 	D "T 	O  	 "T 	 "T 	 "T 
G "T 
H "T 
L "T 
^  
s ,& 
 "T 
 ! 
 A  A  \   9  .   A@   A@  ! A@  C A@  I A@  J A@  Q A@  \ A@  x A@   A@      A@   O   A@      A@   A@   O   O   A@ Z A@ f A@  A@  A@  A@  A@  A@  A@  A@  A@    A@  A@  A@  0$  A@   A@  A@ " A@ % A@ 1 A@ 3 A@ U A@ W  [ A@ d O  A@  A@  A@  A@  A@  A@  A@  A@  A@ , A@ = A@ D A@ Z  w   A@  A@  A@  wA  A@  0$ , A@ ; A@ U A@ j l o  x A@  A@  A@  O  O ' A@ , A@ _ A@ e A@ p   A@  A@    pzk 
 O  A@ H A@ a O  O  A@    A@    0$  0$ 	# A@ 	Q  	\ A@ 	l A@ 	v A@ 	 A@ 	 A@ 	 A@ 	 A@ 	 9[ 	 A@ 	 A@ 
  O 
) A@ 
L  
M A@ 
m A@ 
 A@ 
  
 A@ 
 A@ 
 A@ 
 A@ 
 {! 
 \   \  	 \  
  !   ! \ ? !   !   !   !   !  !N  !g  !  !  ! ? ! ? !  !; zL !  !  !  !  !  !  !  !  !  !;  !m  !o  !  !  !  !  !"  !$ S !,  !  !  !q  !  !  !  !  !W  !  !  !  ! ? ! S !  !	*  !	^  !	l  !	{  !	  !	  !
 h !
 z " u z "  z "n z " z "	 A #  A $W Hj %W Hj % Hj %	 A &  A '  (F  (Q  (  (  (	r  (
( 6 )t  * %  * d k *f  *	  *  *   *O  *  *>  *` V *  *S  *	e  *
G V *
L  *
f A + Hj ,  ,' _t , Z - 9 Z -j Z -
 Z -
 A . A /  0  s 0  s 0  s 0  s 0  s 0W s 0z s 0 s 0 s 01 s 0C k7 0 s 0- k7 0. s 0r s 0t s 0 s 0 s 0 s 0	O [ 0	t s 0
 s 0
 [ 0
 A 1  A 2 [ 3  Z 4  Z 4 9 Z 4 Z 4 41 5  41 5 z 5
 _ 6 _ 6 A 7	O A 8  }o 9   9  C` 9 ; C` 9  C` 9  C` 9  C` 9  C` 9  C` 9  }o 9
 C` 9 ` 9 C` 9 C` 9 }o 9* }o 9+ }o 95 C` 98 C` 9C }o 9_ C` 9f ` 9z }o 9 C` 9 ` 9 C` 9 3 9 C` 9 C 9 C` 9 C` 9 }o 9 C` 9 C` 9 C` 9 C` 9 C` 9 C` 9" ` 9) C` 9/ C` 91 C` 93 C` 95 C` 9; C` 9= C` 9> C` 9@ }o 9K ` 9M \ 9T \ 9U C` 9W }o 9f C` 9o C` 9 ` 9 C 9 C` 9 C` 9 C` 9 C` 9 ` 9 ` 9 C` 9 C` 9 }o 9 C` 9 C` 9 C` 9 C` 9 C` 9Y C` 9 C` 9 C` 9 C` 9 C` 9
 }o 9. C` 9_ C` 9 C` 9 C` 9  9 }o 9 C` 9 C` 9 C` 9 C` 9 C` 9\ }o 9 C` 9 ` 9 }o 9 3 9 C` 9 C` 9 C` 9 W 9 C` 9 }o 9 C` 9 C` 9 }o 9 C 9 }o 9 }o 9 C` 9 C` 9 }o 9 C` 9 C` 9 }o 9 }o 9 }o 9 C` 9 C` 9 C` 9 C` 9# C` 94 }o 99 C` 9< C` 9J C` 9Q C` 9Z C` 9[ }o 9\ C` 9^ 3 9` }o 9a C 9f C` 9q C` 9y C` 9 C` 9 C` 9 }o 9 C 9 C` 9 C` 9 C` 9 C` 9 C` 9 C` 9* C` 9  9 C` 9	% ` 9	6 C` 9	E C` 9	Q C` 9	e C` 9	 }o 9
# C` 9
, C` 9
/ C` 9
0 ` 9
D 3 9
H C` 9
z DC :  :  :c  :  :  :  :  :	 X :	 _ ; _ ; A < A =  A > A ? Z @ Z @ Z @. Z @
  A Z A' Z A	O Z B Z B Z Bb Z BO >s C  >s C  * Cz  C * C * C * C * C >s C * C * C * C- * C * C' >s C+ * Cz  C >s C  C * C * C * C	D  C	 * C	 * C	 * C
L >s C
 A D A E  A F A G A H
 A I
^ z J  z J  z J z J z J \ K ! \ K \ K  L  o? L o? L o? L u L
 Z M o F M
 A N  A Ov A P
 _ Q
 _ Q	O Z R  Z R	 Z R
 Z R
 4w S  41 Se A T	O A U  A V A W	 A X	W  Y   Y   Y 9 6 Y Y  Y  Y  YU  Yw  Y  Y' ; Y
= 6 Y
  Z   Z   Z  Z  Z  Z	  Z
  Z
 \ [ 9 [	 _ \$ _ \' A ]  J ^  J ^ r J ^% J ^7 J ^ J ^ J ^( J ^ J ^	C J ^
0 A _ A ` A a A b*  c  Z c Z c
 A d k; e o k; e  Z e  k; e k; e k; e Z e k; e k; e k; e Z e
O Z e
 _ f  _ f
L A g> A h	 _ i _ i
 A j A k   l e Z lW Z l m= m  m= m m= mn m= m m= m I m m= m m= m	7 A n   o   o   o 0  o  o  o  o  o  o1  o  o  o K o  o  of  ox  o 2 o K o	t  o	  o
! K o
L  o
  o
 A p   q   qZ  q}  q G? q  q	6  q	  q
L < r  d r J d r  d rZ d r d r d r d r d r d r d r d rr d rt d r d r d r d r d r d r  r d r	7 d r	g d r	 d r	 d r	 d r
G d r
~ _ s _ s
 A t  Y u   u 9  u   u  uE  u A u  u  u  u  u  u  u  u>  u	  u	  u
k  u
  u
  u
 A v  A w
1 A xC A y A z A {  9 |  \ | A }  A ~  A  _   _ h _  _ 
 A E A l A  A   [   A    }        ? @      @  @   X  e @    L   
  
 _   _ 
 _   _  "      "  & "  u "  { "   "   "   "   "   "   "   " k " v "      "  " % "  "  "  "  "    " > " B " W " r " t "  "  "  "  "  "  "  "  " } "       _ " w "  "  " * " ` "  "    "  "  " - " / " O   "  "  "   " K "  " 	 " 	) " 	l " 	 " 	 " 	 " 	 " 
% " 
)  
L " 
U " 
  
 " 
  ]  {    o    
L A  A  \   9  A 
 A   A 	V A F A  A w J   J   J  J  J  J v J  J  J  J 	 A   A  A  _   _ 
 A H Z  Z  Z  Z 
 A  A 
 \   \  9 \  A  Y     r          l      q    %  t  y          X  	  	  	  
      Z ?  ^ ? z ?  ? 
 ?  ? o ?   ; ? I ? L ? u T  ?  ?  ? 	* ? 	2 0 	7 ? 	  
O ? 
m r 
 A  9 U h   e     0      t  0  x ^        A [ A l A       	 M7 	 A 
 A 
                	 G? 
 1E   v   A 
 J  ! J : J  J  J \ J l J  J , J  J 
 A ' z   z g z  z [ z 
L m=   m=  m=  m=  m= ; m= < m= y m=  m=  m= 	7 m= 	e m= 
q *   %28   %28  !  G  C %28  q  G  r  G   %28    G   G  %28  %28  %28   %28   %28  7  %28  %28  %28  %28   G   G z %28   G  %28  %28 ; %28 < %28  %28 t %28  %28   , %28  %28  %28   G  %28  %28 	!  G 	#  G 	1 %28 	2 %28 	Y %28 	u %28 	 %28 	 %28 	 %28 	  
) %28 
D %28 
L %28 
U %28 
 %28 
  G 
 %28 
 S  r S   S  04  S  ZU j dq 
)              A  * =F   
yQ   
yQ   
yQ c v  
yQ  
yQ & 
yQ : v _ 
yQ ` 
yQ n =F t 
yQ  
yQ  
yQ 5 
yQ > 
yQ  
yQ  
yQ  
yQ  
yQ  
yQ  
yQ  
yQ  v  
yQ  
yQ  
yQ  
yQ 	
 
yQ 	% 
yQ 	 
yQ 
I A   Z  F  A 	    v  v  Y 
 _  _ 	 \  \ B \ 
 A   9   \  A  A h A 	         
 Hj 
 A  \   \   \ 
    	}   	}  e 	}      	}    	}  	} ) 	} i 	}  	} & 	} s 	}  	} R 	} V   	} ( 	} X 	}  	}  	}  	} 	  
m 	} 
~  
 	} 
 xy 
 _   _  _ } _ 
 hy   }  4 hy  9 hy   hy    ~   hy ?  f hy  hy  hy  hy , hy ] hy D hy )   hy 
 [  A 
 2    @    @    @    @   @   @     @ b  @ '  @   @ 	C  @ 	  @ 	  @ 
W  @ 
 < 
 Z ` Z  Z 
= Z 
 A  A  A   _ 0 _ 
[ Ea      K  9              z K      K     	  \  
  ] =o   ,      j  r  w    '            	t  
! K 
=  
M  
  
 h/ 
 A   A 	 {  [ 
 Z .  i Z  A   A   A 
 Z   Z 0 Z 	t Z 
    G   L       JW          yz [  n         w    Q yz o   JW       
    7  A  D  R  X  o    	  	  	  	  
  
m  
  
  
       5   f         	  
^  
 A  [   (       ]  p#     \  C  '    
 A  l A  z  o 41  z 
k z 
 _  _ i A a |   Cw  -              
   |    |    =*   J r J  J 	O J 
 J 
  
 \  ! \  \ 
 \  \ 	n \ 	t    h!     ?   C +h     +h f     +h       M                      F  }      	6  	n  	t +h 	  	  
  
  
 A  A 
! _   _  [   A  * _  _ 
l A  A  ] A  Y  o v  u v  v  v ( v  Hj    _t ' A   A   _  _ 	 A . A . e   e   e  e [ e  e  e  e  e  e  gZ 7 e 
 e 
             |    |   ?     |     	O  
  
 o? [ o?  o? L o? o o?  o?  o? ( o? X o? 
 A  _   _  Y   v  Y  v ` v  A 	 A  A , A  _   _  A   _ Q _ ' m=  [ m=  \ t m=  m=  m= x m=  m=  m=  m= 	* m= 
 A A	F .x * ^e 9_f >2o ^e	6 	] .x
1 
L \$ \t \ A' 9 9 \
 A
 A' _	 _	 Z
 Z
 Z
 Z
	 Z F' _  _
  9 f   [    hfU       A A A  . ;   	f .R     Nx 9 hy hy hy hy  hy
 hy
 hy
 z o z, 41 zY AQ \ \
 \
 {v  
 X    . l  	0 
s A
 _ _ [ A A' A o?   o?  o?  o?  o?  o?  o?  o? 	  o? 	 A!
L A"Y A# m A$E A% A&. A' [(
 A)L \*  \* \*
M ]<+. A,  A- A.  A/ A0 A1  A2 A3  \4Q \4. \4' [5 A6 z7 z7X 417 z7	O _8 _8. A9$ J:  J: J:' :q J: J:	7 :	` J:
 A;  < hf<Y < < <, hf<
 A=
 A>
 _? _?
L A@ ]<A	( _B _B
 AC  ]<D #E  SE  SE SE SE
 AF  AG% AH AI	! 9J \J	v _K	 _K
 \L  \L \L  AM
 N N N N] Na N	 \O 9O
 _Py _P
  Q  Q  Q 9 Q  Q Q Q Q Q Q. Q Q Q	 Q	0 Q	O @Q	t Q	 Q
` Q
 Q
 Q
 _R	 _R	 AS
 _T _T
 AU  4wV  zV
 zV	t W f W W W W W W' W	f \X \X \X \Y  \Y \Y ZJ Z |Z= Z |Z Z[ Z	e Z	 Z
H Z
L [Z
 A[	 _\  _\ * k;]  k;] 5 k;] k;] Z] k;] k;]d k;]6 k;]t k;] k;] k;]	I qk]	 _^  _^t Z_Y Z_ Z_; Z_a Z`	^ F`
L _a	 _a	 _b: _b Ac _dd _d _e _e %wf  %wf  9f  9f  %wf  %wf2 %wf4 %wfr %wf %wf %wf %wf %wf %wf f) %wf0 %wfC %wfF %wfM 9fO %wfY 9fZ %wf^ 9ff %wfm %wfs %wf %wf %wf %wf %wf %wf %wf %wf B!f %wf 9f %wf! %wf\ 9f %wf %wf %wf %wf %wf %wf 9f %wf %wf %wf %wf %wf %wf 9f %wf- %wf0 %wf9 %wf= %wf> %wfA %wfG 9f` %wfw %wf 9f %wf 9f %wf 9f	6 %wf	 %wf	 %wf
0 9f
^ %wf
 %wf
 zg  4wgK zg
 h  .xh * .xh  .xh  .xh .xh( .xh .xh .xh  .xh .xh h >2oh4 .xhX .xh	 .xh	 .xh
L .xh
 .xh
 h
 _i  _i _j 0 _jd Ak
 Al
 zm  zm C zm$ zm zm An
 Ao zp  zp  zp zp zp
 Aq  Ar  As  At Au  \v  \v \v QDw {w QDw	 Ax
 Ay
~ Fz  Fz  a=z  a=z  a=zE a=z a=zL a=z a=z& a=z+ a=z4 a=z] a=z a=z a=z  a=z a=z a=z a=z; a=zA zu a=z a=z a=z a=z a=z a=z a=z a=z Fz a=zf Fzi a=z a=z	7 a=z	? a=z	y a=z	 a=z	 a=z	 a=z
J a=z
 z
 A{p A|
1 A}  \~  \~ \~	v Z Z} 
 hf   	9 	: hf
1 A
\   g  '   	} 	 A[ [ A    U -  U   p  U OS[   U.  Uj  U  M  i  U  U  U  U  U  U	 
  U
 A A A7 _ _	O { A	 [  |      |	% 	 |
 A A
 _ _ A  A
 \  \ ! \' S6 S7 dq S S S Sz S S S S3 S
 __ _w A Z   Zy \  \ \ A _ 0 _1 A _Q _ A Z  Z Z Z
 \  \> \ A
 _  _
 A _  _ 9 \ A
       Z  Z 
 A
R A \ \i \
 A	O A| _	- _
 A	 A
 ~a  -w A   Q -w -wb  -w -w  P -ww -w -w  -w ^.k	# -w	r 	s -w	z -w	 
 \ \ \
 z z 41 z	$ z e z 41 z [H \	Z \	 \
 A
 Az A z  z z^ z	& z
@ A] u e o? o? o?[ o?; o? o?O o?f A' x   u  ,   =  =  =  P  =  ,] =  =: =O =[  = J =a = / =3 =g =n =t = = =  =: =J =" =S e ` , = Pl   =	= =	e =	 =	 =	 =
 AB CF& ( x ) q 9 CF& : CF& M CF& R CF& S CF& o x r CF& u CF&  CF&  5  CF&  CF&  5  CF&  CF&  CF& CF& CF&  CF&! CF&: CF&L CF&Z CF&] 5f 5h xw CF& CF& 5 CF& CF& CF& CF& CF& x CF& CF& CF&! CF&+ CF&V CF&{ CF&| CF& CF& q x CF& CF& 5 CF&2 5O CF&[ CF&\ CF&] CF&t CF&u 5 5 5 CF& x CF& CF& CF& CF& CF&1 CF&; CF&A CF&D CF&H CF&Z CF&] CF&f CF&q CF& CF& CF& CF& CF& x CF& CF& CF& CF& CF& 5 5 CF& q CF& CF& x CF&6 CF&; CF&< CF&B CF&N CF&] CF&c CF&w CF&| CF&~ CF& q CF& CF& CF& CF& CF& CF& CF& CF& CF& CF& CF& CF& CF&0 CF&1 5O CF&[ CF&` CF&o CF&| CF& CF& 5 CF& CF& CF& CF& CF& CF& 5 CF& CF& CF& CF& 5 CF&0 CF&4 CF&F CF& 5 5 CF& CF& CF& CF& CF& CF& CF& CF& CF& CF& CF& CF&a CF&n CF& CF& CF& CF& CF& 5 CF& x x CF& CF& CF&	 CF&	! CF&	, CF&	1 CF&	7 CF&	A 5	\ 5	] CF&	a CF&	 CF&	 CF&	 CF&	 CF&	 CF&	 CF&	 CF&	 CF&	 CF&	 CF&	 CF&	 CF&	 CF&	 x
 CF&
 CF&
 5
) CF&
. CF&
/ CF&
9 5
F 	
L CF&
U CF&
Y CF&
 x
 CF&
 CF&
 CF&
 CF&
 7
       .   r    P 	 z5	 
 
 A
 [  %w  %w  9  %w  %w  9	 %w 9 %w+ %w 9 %w	 %w %w %w %w! i) %w/ %w? %w@ iF %wI 9P 9U %wW Z %w %w %w %w 9 %w %w %w %w %w* %w 9 %w i %w %w 9 9 %w %w %w %w %w %w %w %w %w %w %w %w1 %w2 %w8 9> %wV %wZ %w\ %wf %wi %wx %w %w  9* 9 %w	 %w	 %w
, %w
4 %w
S A	0 _ _ m  F + h C F S " Y F Z F ^ F o F | F  F  8*  F  F  $v  F  FZ ] Fp F F " F F ^ VW F F F ! F F F F FI F\ n "t "{ F F F F " " F F F "
 F F F F  F" Fe F} F F F F F F F F F F4 F5 FC FD Q c Fm "t F|  F F F, F/ $v6 e Fi Fq Fw F F F F " F F F F  F  h F $v" F# FO FX Ff Fl "o Fx "{ " F F F F F " F _ F F $v	 	! F	# F	% 	* F	+ $v	7 F	= "	C F	e F	l "	| "	 F	 F	 "	 F	 F	 "	 	 F	 F	 $v	 F	 F	 h
  F
 "
 F
J F
M $v
O "
b F
~ F
 F
 "
 F
 
 "
 _  _
 A	 A   J J J J J% J9 Jk J
 \ \ \
L Z5   !  9   |     . ` 	O 	 
 
 _	 _
 hy  hyh hy  hy& hy hy hy hyt hy hy  hyx hy hy hy hy hy	 hy	o hy
 hy
 
   C .  	o 	t A, t   9  n  . j X' 	A 
 _  _ _f _  B vh A A A	z Z  Z  Z Z	 A
      	  o w   * V kz 	 	 V
 _  _
 A A	] 9"   " 9" ) 9" L  o 9" u 9"  9"    9"  9"  9" 9"Z 9"h  9" 9" 9" 9" 9"  b   9"
 9" 9"+ 9"E 9"W 9"i l t 9" 9"  9"  9" 9"	 9". 9"; 9"X 9"t ~ 9"   9" 9" 9" 9" 9" 	 9"  ; 9"V 9"m 9"o 9"q 9"| 9"~ 9"  9" 9" 9"  9" 9" 9" 9" 9" 9"9 9"U 9" 9" 9" 9" 9" 9" 9" 9" 9"S 9"U 9"V 9"^ 9"` 9"b 9"q z 9"|   9" 9" 9" 9" 9" 9" 9" 9"  9" 9"" ( 9"0 9"2 9"@ 9"X 9"^ 9"a 9"{  9" 9" 9" 9" 9" 9" 9" 9"	' 	5 9"	B 	G 9"	e 9"	 9"	 9"	 9"	 9"	 9"	 9"
 9"
F 9"
h 9"
i 
q 9"
 9"
 9"
 9"
 
 
 _e _
 fz   ! 
 9   f      X   	] 
 _ _
 z    f    z  z EV    EV6 c oe t   	2 @	 	 	 @	 z
= +
 _  _ 0 A  o?  o? u uX o?	 o?
L o?
 41  z zj z A  z M 4w z, A> [  _  _ 9    : 6+ N 6+ m 6+ n 6+ u 6+  6+  6+  6+  6+    6+  :  6+  6+  :] 6+^ 6+j 6+s 6+v : : i/ : 6+r  :  } 6+  6+ :L 6+M :O 6+l :n :{ 6+ 6+ 6+ 6+  } : 6+ 6+ : : 6+  } 6+r  } :
 6+ 6+ : :/ :D  }c :n :| 6+ 6+ : 6+ 6+  }A :B 6+  3A 6+6 6+7 6+a :o 6+ : : 6+  }	% :	C 6+	M 6+	\ :	e 6+	y  }	| :	 6+	 6+	 6+	  }	 6+	 6+
J 6+
U 6+
l 6+
 6+
 {  { e1 eg er e e	 e e e {	 e
 e
l e
o e
p A m= 0 m= m= m= m= m= m=; m=' m= m= m=	e m=
 A  A A' A' A   v 9 v v
 v
 A A _r _	 A  A. A _ _	 A` b/   !   l   ' 	u 
 Z Z 
 z   z  41  z 
j _ _ A Z F. A  A
 A A  z  z3 zh z	 z	 	  k;	 k;	 k;	U k;	z 	 k;	 k;	
L A
 _ _ A Z  Z Zl Z A	 _ ! _
L A
U _ 0 _    j  
 ]< Z Z Z Z
 A  A A ! \  \ \q A
 A  1E  v	# A A Z  Z Z Z A
 A . Z! ! Z!  Z! Z! A"' A#	` \$ 9 \$ \$	% A%  A& A'| Z(  Z(  Z( Z( )  ) ) ) ) )| ) ) )	k )
 )
 *  Z*f Z* J+ 9 J+f J+ J+ J+ J+ J+ J+ J+	/ J+	n A, _-w _- A. [/\ A0  A1  A2 A3 A4	 A5 _6  _6  A7l Z8  Z8 8 A9 A:. 41; z; z; z;
 A< A= A>  \?( \? \? [@ _A _A \B 0 \B \B
 AC ZDl ZDt ZD ZD3 9E7 \E F 9 HjF  F< HjF
L AG
% ZH  ZH  ZH  ZH{ _I  _I _J _J ZK ZK K. _L  _L JM  JM m JM M JM JM JM M
 \N  \N  \N _O _O% _P _P AQ 9 AR AS[ T  T T T' hfT	% hfT
M ]U  UN U U U U U U U U UY U U U	 U	 U
 U
t U
 \V 9V. W  $[pW W W W WN AX [Y  o?Z  o?Z  o?Z o?Z^ o?Z Z _[
  _[
 A\ _]A _] A^ ]<_. Z`  F`. [a _b  _bl vc vc vc vc vc vc vc \d \d
  \d
 Ae "f  1pf f fk Vft f' fN Ag  h  Zh Zhf _i _i Aj  Ak Al _m
 _m
 _n  _n  Ao. Ap Aq  Ar  As 9t \t Au Av  Aw  Ax
 \y  \y \y _z r _z 9{ 9 \{l [|. \}Z \} \}
 A~ \ \ \	 \  \z \
   v  
 z  z z z	 z
 A  9  \ Z m Z  Z Z 6 Ar A Zp ZT Z Z
 A 9 _ _	 _ _ _S _	 A z  zz z z	6 z	 A Z t Z _Z _< A \ ! \ \. 41  zz z z	 _ _ At A	O A  A A. Aa Z ! Z' Z Z	 v  v Y Y' v
 ZR Z Z Z A   Z 0 Z  Z  Z o Z Zt A  A \ \ \	D A A
o      !  o | r        |    	1 	 	 A  \ \
 \
 A A A Z Z Z6 Z( _G _	 A| _ _
 _ 9 _/ A _  _   Z Z	 A	 A A Z  Z1  A
 \  \z \ Az Z  F' A A	Y _ _ z  41 z z' A6 _ _1 A  A  A A [
 _l _
 _ _ A| A
 Af A \  \ \	 A A A' _ 	 _ A A A 3A     } 5 6+  6+  6+  6+T 6+f 6+ : 6+ :  } : 3A  
 6+A 6+B :R 6+ i/ :  : Z6 t 6+  } 6+ : 6+ : 6+' ^ m : : A  }  }  : :s 6+v  } 6+ 6+ 6+	 :	2 6+	  }	 6+	  }	 3A	 :
 :
 6+
 6+
 6+
 
 \
/ 9
 \  \
 \
 A A  %cW  yf d y dU yk dt d y	6 tV	] y
1 A    o?  o? o? o? o?	 _  _
 A A  A A
X Hj   r * 
 
 A) A	 A  Z  ZQ Z	_ Z
 @    @  x      [  z  o  07 ^%X o 0z  QR  	 z	 	 A  AD Nx  hy  hy  hy  hyW hy hy hy1 hy . hy hy  hy .I
 Y  v v v vD v
 A
 An A	 v  v  v  vC vQ v v	F [G A      Hj 0 \ \ \O A
 _  _
& Z  Z r Z Z A [  Hj   
= 
 \  9 A  9 \ AE    N   sR   c          z   Z Zz Z Z	 A _  _
U P  v v	t v	 \ \s \` [  A  A( \	  \	 \	
 _

 _
 A \: \ \a A
H A	t A _ _
 _  _	t A A   hf r   hf 	g 
 A  A
 Ar b/          	/ 
L 
 A A  e 0 ep e { e e ec e {x e
k {
 TZ
 A 9 [  A    Z, Z
L 04 . dq  S * 04 ' S  S 
 A!z A"
 A# _$$ _$
 A%
 z& &u A' A(
 _) _)! \* 9* + + + + + +
 $[p,  , 9 , r , , ,
L -  - 9 -  -f - - -) - - - - @-w - ]-	 -
 -
 \.  \. \. \/ \/L \/
 A0  ~1  ~1  e1 e1 e1) e1. e1	l e1	t e1	 e1
  e1
 {1
 e1
 \2  \2 \2Z \3  \3z \3, _4 _4. _5 _5 A6 $ A7Q A8	t A9 A: A;  A<U _= _=	* ^z>  > N> > > > > > >	 >
o N>
 _?  _? @  Z@ Z@ HjA  A ! HjA A	F AB  C  C  C  C C  C C C C C C	 C
 AD  E  E ! E E E E; AF _G  _G
 ZH ZH H
 \I 9I
 AJ _K _K. ZL ZL ZL ZL
 AM 0 ANa fO  O  O O O` O O O	 O
& O
= O
M O
 JP  JP JP JP JP JP+ JP	t P
 JP
 AQ
N \R  9R
 _S _S	 _TA _T AU  \V \V \V JW  JW  JW  JWC JW JW; JW JWq JW
 JW
 AX k;Y  k;Y qkY k;Y k;Yn k;Y UY' k;Y _Z  _Z [  [ 5 [ m [ [ [ pk[ [ [ [ [ 71[
= ,[
 \  \	9 \
= _t\
 J]z J] J]] ]w J]X J]s J] J] J]
 A^  A_	1 A` Aa	D _b _b	1 9c  \c  Ad
 \e \e
L \e
z _f _fr 9g  9g 9 9gf Cg 9g Cg Cgb Cg Cg Cg	 Cgk Cgr Cg 9g' Cg Cgr Cg} Cg Cg	% Cg
! Cg
L Cg
S Cg
 ]<h
 41i
 41i zi
, \j * \j  \j Ak l  l  Xl  l  l  l  lC l l l @!l
 Am  hn  w}n  snQ w}n adn sn w}n w}n w}n snp w}n w}n sn( w}n0 w}n; w}n w}n w}n 9n~ w}n w}n	' w}n	6 9n	J Ao
@ _p _p` q  Zq Zq a=r  a=r a=r9 a=rO rf a=r a=r a=r	 a=rH a=rU a=rl a=r Fr a=r a=r a=r a=rA a=rg a=r a=r <Ar a=r a=rw <Ar a=r a=r a=r Fr a=r a=r a=r a=r a=r. a=r/ a=r	 a=r	/ a=r	6 a=r	 a=r
D a=r
G _sf _s	t "t  At [ At "t "t. "t "t "t "tO "tP "t "t "t it At	 At
 ]<uc Av Aw# AxB Hjy  y y y	9 y	O \z q \zu \z( `{  { 9 {  V{ { { V{ `{Q {K { {	 {
 v|n v| Y|, v|` v|	6 v|
M A} _~ _~5 z 4w| z
 A  \j \
 \
 A
 _ _
L _	 _
 A qk k; k;n k; k; qk	 G	 Z
 [	 u  o?  o? o? o?C o? o?X o?
 _ _ A C A A	 _ _
 AH o?  o? 0 o?  o? 1s o? o? z z z0 41 A  A
 A 6 A 6  _ _
 A A	O    ,  Hj
 Z Z	 
 A A A -w  -w  -w  Y[E -w -w -ww  -w -w  -w -w -w -w -w -w  -w -w -w -w -w
