~h "a"
<BEGINHMM>
<NUMSTATES> 5
<STATE> 2
<MEAN> 39
 -3.581482e+00 -3.602143e+00 1.748541e-02 -4.274473e+00 -5.139435e+00 -3.756983e+00 -5.674071e+00 -2.861689e+00 -1.863639e+00 -1.328783e+00 -2.759773e+00 -3.222980e+00 6.259650e+01 2.376430e-03 -5.127961e-04 1.865725e-03 2.355871e-04 1.499187e-03 -1.970727e-04 7.880598e-04 -2.874425e-04 -9.379386e-04 7.077495e-04 -1.458328e-03 -3.821569e-04 6.212953e-03 -3.974463e-04 2.528298e-05 -1.389394e-04 2.238030e-04 -8.819671e-05 -2.303885e-05 7.395142e-05 7.111674e-05 -2.229417e-04 5.211498e-05 4.644710e-05 1.563326e-04 -6.270007e-04
<VARIANCE> 39
 7.898791e+01 8.549170e+01 1.039326e+02 1.035625e+02 1.013827e+02 9.334486e+01 7.809044e+01 7.020847e+01 7.264623e+01 5.927662e+01 6.909829e+01 4.671127e+01 1.688386e+02 2.619247e+00 2.844096e+00 3.141263e+00 3.342374e+00 3.775106e+00 3.710435e+00 3.631593e+00 3.796941e+00 3.445527e+00 3.035479e+00 3.042204e+00 2.537637e+00 3.067575e+00 4.069282e-01 4.516459e-01 4.950505e-01 5.772119e-01 6.622217e-01 6.632758e-01 6.633168e-01 6.897152e-01 6.252945e-01 5.695893e-01 5.601525e-01 4.705158e-01 4.442440e-01
<GCONST> 1.365261e+02
<STATE> 3
<MEAN> 39
 -3.581482e+00 -3.602143e+00 1.748541e-02 -4.274473e+00 -5.139435e+00 -3.756983e+00 -5.674071e+00 -2.861689e+00 -1.863639e+00 -1.328783e+00 -2.759773e+00 -3.222980e+00 6.259650e+01 2.376430e-03 -5.127961e-04 1.865725e-03 2.355871e-04 1.499187e-03 -1.970727e-04 7.880598e-04 -2.874425e-04 -9.379386e-04 7.077495e-04 -1.458328e-03 -3.821569e-04 6.212953e-03 -3.974463e-04 2.528298e-05 -1.389394e-04 2.238030e-04 -8.819671e-05 -2.303885e-05 7.395142e-05 7.111674e-05 -2.229417e-04 5.211498e-05 4.644710e-05 1.563326e-04 -6.270007e-04
<VARIANCE> 39
 7.898791e+01 8.549170e+01 1.039326e+02 1.035625e+02 1.013827e+02 9.334486e+01 7.809044e+01 7.020847e+01 7.264623e+01 5.927662e+01 6.909829e+01 4.671127e+01 1.688386e+02 2.619247e+00 2.844096e+00 3.141263e+00 3.342374e+00 3.775106e+00 3.710435e+00 3.631593e+00 3.796941e+00 3.445527e+00 3.035479e+00 3.042204e+00 2.537637e+00 3.067575e+00 4.069282e-01 4.516459e-01 4.950505e-01 5.772119e-01 6.622217e-01 6.632758e-01 6.633168e-01 6.897152e-01 6.252945e-01 5.695893e-01 5.601525e-01 4.705158e-01 4.442440e-01
<GCONST> 1.365261e+02
<STATE> 4
<MEAN> 39
 -3.581482e+00 -3.602143e+00 1.748541e-02 -4.274473e+00 -5.139435e+00 -3.756983e+00 -5.674071e+00 -2.861689e+00 -1.863639e+00 -1.328783e+00 -2.759773e+00 -3.222980e+00 6.259650e+01 2.376430e-03 -5.127961e-04 1.865725e-03 2.355871e-04 1.499187e-03 -1.970727e-04 7.880598e-04 -2.874425e-04 -9.379386e-04 7.077495e-04 -1.458328e-03 -3.821569e-04 6.212953e-03 -3.974463e-04 2.528298e-05 -1.389394e-04 2.238030e-04 -8.819671e-05 -2.303885e-05 7.395142e-05 7.111674e-05 -2.229417e-04 5.211498e-05 4.644710e-05 1.563326e-04 -6.270007e-04
<VARIANCE> 39
 7.898791e+01 8.549170e+01 1.039326e+02 1.035625e+02 1.013827e+02 9.334486e+01 7.809044e+01 7.020847e+01 7.264623e+01 5.927662e+01 6.909829e+01 4.671127e+01 1.688386e+02 2.619247e+00 2.844096e+00 3.141263e+00 3.342374e+00 3.775106e+00 3.710435e+00 3.631593e+00 3.796941e+00 3.445527e+00 3.035479e+00 3.042204e+00 2.537637e+00 3.067575e+00 4.069282e-01 4.516459e-01 4.950505e-01 5.772119e-01 6.622217e-01 6.632758e-01 6.633168e-01 6.897152e-01 6.252945e-01 5.695893e-01 5.601525e-01 4.705158e-01 4.442440e-01
<GCONST> 1.365261e+02
<TRANSP> 5
 0.000000e+00 1.000000e+00 0.000000e+00 0.000000e+00 0.000000e+00
 0.000000e+00 6.000000e-01 4.000000e-01 0.000000e+00 0.000000e+00
 0.000000e+00 0.000000e+00 6.000000e-01 4.000000e-01 0.000000e+00
 0.000000e+00 0.000000e+00 0.000000e+00 7.000000e-01 3.000000e-01
 0.000000e+00 0.000000e+00 0.000000e+00 0.000000e+00 0.000000e+00
<ENDHMM>
~h "c"
<BEGINHMM>
<NUMSTATES> 5
<STATE> 2
<MEAN> 39
 -3.581482e+00 -3.602143e+00 1.748541e-02 -4.274473e+00 -5.139435e+00 -3.756983e+00 -5.674071e+00 -2.861689e+00 -1.863639e+00 -1.328783e+00 -2.759773e+00 -3.222980e+00 6.259650e+01 2.376430e-03 -5.127961e-04 1.865725e-03 2.355871e-04 1.499187e-03 -1.970727e-04 7.880598e-04 -2.874425e-04 -9.379386e-04 7.077495e-04 -1.458328e-03 -3.821569e-04 6.212953e-03 -3.974463e-04 2.528298e-05 -1.389394e-04 2.238030e-04 -8.819671e-05 -2.303885e-05 7.395142e-05 7.111674e-05 -2.229417e-04 5.211498e-05 4.644710e-05 1.563326e-04 -6.270007e-04
<VARIANCE> 39
 7.898791e+01 8.549170e+01 1.039326e+02 1.035625e+02 1.013827e+02 9.334486e+01 7.809044e+01 7.020847e+01 7.264623e+01 5.927662e+01 6.909829e+01 4.671127e+01 1.688386e+02 2.619247e+00 2.844096e+00 3.141263e+00 3.342374e+00 3.775106e+00 3.710435e+00 3.631593e+00 3.796941e+00 3.445527e+00 3.035479e+00 3.042204e+00 2.537637e+00 3.067575e+00 4.069282e-01 4.516459e-01 4.950505e-01 5.772119e-01 6.622217e-01 6.632758e-01 6.633168e-01 6.897152e-01 6.252945e-01 5.695893e-01 5.601525e-01 4.705158e-01 4.442440e-01
<GCONST> 1.365261e+02
<STATE> 3
<MEAN> 39
 -3.581482e+00 -3.602143e+00 1.748541e-02 -4.274473e+00 -5.139435e+00 -3.756983e+00 -5.674071e+00 -2.861689e+00 -1.863639e+00 -1.328783e+00 -2.759773e+00 -3.222980e+00 6.259650e+01 2.376430e-03 -5.127961e-04 1.865725e-03 2.355871e-04 1.499187e-03 -1.970727e-04 7.880598e-04 -2.874425e-04 -9.379386e-04 7.077495e-04 -1.458328e-03 -3.821569e-04 6.212953e-03 -3.974463e-04 2.528298e-05 -1.389394e-04 2.238030e-04 -8.819671e-05 -2.303885e-05 7.395142e-05 7.111674e-05 -2.229417e-04 5.211498e-05 4.644710e-05 1.563326e-04 -6.270007e-04
<VARIANCE> 39
 7.898791e+01 8.549170e+01 1.039326e+02 1.035625e+02 1.013827e+02 9.334486e+01 7.809044e+01 7.020847e+01 7.264623e+01 5.927662e+01 6.909829e+01 4.671127e+01 1.688386e+02 2.619247e+00 2.844096e+00 3.141263e+00 3.342374e+00 3.775106e+00 3.710435e+00 3.631593e+00 3.796941e+00 3.445527e+00 3.035479e+00 3.042204e+00 2.537637e+00 3.067575e+00 4.069282e-01 4.516459e-01 4.950505e-01 5.772119e-01 6.622217e-01 6.632758e-01 6.633168e-01 6.897152e-01 6.252945e-01 5.695893e-01 5.601525e-01 4.705158e-01 4.442440e-01
<GCONST> 1.365261e+02
<STATE> 4
<MEAN> 39
 -3.581482e+00 -3.602143e+00 1.748541e-02 -4.274473e+00 -5.139435e+00 -3.756983e+00 -5.674071e+00 -2.861689e+00 -1.863639e+00 -1.328783e+00 -2.759773e+00 -3.222980e+00 6.259650e+01 2.376430e-03 -5.127961e-04 1.865725e-03 2.355871e-04 1.499187e-03 -1.970727e-04 7.880598e-04 -2.874425e-04 -9.379386e-04 7.077495e-04 -1.458328e-03 -3.821569e-04 6.212953e-03 -3.974463e-04 2.528298e-05 -1.389394e-04 2.238030e-04 -8.819671e-05 -2.303885e-05 7.395142e-05 7.111674e-05 -2.229417e-04 5.211498e-05 4.644710e-05 1.563326e-04 -6.270007e-04
<VARIANCE> 39
 7.898791e+01 8.549170e+01 1.039326e+02 1.035625e+02 1.013827e+02 9.334486e+01 7.809044e+01 7.020847e+01 7.264623e+01 5.927662e+01 6.909829e+01 4.671127e+01 1.688386e+02 2.619247e+00 2.844096e+00 3.141263e+00 3.342374e+00 3.775106e+00 3.710435e+00 3.631593e+00 3.796941e+00 3.445527e+00 3.035479e+00 3.042204e+00 2.537637e+00 3.067575e+00 4.069282e-01 4.516459e-01 4.950505e-01 5.772119e-01 6.622217e-01 6.632758e-01 6.633168e-01 6.897152e-01 6.252945e-01 5.695893e-01 5.601525e-01 4.705158e-01 4.442440e-01
<GCONST> 1.365261e+02
<TRANSP> 5
 0.000000e+00 1.000000e+00 0.000000e+00 0.000000e+00 0.000000e+00
 0.000000e+00 6.000000e-01 4.000000e-01 0.000000e+00 0.000000e+00
 0.000000e+00 0.000000e+00 6.000000e-01 4.000000e-01 0.000000e+00
 0.000000e+00 0.000000e+00 0.000000e+00 7.000000e-01 3.000000e-01
 0.000000e+00 0.000000e+00 0.000000e+00 0.000000e+00 0.000000e+00
<ENDHMM>
~h "r"
<BEGINHMM>
<NUMSTATES> 5
<STATE> 2
<MEAN> 39
 -3.581482e+00 -3.602143e+00 1.748541e-02 -4.274473e+00 -5.139435e+00 -3.756983e+00 -5.674071e+00 -2.861689e+00 -1.863639e+00 -1.328783e+00 -2.759773e+00 -3.222980e+00 6.259650e+01 2.376430e-03 -5.127961e-04 1.865725e-03 2.355871e-04 1.499187e-03 -1.970727e-04 7.880598e-04 -2.874425e-04 -9.379386e-04 7.077495e-04 -1.458328e-03 -3.821569e-04 6.212953e-03 -3.974463e-04 2.528298e-05 -1.389394e-04 2.238030e-04 -8.819671e-05 -2.303885e-05 7.395142e-05 7.111674e-05 -2.229417e-04 5.211498e-05 4.644710e-05 1.563326e-04 -6.270007e-04
<VARIANCE> 39
 7.898791e+01 8.549170e+01 1.039326e+02 1.035625e+02 1.013827e+02 9.334486e+01 7.809044e+01 7.020847e+01 7.264623e+01 5.927662e+01 6.909829e+01 4.671127e+01 1.688386e+02 2.619247e+00 2.844096e+00 3.141263e+00 3.342374e+00 3.775106e+00 3.710435e+00 3.631593e+00 3.796941e+00 3.445527e+00 3.035479e+00 3.042204e+00 2.537637e+00 3.067575e+00 4.069282e-01 4.516459e-01 4.950505e-01 5.772119e-01 6.622217e-01 6.632758e-01 6.633168e-01 6.897152e-01 6.252945e-01 5.695893e-01 5.601525e-01 4.705158e-01 4.442440e-01
<GCONST> 1.365261e+02
<STATE> 3
<MEAN> 39
 -3.581482e+00 -3.602143e+00 1.748541e-02 -4.274473e+00 -5.139435e+00 -3.756983e+00 -5.674071e+00 -2.861689e+00 -1.863639e+00 -1.328783e+00 -2.759773e+00 -3.222980e+00 6.259650e+01 2.376430e-03 -5.127961e-04 1.865725e-03 2.355871e-04 1.499187e-03 -1.970727e-04 7.880598e-04 -2.874425e-04 -9.379386e-04 7.077495e-04 -1.458328e-03 -3.821569e-04 6.212953e-03 -3.974463e-04 2.528298e-05 -1.389394e-04 2.238030e-04 -8.819671e-05 -2.303885e-05 7.395142e-05 7.111674e-05 -2.229417e-04 5.211498e-05 4.644710e-05 1.563326e-04 -6.270007e-04
<VARIANCE> 39
 7.898791e+01 8.549170e+01 1.039326e+02 1.035625e+02 1.013827e+02 9.334486e+01 7.809044e+01 7.020847e+01 7.264623e+01 5.927662e+01 6.909829e+01 4.671127e+01 1.688386e+02 2.619247e+00 2.844096e+00 3.141263e+00 3.342374e+00 3.775106e+00 3.710435e+00 3.631593e+00 3.796941e+00 3.445527e+00 3.035479e+00 3.042204e+00 2.537637e+00 3.067575e+00 4.069282e-01 4.516459e-01 4.950505e-01 5.772119e-01 6.622217e-01 6.632758e-01 6.633168e-01 6.897152e-01 6.252945e-01 5.695893e-01 5.601525e-01 4.705158e-01 4.442440e-01
<GCONST> 1.365261e+02
<STATE> 4
<MEAN> 39
 -3.581482e+00 -3.602143e+00 1.748541e-02 -4.274473e+00 -5.139435e+00 -3.756983e+00 -5.674071e+00 -2.861689e+00 -1.863639e+00 -1.328783e+00 -2.759773e+00 -3.222980e+00 6.259650e+01 2.376430e-03 -5.127961e-04 1.865725e-03 2.355871e-04 1.499187e-03 -1.970727e-04 7.880598e-04 -2.874425e-04 -9.379386e-04 7.077495e-04 -1.458328e-03 -3.821569e-04 6.212953e-03 -3.974463e-04 2.528298e-05 -1.389394e-04 2.238030e-04 -8.819671e-05 -2.303885e-05 7.395142e-05 7.111674e-05 -2.229417e-04 5.211498e-05 4.644710e-05 1.563326e-04 -6.270007e-04
<VARIANCE> 39
 7.898791e+01 8.549170e+01 1.039326e+02 1.035625e+02 1.013827e+02 9.334486e+01 7.809044e+01 7.020847e+01 7.264623e+01 5.927662e+01 6.909829e+01 4.671127e+01 1.688386e+02 2.619247e+00 2.844096e+00 3.141263e+00 3.342374e+00 3.775106e+00 3.710435e+00 3.631593e+00 3.796941e+00 3.445527e+00 3.035479e+00 3.042204e+00 2.537637e+00 3.067575e+00 4.069282e-01 4.516459e-01 4.950505e-01 5.772119e-01 6.622217e-01 6.632758e-01 6.633168e-01 6.897152e-01 6.252945e-01 5.695893e-01 5.601525e-01 4.705158e-01 4.442440e-01
<GCONST> 1.365261e+02
<TRANSP> 5
 0.000000e+00 1.000000e+00 0.000000e+00 0.000000e+00 0.000000e+00
 0.000000e+00 6.000000e-01 4.000000e-01 0.000000e+00 0.000000e+00
 0.000000e+00 0.000000e+00 6.000000e-01 4.000000e-01 0.000000e+00
 0.000000e+00 0.000000e+00 0.000000e+00 7.000000e-01 3.000000e-01
 0.000000e+00 0.000000e+00 0.000000e+00 0.000000e+00 0.000000e+00
<ENDHMM>
~h "n"
<BEGINHMM>
<NUMSTATES> 5
<STATE> 2
<MEAN> 39
 -3.581482e+00 -3.602143e+00 1.748541e-02 -4.274473e+00 -5.139435e+00 -3.756983e+00 -5.674071e+00 -2.861689e+00 -1.863639e+00 -1.328783e+00 -2.759773e+00 -3.222980e+00 6.259650e+01 2.376430e-03 -5.127961e-04 1.865725e-03 2.355871e-04 1.499187e-03 -1.970727e-04 7.880598e-04 -2.874425e-04 -9.379386e-04 7.077495e-04 -1.458328e-03 -3.821569e-04 6.212953e-03 -3.974463e-04 2.528298e-05 -1.389394e-04 2.238030e-04 -8.819671e-05 -2.303885e-05 7.395142e-05 7.111674e-05 -2.229417e-04 5.211498e-05 4.644710e-05 1.563326e-04 -6.270007e-04
<VARIANCE> 39
 7.898791e+01 8.549170e+01 1.039326e+02 1.035625e+02 1.013827e+02 9.334486e+01 7.809044e+01 7.020847e+01 7.264623e+01 5.927662e+01 6.909829e+01 4.671127e+01 1.688386e+02 2.619247e+00 2.844096e+00 3.141263e+00 3.342374e+00 3.775106e+00 3.710435e+00 3.631593e+00 3.796941e+00 3.445527e+00 3.035479e+00 3.042204e+00 2.537637e+00 3.067575e+00 4.069282e-01 4.516459e-01 4.950505e-01 5.772119e-01 6.622217e-01 6.632758e-01 6.633168e-01 6.897152e-01 6.252945e-01 5.695893e-01 5.601525e-01 4.705158e-01 4.442440e-01
<GCONST> 1.365261e+02
<STATE> 3
<MEAN> 39
 -3.581482e+00 -3.602143e+00 1.748541e-02 -4.274473e+00 -5.139435e+00 -3.756983e+00 -5.674071e+00 -2.861689e+00 -1.863639e+00 -1.328783e+00 -2.759773e+00 -3.222980e+00 6.259650e+01 2.376430e-03 -5.127961e-04 1.865725e-03 2.355871e-04 1.499187e-03 -1.970727e-04 7.880598e-04 -2.874425e-04 -9.379386e-04 7.077495e-04 -1.458328e-03 -3.821569e-04 6.212953e-03 -3.974463e-04 2.528298e-05 -1.389394e-04 2.238030e-04 -8.819671e-05 -2.303885e-05 7.395142e-05 7.111674e-05 -2.229417e-04 5.211498e-05 4.644710e-05 1.563326e-04 -6.270007e-04
<VARIANCE> 39
 7.898791e+01 8.549170e+01 1.039326e+02 1.035625e+02 1.013827e+02 9.334486e+01 7.809044e+01 7.020847e+01 7.264623e+01 5.927662e+01 6.909829e+01 4.671127e+01 1.688386e+02 2.619247e+00 2.844096e+00 3.141263e+00 3.342374e+00 3.775106e+00 3.710435e+00 3.631593e+00 3.796941e+00 3.445527e+00 3.035479e+00 3.042204e+00 2.537637e+00 3.067575e+00 4.069282e-01 4.516459e-01 4.950505e-01 5.772119e-01 6.622217e-01 6.632758e-01 6.633168e-01 6.897152e-01 6.252945e-01 5.695893e-01 5.601525e-01 4.705158e-01 4.442440e-01
<GCONST> 1.365261e+02
<STATE> 4
<MEAN> 39
 -3.581482e+00 -3.602143e+00 1.748541e-02 -4.274473e+00 -5.139435e+00 -3.756983e+00 -5.674071e+00 -2.861689e+00 -1.863639e+00 -1.328783e+00 -2.759773e+00 -3.222980e+00 6.259650e+01 2.376430e-03 -5.127961e-04 1.865725e-03 2.355871e-04 1.499187e-03 -1.970727e-04 7.880598e-04 -2.874425e-04 -9.379386e-04 7.077495e-04 -1.458328e-03 -3.821569e-04 6.212953e-03 -3.974463e-04 2.528298e-05 -1.389394e-04 2.238030e-04 -8.819671e-05 -2.303885e-05 7.395142e-05 7.111674e-05 -2.229417e-04 5.211498e-05 4.644710e-05 1.563326e-04 -6.270007e-04
<VARIANCE> 39
 7.898791e+01 8.549170e+01 1.039326e+02 1.035625e+02 1.013827e+02 9.334486e+01 7.809044e+01 7.020847e+01 7.264623e+01 5.927662e+01 6.909829e+01 4.671127e+01 1.688386e+02 2.619247e+00 2.844096e+00 3.141263e+00 3.342374e+00 3.775106e+00 3.710435e+00 3.631593e+00 3.796941e+00 3.445527e+00 3.035479e+00 3.042204e+00 2.537637e+00 3.067575e+00 4.069282e-01 4.516459e-01 4.950505e-01 5.772119e-01 6.622217e-01 6.632758e-01 6.633168e-01 6.897152e-01 6.252945e-01 5.695893e-01 5.601525e-01 4.705158e-01 4.442440e-01
<GCONST> 1.365261e+02
<TRANSP> 5
 0.000000e+00 1.000000e+00 0.000000e+00 0.000000e+00 0.000000e+00
 0.000000e+00 6.000000e-01 4.000000e-01 0.000000e+00 0.000000e+00
 0.000000e+00 0.000000e+00 6.000000e-01 4.000000e-01 0.000000e+00
 0.000000e+00 0.000000e+00 0.000000e+00 7.000000e-01 3.000000e-01
 0.000000e+00 0.000000e+00 0.000000e+00 0.000000e+00 0.000000e+00
<ENDHMM>
~h "y"
<BEGINHMM>
<NUMSTATES> 5
<STATE> 2
<MEAN> 39
 -3.581482e+00 -3.602143e+00 1.748541e-02 -4.274473e+00 -5.139435e+00 -3.756983e+00 -5.674071e+00 -2.861689e+00 -1.863639e+00 -1.328783e+00 -2.759773e+00 -3.222980e+00 6.259650e+01 2.376430e-03 -5.127961e-04 1.865725e-03 2.355871e-04 1.499187e-03 -1.970727e-04 7.880598e-04 -2.874425e-04 -9.379386e-04 7.077495e-04 -1.458328e-03 -3.821569e-04 6.212953e-03 -3.974463e-04 2.528298e-05 -1.389394e-04 2.238030e-04 -8.819671e-05 -2.303885e-05 7.395142e-05 7.111674e-05 -2.229417e-04 5.211498e-05 4.644710e-05 1.563326e-04 -6.270007e-04
<VARIANCE> 39
 7.898791e+01 8.549170e+01 1.039326e+02 1.035625e+02 1.013827e+02 9.334486e+01 7.809044e+01 7.020847e+01 7.264623e+01 5.927662e+01 6.909829e+01 4.671127e+01 1.688386e+02 2.619247e+00 2.844096e+00 3.141263e+00 3.342374e+00 3.775106e+00 3.710435e+00 3.631593e+00 3.796941e+00 3.445527e+00 3.035479e+00 3.042204e+00 2.537637e+00 3.067575e+00 4.069282e-01 4.516459e-01 4.950505e-01 5.772119e-01 6.622217e-01 6.632758e-01 6.633168e-01 6.897152e-01 6.252945e-01 5.695893e-01 5.601525e-01 4.705158e-01 4.442440e-01
<GCONST> 1.365261e+02
<STATE> 3
<MEAN> 39
 -3.581482e+00 -3.602143e+00 1.748541e-02 -4.274473e+00 -5.139435e+00 -3.756983e+00 -5.674071e+00 -2.861689e+00 -1.863639e+00 -1.328783e+00 -2.759773e+00 -3.222980e+00 6.259650e+01 2.376430e-03 -5.127961e-04 1.865725e-03 2.355871e-04 1.499187e-03 -1.970727e-04 7.880598e-04 -2.874425e-04 -9.379386e-04 7.077495e-04 -1.458328e-03 -3.821569e-04 6.212953e-03 -3.974463e-04 2.528298e-05 -1.389394e-04 2.238030e-04 -8.819671e-05 -2.303885e-05 7.395142e-05 7.111674e-05 -2.229417e-04 5.211498e-05 4.644710e-05 1.563326e-04 -6.270007e-04
<VARIANCE> 39
 7.898791e+01 8.549170e+01 1.039326e+02 1.035625e+02 1.013827e+02 9.334486e+01 7.809044e+01 7.020847e+01 7.264623e+01 5.927662e+01 6.909829e+01 4.671127e+01 1.688386e+02 2.619247e+00 2.844096e+00 3.141263e+00 3.342374e+00 3.775106e+00 3.710435e+00 3.631593e+00 3.796941e+00 3.445527e+00 3.035479e+00 3.042204e+00 2.537637e+00 3.067575e+00 4.069282e-01 4.516459e-01 4.950505e-01 5.772119e-01 6.622217e-01 6.632758e-01 6.633168e-01 6.897152e-01 6.252945e-01 5.695893e-01 5.601525e-01 4.705158e-01 4.442440e-01
<GCONST> 1.365261e+02
<STATE> 4
<MEAN> 39
 -3.581482e+00 -3.602143e+00 1.748541e-02 -4.274473e+00 -5.139435e+00 -3.756983e+00 -5.674071e+00 -2.861689e+00 -1.863639e+00 -1.328783e+00 -2.759773e+00 -3.222980e+00 6.259650e+01 2.376430e-03 -5.127961e-04 1.865725e-03 2.355871e-04 1.499187e-03 -1.970727e-04 7.880598e-04 -2.874425e-04 -9.379386e-04 7.077495e-04 -1.458328e-03 -3.821569e-04 6.212953e-03 -3.974463e-04 2.528298e-05 -1.389394e-04 2.238030e-04 -8.819671e-05 -2.303885e-05 7.395142e-05 7.111674e-05 -2.229417e-04 5.211498e-05 4.644710e-05 1.563326e-04 -6.270007e-04
<VARIANCE> 39
 7.898791e+01 8.549170e+01 1.039326e+02 1.035625e+02 1.013827e+02 9.334486e+01 7.809044e+01 7.020847e+01 7.264623e+01 5.927662e+01 6.909829e+01 4.671127e+01 1.688386e+02 2.619247e+00 2.844096e+00 3.141263e+00 3.342374e+00 3.775106e+00 3.710435e+00 3.631593e+00 3.796941e+00 3.445527e+00 3.035479e+00 3.042204e+00 2.537637e+00 3.067575e+00 4.069282e-01 4.516459e-01 4.950505e-01 5.772119e-01 6.622217e-01 6.632758e-01 6.633168e-01 6.897152e-01 6.252945e-01 5.695893e-01 5.601525e-01 4.705158e-01 4.442440e-01
<GCONST> 1.365261e+02
<TRANSP> 5
 0.000000e+00 1.000000e+00 0.000000e+00 0.000000e+00 0.000000e+00
 0.000000e+00 6.000000e-01 4.000000e-01 0.000000e+00 0.000000e+00
 0.000000e+00 0.000000e+00 6.000000e-01 4.000000e-01 0.000000e+00
 0.000000e+00 0.000000e+00 0.000000e+00 7.000000e-01 3.000000e-01
 0.000000e+00 0.000000e+00 0.000000e+00 0.000000e+00 0.000000e+00
<ENDHMM>
~h "d"
<BEGINHMM>
<NUMSTATES> 5
<STATE> 2
<MEAN> 39
 -3.581482e+00 -3.602143e+00 1.748541e-02 -4.274473e+00 -5.139435e+00 -3.756983e+00 -5.674071e+00 -2.861689e+00 -1.863639e+00 -1.328783e+00 -2.759773e+00 -3.222980e+00 6.259650e+01 2.376430e-03 -5.127961e-04 1.865725e-03 2.355871e-04 1.499187e-03 -1.970727e-04 7.880598e-04 -2.874425e-04 -9.379386e-04 7.077495e-04 -1.458328e-03 -3.821569e-04 6.212953e-03 -3.974463e-04 2.528298e-05 -1.389394e-04 2.238030e-04 -8.819671e-05 -2.303885e-05 7.395142e-05 7.111674e-05 -2.229417e-04 5.211498e-05 4.644710e-05 1.563326e-04 -6.270007e-04
<VARIANCE> 39
 7.898791e+01 8.549170e+01 1.039326e+02 1.035625e+02 1.013827e+02 9.334486e+01 7.809044e+01 7.020847e+01 7.264623e+01 5.927662e+01 6.909829e+01 4.671127e+01 1.688386e+02 2.619247e+00 2.844096e+00 3.141263e+00 3.342374e+00 3.775106e+00 3.710435e+00 3.631593e+00 3.796941e+00 3.445527e+00 3.035479e+00 3.042204e+00 2.537637e+00 3.067575e+00 4.069282e-01 4.516459e-01 4.950505e-01 5.772119e-01 6.622217e-01 6.632758e-01 6.633168e-01 6.897152e-01 6.252945e-01 5.695893e-01 5.601525e-01 4.705158e-01 4.442440e-01
<GCONST> 1.365261e+02
<STATE> 3
<MEAN> 39
 -3.581482e+00 -3.602143e+00 1.748541e-02 -4.274473e+00 -5.139435e+00 -3.756983e+00 -5.674071e+00 -2.861689e+00 -1.863639e+00 -1.328783e+00 -2.759773e+00 -3.222980e+00 6.259650e+01 2.376430e-03 -5.127961e-04 1.865725e-03 2.355871e-04 1.499187e-03 -1.970727e-04 7.880598e-04 -2.874425e-04 -9.379386e-04 7.077495e-04 -1.458328e-03 -3.821569e-04 6.212953e-03 -3.974463e-04 2.528298e-05 -1.389394e-04 2.238030e-04 -8.819671e-05 -2.303885e-05 7.395142e-05 7.111674e-05 -2.229417e-04 5.211498e-05 4.644710e-05 1.563326e-04 -6.270007e-04
<VARIANCE> 39
 7.898791e+01 8.549170e+01 1.039326e+02 1.035625e+02 1.013827e+02 9.334486e+01 7.809044e+01 7.020847e+01 7.264623e+01 5.927662e+01 6.909829e+01 4.671127e+01 1.688386e+02 2.619247e+00 2.844096e+00 3.141263e+00 3.342374e+00 3.775106e+00 3.710435e+00 3.631593e+00 3.796941e+00 3.445527e+00 3.035479e+00 3.042204e+00 2.537637e+00 3.067575e+00 4.069282e-01 4.516459e-01 4.950505e-01 5.772119e-01 6.622217e-01 6.632758e-01 6.633168e-01 6.897152e-01 6.252945e-01 5.695893e-01 5.601525e-01 4.705158e-01 4.442440e-01
<GCONST> 1.365261e+02
<STATE> 4
<MEAN> 39
 -3.581482e+00 -3.602143e+00 1.748541e-02 -4.274473e+00 -5.139435e+00 -3.756983e+00 -5.674071e+00 -2.861689e+00 -1.863639e+00 -1.328783e+00 -2.759773e+00 -3.222980e+00 6.259650e+01 2.376430e-03 -5.127961e-04 1.865725e-03 2.355871e-04 1.499187e-03 -1.970727e-04 7.880598e-04 -2.874425e-04 -9.379386e-04 7.077495e-04 -1.458328e-03 -3.821569e-04 6.212953e-03 -3.974463e-04 2.528298e-05 -1.389394e-04 2.238030e-04 -8.819671e-05 -2.303885e-05 7.395142e-05 7.111674e-05 -2.229417e-04 5.211498e-05 4.644710e-05 1.563326e-04 -6.270007e-04
<VARIANCE> 39
 7.898791e+01 8.549170e+01 1.039326e+02 1.035625e+02 1.013827e+02 9.334486e+01 7.809044e+01 7.020847e+01 7.264623e+01 5.927662e+01 6.909829e+01 4.671127e+01 1.688386e+02 2.619247e+00 2.844096e+00 3.141263e+00 3.342374e+00 3.775106e+00 3.710435e+00 3.631593e+00 3.796941e+00 3.445527e+00 3.035479e+00 3.042204e+00 2.537637e+00 3.067575e+00 4.069282e-01 4.516459e-01 4.950505e-01 5.772119e-01 6.622217e-01 6.632758e-01 6.633168e-01 6.897152e-01 6.252945e-01 5.695893e-01 5.601525e-01 4.705158e-01 4.442440e-01
<GCONST> 1.365261e+02
<TRANSP> 5
 0.000000e+00 1.000000e+00 0.000000e+00 0.000000e+00 0.000000e+00
 0.000000e+00 6.000000e-01 4.000000e-01 0.000000e+00 0.000000e+00
 0.000000e+00 0.000000e+00 6.000000e-01 4.000000e-01 0.000000e+00
 0.000000e+00 0.000000e+00 0.000000e+00 7.000000e-01 3.000000e-01
 0.000000e+00 0.000000e+00 0.000000e+00 0.000000e+00 0.000000e+00
<ENDHMM>
~h "k"
<BEGINHMM>
<NUMSTATES> 5
<STATE> 2
<MEAN> 39
 -3.581482e+00 -3.602143e+00 1.748541e-02 -4.274473e+00 -5.139435e+00 -3.756983e+00 -5.674071e+00 -2.861689e+00 -1.863639e+00 -1.328783e+00 -2.759773e+00 -3.222980e+00 6.259650e+01 2.376430e-03 -5.127961e-04 1.865725e-03 2.355871e-04 1.499187e-03 -1.970727e-04 7.880598e-04 -2.874425e-04 -9.379386e-04 7.077495e-04 -1.458328e-03 -3.821569e-04 6.212953e-03 -3.974463e-04 2.528298e-05 -1.389394e-04 2.238030e-04 -8.819671e-05 -2.303885e-05 7.395142e-05 7.111674e-05 -2.229417e-04 5.211498e-05 4.644710e-05 1.563326e-04 -6.270007e-04
<VARIANCE> 39
 7.898791e+01 8.549170e+01 1.039326e+02 1.035625e+02 1.013827e+02 9.334486e+01 7.809044e+01 7.020847e+01 7.264623e+01 5.927662e+01 6.909829e+01 4.671127e+01 1.688386e+02 2.619247e+00 2.844096e+00 3.141263e+00 3.342374e+00 3.775106e+00 3.710435e+00 3.631593e+00 3.796941e+00 3.445527e+00 3.035479e+00 3.042204e+00 2.537637e+00 3.067575e+00 4.069282e-01 4.516459e-01 4.950505e-01 5.772119e-01 6.622217e-01 6.632758e-01 6.633168e-01 6.897152e-01 6.252945e-01 5.695893e-01 5.601525e-01 4.705158e-01 4.442440e-01
<GCONST> 1.365261e+02
<STATE> 3
<MEAN> 39
 -3.581482e+00 -3.602143e+00 1.748541e-02 -4.274473e+00 -5.139435e+00 -3.756983e+00 -5.674071e+00 -2.861689e+00 -1.863639e+00 -1.328783e+00 -2.759773e+00 -3.222980e+00 6.259650e+01 2.376430e-03 -5.127961e-04 1.865725e-03 2.355871e-04 1.499187e-03 -1.970727e-04 7.880598e-04 -2.874425e-04 -9.379386e-04 7.077495e-04 -1.458328e-03 -3.821569e-04 6.212953e-03 -3.974463e-04 2.528298e-05 -1.389394e-04 2.238030e-04 -8.819671e-05 -2.303885e-05 7.395142e-05 7.111674e-05 -2.229417e-04 5.211498e-05 4.644710e-05 1.563326e-04 -6.270007e-04
<VARIANCE> 39
 7.898791e+01 8.549170e+01 1.039326e+02 1.035625e+02 1.013827e+02 9.334486e+01 7.809044e+01 7.020847e+01 7.264623e+01 5.927662e+01 6.909829e+01 4.671127e+01 1.688386e+02 2.619247e+00 2.844096e+00 3.141263e+00 3.342374e+00 3.775106e+00 3.710435e+00 3.631593e+00 3.796941e+00 3.445527e+00 3.035479e+00 3.042204e+00 2.537637e+00 3.067575e+00 4.069282e-01 4.516459e-01 4.950505e-01 5.772119e-01 6.622217e-01 6.632758e-01 6.633168e-01 6.897152e-01 6.252945e-01 5.695893e-01 5.601525e-01 4.705158e-01 4.442440e-01
<GCONST> 1.365261e+02
<STATE> 4
<MEAN> 39
 -3.581482e+00 -3.602143e+00 1.748541e-02 -4.274473e+00 -5.139435e+00 -3.756983e+00 -5.674071e+00 -2.861689e+00 -1.863639e+00 -1.328783e+00 -2.759773e+00 -3.222980e+00 6.259650e+01 2.376430e-03 -5.127961e-04 1.865725e-03 2.355871e-04 1.499187e-03 -1.970727e-04 7.880598e-04 -2.874425e-04 -9.379386e-04 7.077495e-04 -1.458328e-03 -3.821569e-04 6.212953e-03 -3.974463e-04 2.528298e-05 -1.389394e-04 2.238030e-04 -8.819671e-05 -2.303885e-05 7.395142e-05 7.111674e-05 -2.229417e-04 5.211498e-05 4.644710e-05 1.563326e-04 -6.270007e-04
<VARIANCE> 39
 7.898791e+01 8.549170e+01 1.039326e+02 1.035625e+02 1.013827e+02 9.334486e+01 7.809044e+01 7.020847e+01 7.264623e+01 5.927662e+01 6.909829e+01 4.671127e+01 1.688386e+02 2.619247e+00 2.844096e+00 3.141263e+00 3.342374e+00 3.775106e+00 3.710435e+00 3.631593e+00 3.796941e+00 3.445527e+00 3.035479e+00 3.042204e+00 2.537637e+00 3.067575e+00 4.069282e-01 4.516459e-01 4.950505e-01 5.772119e-01 6.622217e-01 6.632758e-01 6.633168e-01 6.897152e-01 6.252945e-01 5.695893e-01 5.601525e-01 4.705158e-01 4.442440e-01
<GCONST> 1.365261e+02
<TRANSP> 5
 0.000000e+00 1.000000e+00 0.000000e+00 0.000000e+00 0.000000e+00
 0.000000e+00 6.000000e-01 4.000000e-01 0.000000e+00 0.000000e+00
 0.000000e+00 0.000000e+00 6.000000e-01 4.000000e-01 0.000000e+00
 0.000000e+00 0.000000e+00 0.000000e+00 7.000000e-01 3.000000e-01
 0.000000e+00 0.000000e+00 0.000000e+00 0.000000e+00 0.000000e+00
<ENDHMM>
~h "h"
<BEGINHMM>
<NUMSTATES> 5
<STATE> 2
<MEAN> 39
 -3.581482e+00 -3.602143e+00 1.748541e-02 -4.274473e+00 -5.139435e+00 -3.756983e+00 -5.674071e+00 -2.861689e+00 -1.863639e+00 -1.328783e+00 -2.759773e+00 -3.222980e+00 6.259650e+01 2.376430e-03 -5.127961e-04 1.865725e-03 2.355871e-04 1.499187e-03 -1.970727e-04 7.880598e-04 -2.874425e-04 -9.379386e-04 7.077495e-04 -1.458328e-03 -3.821569e-04 6.212953e-03 -3.974463e-04 2.528298e-05 -1.389394e-04 2.238030e-04 -8.819671e-05 -2.303885e-05 7.395142e-05 7.111674e-05 -2.229417e-04 5.211498e-05 4.644710e-05 1.563326e-04 -6.270007e-04
<VARIANCE> 39
 7.898791e+01 8.549170e+01 1.039326e+02 1.035625e+02 1.013827e+02 9.334486e+01 7.809044e+01 7.020847e+01 7.264623e+01 5.927662e+01 6.909829e+01 4.671127e+01 1.688386e+02 2.619247e+00 2.844096e+00 3.141263e+00 3.342374e+00 3.775106e+00 3.710435e+00 3.631593e+00 3.796941e+00 3.445527e+00 3.035479e+00 3.042204e+00 2.537637e+00 3.067575e+00 4.069282e-01 4.516459e-01 4.950505e-01 5.772119e-01 6.622217e-01 6.632758e-01 6.633168e-01 6.897152e-01 6.252945e-01 5.695893e-01 5.601525e-01 4.705158e-01 4.442440e-01
<GCONST> 1.365261e+02
<STATE> 3
<MEAN> 39
 -3.581482e+00 -3.602143e+00 1.748541e-02 -4.274473e+00 -5.139435e+00 -3.756983e+00 -5.674071e+00 -2.861689e+00 -1.863639e+00 -1.328783e+00 -2.759773e+00 -3.222980e+00 6.259650e+01 2.376430e-03 -5.127961e-04 1.865725e-03 2.355871e-04 1.499187e-03 -1.970727e-04 7.880598e-04 -2.874425e-04 -9.379386e-04 7.077495e-04 -1.458328e-03 -3.821569e-04 6.212953e-03 -3.974463e-04 2.528298e-05 -1.389394e-04 2.238030e-04 -8.819671e-05 -2.303885e-05 7.395142e-05 7.111674e-05 -2.229417e-04 5.211498e-05 4.644710e-05 1.563326e-04 -6.270007e-04
<VARIANCE> 39
 7.898791e+01 8.549170e+01 1.039326e+02 1.035625e+02 1.013827e+02 9.334486e+01 7.809044e+01 7.020847e+01 7.264623e+01 5.927662e+01 6.909829e+01 4.671127e+01 1.688386e+02 2.619247e+00 2.844096e+00 3.141263e+00 3.342374e+00 3.775106e+00 3.710435e+00 3.631593e+00 3.796941e+00 3.445527e+00 3.035479e+00 3.042204e+00 2.537637e+00 3.067575e+00 4.069282e-01 4.516459e-01 4.950505e-01 5.772119e-01 6.622217e-01 6.632758e-01 6.633168e-01 6.897152e-01 6.252945e-01 5.695893e-01 5.601525e-01 4.705158e-01 4.442440e-01
<GCONST> 1.365261e+02
<STATE> 4
<MEAN> 39
 -3.581482e+00 -3.602143e+00 1.748541e-02 -4.274473e+00 -5.139435e+00 -3.756983e+00 -5.674071e+00 -2.861689e+00 -1.863639e+00 -1.328783e+00 -2.759773e+00 -3.222980e+00 6.259650e+01 2.376430e-03 -5.127961e-04 1.865725e-03 2.355871e-04 1.499187e-03 -1.970727e-04 7.880598e-04 -2.874425e-04 -9.379386e-04 7.077495e-04 -1.458328e-03 -3.821569e-04 6.212953e-03 -3.974463e-04 2.528298e-05 -1.389394e-04 2.238030e-04 -8.819671e-05 -2.303885e-05 7.395142e-05 7.111674e-05 -2.229417e-04 5.211498e-05 4.644710e-05 1.563326e-04 -6.270007e-04
<VARIANCE> 39
 7.898791e+01 8.549170e+01 1.039326e+02 1.035625e+02 1.013827e+02 9.334486e+01 7.809044e+01 7.020847e+01 7.264623e+01 5.927662e+01 6.909829e+01 4.671127e+01 1.688386e+02 2.619247e+00 2.844096e+00 3.141263e+00 3.342374e+00 3.775106e+00 3.710435e+00 3.631593e+00 3.796941e+00 3.445527e+00 3.035479e+00 3.042204e+00 2.537637e+00 3.067575e+00 4.069282e-01 4.516459e-01 4.950505e-01 5.772119e-01 6.622217e-01 6.632758e-01 6.633168e-01 6.897152e-01 6.252945e-01 5.695893e-01 5.601525e-01 4.705158e-01 4.442440e-01
<GCONST> 1.365261e+02
<TRANSP> 5
 0.000000e+00 1.000000e+00 0.000000e+00 0.000000e+00 0.000000e+00
 0.000000e+00 6.000000e-01 4.000000e-01 0.000000e+00 0.000000e+00
 0.000000e+00 0.000000e+00 6.000000e-01 4.000000e-01 0.000000e+00
 0.000000e+00 0.000000e+00 0.000000e+00 7.000000e-01 3.000000e-01
 0.000000e+00 0.000000e+00 0.000000e+00 0.000000e+00 0.000000e+00
<ENDHMM>
~h "l"
<BEGINHMM>
<NUMSTATES> 5
<STATE> 2
<MEAN> 39
 -3.581482e+00 -3.602143e+00 1.748541e-02 -4.274473e+00 -5.139435e+00 -3.756983e+00 -5.674071e+00 -2.861689e+00 -1.863639e+00 -1.328783e+00 -2.759773e+00 -3.222980e+00 6.259650e+01 2.376430e-03 -5.127961e-04 1.865725e-03 2.355871e-04 1.499187e-03 -1.970727e-04 7.880598e-04 -2.874425e-04 -9.379386e-04 7.077495e-04 -1.458328e-03 -3.821569e-04 6.212953e-03 -3.974463e-04 2.528298e-05 -1.389394e-04 2.238030e-04 -8.819671e-05 -2.303885e-05 7.395142e-05 7.111674e-05 -2.229417e-04 5.211498e-05 4.644710e-05 1.563326e-04 -6.270007e-04
<VARIANCE> 39
 7.898791e+01 8.549170e+01 1.039326e+02 1.035625e+02 1.013827e+02 9.334486e+01 7.809044e+01 7.020847e+01 7.264623e+01 5.927662e+01 6.909829e+01 4.671127e+01 1.688386e+02 2.619247e+00 2.844096e+00 3.141263e+00 3.342374e+00 3.775106e+00 3.710435e+00 3.631593e+00 3.796941e+00 3.445527e+00 3.035479e+00 3.042204e+00 2.537637e+00 3.067575e+00 4.069282e-01 4.516459e-01 4.950505e-01 5.772119e-01 6.622217e-01 6.632758e-01 6.633168e-01 6.897152e-01 6.252945e-01 5.695893e-01 5.601525e-01 4.705158e-01 4.442440e-01
<GCONST> 1.365261e+02
<STATE> 3
<MEAN> 39
 -3.581482e+00 -3.602143e+00 1.748541e-02 -4.274473e+00 -5.139435e+00 -3.756983e+00 -5.674071e+00 -2.861689e+00 -1.863639e+00 -1.328783e+00 -2.759773e+00 -3.222980e+00 6.259650e+01 2.376430e-03 -5.127961e-04 1.865725e-03 2.355871e-04 1.499187e-03 -1.970727e-04 7.880598e-04 -2.874425e-04 -9.379386e-04 7.077495e-04 -1.458328e-03 -3.821569e-04 6.212953e-03 -3.974463e-04 2.528298e-05 -1.389394e-04 2.238030e-04 -8.819671e-05 -2.303885e-05 7.395142e-05 7.111674e-05 -2.229417e-04 5.211498e-05 4.644710e-05 1.563326e-04 -6.270007e-04
<VARIANCE> 39
 7.898791e+01 8.549170e+01 1.039326e+02 1.035625e+02 1.013827e+02 9.334486e+01 7.809044e+01 7.020847e+01 7.264623e+01 5.927662e+01 6.909829e+01 4.671127e+01 1.688386e+02 2.619247e+00 2.844096e+00 3.141263e+00 3.342374e+00 3.775106e+00 3.710435e+00 3.631593e+00 3.796941e+00 3.445527e+00 3.035479e+00 3.042204e+00 2.537637e+00 3.067575e+00 4.069282e-01 4.516459e-01 4.950505e-01 5.772119e-01 6.622217e-01 6.632758e-01 6.633168e-01 6.897152e-01 6.252945e-01 5.695893e-01 5.601525e-01 4.705158e-01 4.442440e-01
<GCONST> 1.365261e+02
<STATE> 4
<MEAN> 39
 -3.581482e+00 -3.602143e+00 1.748541e-02 -4.274473e+00 -5.139435e+00 -3.756983e+00 -5.674071e+00 -2.861689e+00 -1.863639e+00 -1.328783e+00 -2.759773e+00 -3.222980e+00 6.259650e+01 2.376430e-03 -5.127961e-04 1.865725e-03 2.355871e-04 1.499187e-03 -1.970727e-04 7.880598e-04 -2.874425e-04 -9.379386e-04 7.077495e-04 -1.458328e-03 -3.821569e-04 6.212953e-03 -3.974463e-04 2.528298e-05 -1.389394e-04 2.238030e-04 -8.819671e-05 -2.303885e-05 7.395142e-05 7.111674e-05 -2.229417e-04 5.211498e-05 4.644710e-05 1.563326e-04 -6.270007e-04
<VARIANCE> 39
 7.898791e+01 8.549170e+01 1.039326e+02 1.035625e+02 1.013827e+02 9.334486e+01 7.809044e+01 7.020847e+01 7.264623e+01 5.927662e+01 6.909829e+01 4.671127e+01 1.688386e+02 2.619247e+00 2.844096e+00 3.141263e+00 3.342374e+00 3.775106e+00 3.710435e+00 3.631593e+00 3.796941e+00 3.445527e+00 3.035479e+00 3.042204e+00 2.537637e+00 3.067575e+00 4.069282e-01 4.516459e-01 4.950505e-01 5.772119e-01 6.622217e-01 6.632758e-01 6.633168e-01 6.897152e-01 6.252945e-01 5.695893e-01 5.601525e-01 4.705158e-01 4.442440e-01
<GCONST> 1.365261e+02
<TRANSP> 5
 0.000000e+00 1.000000e+00 0.000000e+00 0.000000e+00 0.000000e+00
 0.000000e+00 6.000000e-01 4.000000e-01 0.000000e+00 0.000000e+00
 0.000000e+00 0.000000e+00 6.000000e-01 4.000000e-01 0.000000e+00
 0.000000e+00 0.000000e+00 0.000000e+00 7.000000e-01 3.000000e-01
 0.000000e+00 0.000000e+00 0.000000e+00 0.000000e+00 0.000000e+00
<ENDHMM>
~h "p"
<BEGINHMM>
<NUMSTATES> 5
<STATE> 2
<MEAN> 39
 -3.581482e+00 -3.602143e+00 1.748541e-02 -4.274473e+00 -5.139435e+00 -3.756983e+00 -5.674071e+00 -2.861689e+00 -1.863639e+00 -1.328783e+00 -2.759773e+00 -3.222980e+00 6.259650e+01 2.376430e-03 -5.127961e-04 1.865725e-03 2.355871e-04 1.499187e-03 -1.970727e-04 7.880598e-04 -2.874425e-04 -9.379386e-04 7.077495e-04 -1.458328e-03 -3.821569e-04 6.212953e-03 -3.974463e-04 2.528298e-05 -1.389394e-04 2.238030e-04 -8.819671e-05 -2.303885e-05 7.395142e-05 7.111674e-05 -2.229417e-04 5.211498e-05 4.644710e-05 1.563326e-04 -6.270007e-04
<VARIANCE> 39
 7.898791e+01 8.549170e+01 1.039326e+02 1.035625e+02 1.013827e+02 9.334486e+01 7.809044e+01 7.020847e+01 7.264623e+01 5.927662e+01 6.909829e+01 4.671127e+01 1.688386e+02 2.619247e+00 2.844096e+00 3.141263e+00 3.342374e+00 3.775106e+00 3.710435e+00 3.631593e+00 3.796941e+00 3.445527e+00 3.035479e+00 3.042204e+00 2.537637e+00 3.067575e+00 4.069282e-01 4.516459e-01 4.950505e-01 5.772119e-01 6.622217e-01 6.632758e-01 6.633168e-01 6.897152e-01 6.252945e-01 5.695893e-01 5.601525e-01 4.705158e-01 4.442440e-01
<GCONST> 1.365261e+02
<STATE> 3
<MEAN> 39
 -3.581482e+00 -3.602143e+00 1.748541e-02 -4.274473e+00 -5.139435e+00 -3.756983e+00 -5.674071e+00 -2.861689e+00 -1.863639e+00 -1.328783e+00 -2.759773e+00 -3.222980e+00 6.259650e+01 2.376430e-03 -5.127961e-04 1.865725e-03 2.355871e-04 1.499187e-03 -1.970727e-04 7.880598e-04 -2.874425e-04 -9.379386e-04 7.077495e-04 -1.458328e-03 -3.821569e-04 6.212953e-03 -3.974463e-04 2.528298e-05 -1.389394e-04 2.238030e-04 -8.819671e-05 -2.303885e-05 7.395142e-05 7.111674e-05 -2.229417e-04 5.211498e-05 4.644710e-05 1.563326e-04 -6.270007e-04
<VARIANCE> 39
 7.898791e+01 8.549170e+01 1.039326e+02 1.035625e+02 1.013827e+02 9.334486e+01 7.809044e+01 7.020847e+01 7.264623e+01 5.927662e+01 6.909829e+01 4.671127e+01 1.688386e+02 2.619247e+00 2.844096e+00 3.141263e+00 3.342374e+00 3.775106e+00 3.710435e+00 3.631593e+00 3.796941e+00 3.445527e+00 3.035479e+00 3.042204e+00 2.537637e+00 3.067575e+00 4.069282e-01 4.516459e-01 4.950505e-01 5.772119e-01 6.622217e-01 6.632758e-01 6.633168e-01 6.897152e-01 6.252945e-01 5.695893e-01 5.601525e-01 4.705158e-01 4.442440e-01
<GCONST> 1.365261e+02
<STATE> 4
<MEAN> 39
 -3.581482e+00 -3.602143e+00 1.748541e-02 -4.274473e+00 -5.139435e+00 -3.756983e+00 -5.674071e+00 -2.861689e+00 -1.863639e+00 -1.328783e+00 -2.759773e+00 -3.222980e+00 6.259650e+01 2.376430e-03 -5.127961e-04 1.865725e-03 2.355871e-04 1.499187e-03 -1.970727e-04 7.880598e-04 -2.874425e-04 -9.379386e-04 7.077495e-04 -1.458328e-03 -3.821569e-04 6.212953e-03 -3.974463e-04 2.528298e-05 -1.389394e-04 2.238030e-04 -8.819671e-05 -2.303885e-05 7.395142e-05 7.111674e-05 -2.229417e-04 5.211498e-05 4.644710e-05 1.563326e-04 -6.270007e-04
<VARIANCE> 39
 7.898791e+01 8.549170e+01 1.039326e+02 1.035625e+02 1.013827e+02 9.334486e+01 7.809044e+01 7.020847e+01 7.264623e+01 5.927662e+01 6.909829e+01 4.671127e+01 1.688386e+02 2.619247e+00 2.844096e+00 3.141263e+00 3.342374e+00 3.775106e+00 3.710435e+00 3.631593e+00 3.796941e+00 3.445527e+00 3.035479e+00 3.042204e+00 2.537637e+00 3.067575e+00 4.069282e-01 4.516459e-01 4.950505e-01 5.772119e-01 6.622217e-01 6.632758e-01 6.633168e-01 6.897152e-01 6.252945e-01 5.695893e-01 5.601525e-01 4.705158e-01 4.442440e-01
<GCONST> 1.365261e+02
<TRANSP> 5
 0.000000e+00 1.000000e+00 0.000000e+00 0.000000e+00 0.000000e+00
 0.000000e+00 6.000000e-01 4.000000e-01 0.000000e+00 0.000000e+00
 0.000000e+00 0.000000e+00 6.000000e-01 4.000000e-01 0.000000e+00
 0.000000e+00 0.000000e+00 0.000000e+00 7.000000e-01 3.000000e-01
 0.000000e+00 0.000000e+00 0.000000e+00 0.000000e+00 0.000000e+00
<ENDHMM>
~h "t"
<BEGINHMM>
<NUMSTATES> 5
<STATE> 2
<MEAN> 39
 -3.581482e+00 -3.602143e+00 1.748541e-02 -4.274473e+00 -5.139435e+00 -3.756983e+00 -5.674071e+00 -2.861689e+00 -1.863639e+00 -1.328783e+00 -2.759773e+00 -3.222980e+00 6.259650e+01 2.376430e-03 -5.127961e-04 1.865725e-03 2.355871e-04 1.499187e-03 -1.970727e-04 7.880598e-04 -2.874425e-04 -9.379386e-04 7.077495e-04 -1.458328e-03 -3.821569e-04 6.212953e-03 -3.974463e-04 2.528298e-05 -1.389394e-04 2.238030e-04 -8.819671e-05 -2.303885e-05 7.395142e-05 7.111674e-05 -2.229417e-04 5.211498e-05 4.644710e-05 1.563326e-04 -6.270007e-04
<VARIANCE> 39
 7.898791e+01 8.549170e+01 1.039326e+02 1.035625e+02 1.013827e+02 9.334486e+01 7.809044e+01 7.020847e+01 7.264623e+01 5.927662e+01 6.909829e+01 4.671127e+01 1.688386e+02 2.619247e+00 2.844096e+00 3.141263e+00 3.342374e+00 3.775106e+00 3.710435e+00 3.631593e+00 3.796941e+00 3.445527e+00 3.035479e+00 3.042204e+00 2.537637e+00 3.067575e+00 4.069282e-01 4.516459e-01 4.950505e-01 5.772119e-01 6.622217e-01 6.632758e-01 6.633168e-01 6.897152e-01 6.252945e-01 5.695893e-01 5.601525e-01 4.705158e-01 4.442440e-01
<GCONST> 1.365261e+02
<STATE> 3
<MEAN> 39
 -3.581482e+00 -3.602143e+00 1.748541e-02 -4.274473e+00 -5.139435e+00 -3.756983e+00 -5.674071e+00 -2.861689e+00 -1.863639e+00 -1.328783e+00 -2.759773e+00 -3.222980e+00 6.259650e+01 2.376430e-03 -5.127961e-04 1.865725e-03 2.355871e-04 1.499187e-03 -1.970727e-04 7.880598e-04 -2.874425e-04 -9.379386e-04 7.077495e-04 -1.458328e-03 -3.821569e-04 6.212953e-03 -3.974463e-04 2.528298e-05 -1.389394e-04 2.238030e-04 -8.819671e-05 -2.303885e-05 7.395142e-05 7.111674e-05 -2.229417e-04 5.211498e-05 4.644710e-05 1.563326e-04 -6.270007e-04
<VARIANCE> 39
 7.898791e+01 8.549170e+01 1.039326e+02 1.035625e+02 1.013827e+02 9.334486e+01 7.809044e+01 7.020847e+01 7.264623e+01 5.927662e+01 6.909829e+01 4.671127e+01 1.688386e+02 2.619247e+00 2.844096e+00 3.141263e+00 3.342374e+00 3.775106e+00 3.710435e+00 3.631593e+00 3.796941e+00 3.445527e+00 3.035479e+00 3.042204e+00 2.537637e+00 3.067575e+00 4.069282e-01 4.516459e-01 4.950505e-01 5.772119e-01 6.622217e-01 6.632758e-01 6.633168e-01 6.897152e-01 6.252945e-01 5.695893e-01 5.601525e-01 4.705158e-01 4.442440e-01
<GCONST> 1.365261e+02
<STATE> 4
<MEAN> 39
 -3.581482e+00 -3.602143e+00 1.748541e-02 -4.274473e+00 -5.139435e+00 -3.756983e+00 -5.674071e+00 -2.861689e+00 -1.863639e+00 -1.328783e+00 -2.759773e+00 -3.222980e+00 6.259650e+01 2.376430e-03 -5.127961e-04 1.865725e-03 2.355871e-04 1.499187e-03 -1.970727e-04 7.880598e-04 -2.874425e-04 -9.379386e-04 7.077495e-04 -1.458328e-03 -3.821569e-04 6.212953e-03 -3.974463e-04 2.528298e-05 -1.389394e-04 2.238030e-04 -8.819671e-05 -2.303885e-05 7.395142e-05 7.111674e-05 -2.229417e-04 5.211498e-05 4.644710e-05 1.563326e-04 -6.270007e-04
<VARIANCE> 39
 7.898791e+01 8.549170e+01 1.039326e+02 1.035625e+02 1.013827e+02 9.334486e+01 7.809044e+01 7.020847e+01 7.264623e+01 5.927662e+01 6.909829e+01 4.671127e+01 1.688386e+02 2.619247e+00 2.844096e+00 3.141263e+00 3.342374e+00 3.775106e+00 3.710435e+00 3.631593e+00 3.796941e+00 3.445527e+00 3.035479e+00 3.042204e+00 2.537637e+00 3.067575e+00 4.069282e-01 4.516459e-01 4.950505e-01 5.772119e-01 6.622217e-01 6.632758e-01 6.633168e-01 6.897152e-01 6.252945e-01 5.695893e-01 5.601525e-01 4.705158e-01 4.442440e-01
<GCONST> 1.365261e+02
<TRANSP> 5
 0.000000e+00 1.000000e+00 0.000000e+00 0.000000e+00 0.000000e+00
 0.000000e+00 6.000000e-01 4.000000e-01 0.000000e+00 0.000000e+00
 0.000000e+00 0.000000e+00 6.000000e-01 4.000000e-01 0.000000e+00
 0.000000e+00 0.000000e+00 0.000000e+00 7.000000e-01 3.000000e-01
 0.000000e+00 0.000000e+00 0.000000e+00 0.000000e+00 0.000000e+00
<ENDHMM>
~h "s"
<BEGINHMM>
<NUMSTATES> 5
<STATE> 2
<MEAN> 39
 -3.581482e+00 -3.602143e+00 1.748541e-02 -4.274473e+00 -5.139435e+00 -3.756983e+00 -5.674071e+00 -2.861689e+00 -1.863639e+00 -1.328783e+00 -2.759773e+00 -3.222980e+00 6.259650e+01 2.376430e-03 -5.127961e-04 1.865725e-03 2.355871e-04 1.499187e-03 -1.970727e-04 7.880598e-04 -2.874425e-04 -9.379386e-04 7.077495e-04 -1.458328e-03 -3.821569e-04 6.212953e-03 -3.974463e-04 2.528298e-05 -1.389394e-04 2.238030e-04 -8.819671e-05 -2.303885e-05 7.395142e-05 7.111674e-05 -2.229417e-04 5.211498e-05 4.644710e-05 1.563326e-04 -6.270007e-04
<VARIANCE> 39
 7.898791e+01 8.549170e+01 1.039326e+02 1.035625e+02 1.013827e+02 9.334486e+01 7.809044e+01 7.020847e+01 7.264623e+01 5.927662e+01 6.909829e+01 4.671127e+01 1.688386e+02 2.619247e+00 2.844096e+00 3.141263e+00 3.342374e+00 3.775106e+00 3.710435e+00 3.631593e+00 3.796941e+00 3.445527e+00 3.035479e+00 3.042204e+00 2.537637e+00 3.067575e+00 4.069282e-01 4.516459e-01 4.950505e-01 5.772119e-01 6.622217e-01 6.632758e-01 6.633168e-01 6.897152e-01 6.252945e-01 5.695893e-01 5.601525e-01 4.705158e-01 4.442440e-01
<GCONST> 1.365261e+02
<STATE> 3
<MEAN> 39
 -3.581482e+00 -3.602143e+00 1.748541e-02 -4.274473e+00 -5.139435e+00 -3.756983e+00 -5.674071e+00 -2.861689e+00 -1.863639e+00 -1.328783e+00 -2.759773e+00 -3.222980e+00 6.259650e+01 2.376430e-03 -5.127961e-04 1.865725e-03 2.355871e-04 1.499187e-03 -1.970727e-04 7.880598e-04 -2.874425e-04 -9.379386e-04 7.077495e-04 -1.458328e-03 -3.821569e-04 6.212953e-03 -3.974463e-04 2.528298e-05 -1.389394e-04 2.238030e-04 -8.819671e-05 -2.303885e-05 7.395142e-05 7.111674e-05 -2.229417e-04 5.211498e-05 4.644710e-05 1.563326e-04 -6.270007e-04
<VARIANCE> 39
 7.898791e+01 8.549170e+01 1.039326e+02 1.035625e+02 1.013827e+02 9.334486e+01 7.809044e+01 7.020847e+01 7.264623e+01 5.927662e+01 6.909829e+01 4.671127e+01 1.688386e+02 2.619247e+00 2.844096e+00 3.141263e+00 3.342374e+00 3.775106e+00 3.710435e+00 3.631593e+00 3.796941e+00 3.445527e+00 3.035479e+00 3.042204e+00 2.537637e+00 3.067575e+00 4.069282e-01 4.516459e-01 4.950505e-01 5.772119e-01 6.622217e-01 6.632758e-01 6.633168e-01 6.897152e-01 6.252945e-01 5.695893e-01 5.601525e-01 4.705158e-01 4.442440e-01
<GCONST> 1.365261e+02
<STATE> 4
<MEAN> 39
 -3.581482e+00 -3.602143e+00 1.748541e-02 -4.274473e+00 -5.139435e+00 -3.756983e+00 -5.674071e+00 -2.861689e+00 -1.863639e+00 -1.328783e+00 -2.759773e+00 -3.222980e+00 6.259650e+01 2.376430e-03 -5.127961e-04 1.865725e-03 2.355871e-04 1.499187e-03 -1.970727e-04 7.880598e-04 -2.874425e-04 -9.379386e-04 7.077495e-04 -1.458328e-03 -3.821569e-04 6.212953e-03 -3.974463e-04 2.528298e-05 -1.389394e-04 2.238030e-04 -8.819671e-05 -2.303885e-05 7.395142e-05 7.111674e-05 -2.229417e-04 5.211498e-05 4.644710e-05 1.563326e-04 -6.270007e-04
<VARIANCE> 39
 7.898791e+01 8.549170e+01 1.039326e+02 1.035625e+02 1.013827e+02 9.334486e+01 7.809044e+01 7.020847e+01 7.264623e+01 5.927662e+01 6.909829e+01 4.671127e+01 1.688386e+02 2.619247e+00 2.844096e+00 3.141263e+00 3.342374e+00 3.775106e+00 3.710435e+00 3.631593e+00 3.796941e+00 3.445527e+00 3.035479e+00 3.042204e+00 2.537637e+00 3.067575e+00 4.069282e-01 4.516459e-01 4.950505e-01 5.772119e-01 6.622217e-01 6.632758e-01 6.633168e-01 6.897152e-01 6.252945e-01 5.695893e-01 5.601525e-01 4.705158e-01 4.442440e-01
<GCONST> 1.365261e+02
<TRANSP> 5
 0.000000e+00 1.000000e+00 0.000000e+00 0.000000e+00 0.000000e+00
 0.000000e+00 6.000000e-01 4.000000e-01 0.000000e+00 0.000000e+00
 0.000000e+00 0.000000e+00 6.000000e-01 4.000000e-01 0.000000e+00
 0.000000e+00 0.000000e+00 0.000000e+00 7.000000e-01 3.000000e-01
 0.000000e+00 0.000000e+00 0.000000e+00 0.000000e+00 0.000000e+00
<ENDHMM>
~h "i"
<BEGINHMM>
<NUMSTATES> 5
<STATE> 2
<MEAN> 39
 -3.581482e+00 -3.602143e+00 1.748541e-02 -4.274473e+00 -5.139435e+00 -3.756983e+00 -5.674071e+00 -2.861689e+00 -1.863639e+00 -1.328783e+00 -2.759773e+00 -3.222980e+00 6.259650e+01 2.376430e-03 -5.127961e-04 1.865725e-03 2.355871e-04 1.499187e-03 -1.970727e-04 7.880598e-04 -2.874425e-04 -9.379386e-04 7.077495e-04 -1.458328e-03 -3.821569e-04 6.212953e-03 -3.974463e-04 2.528298e-05 -1.389394e-04 2.238030e-04 -8.819671e-05 -2.303885e-05 7.395142e-05 7.111674e-05 -2.229417e-04 5.211498e-05 4.644710e-05 1.563326e-04 -6.270007e-04
<VARIANCE> 39
 7.898791e+01 8.549170e+01 1.039326e+02 1.035625e+02 1.013827e+02 9.334486e+01 7.809044e+01 7.020847e+01 7.264623e+01 5.927662e+01 6.909829e+01 4.671127e+01 1.688386e+02 2.619247e+00 2.844096e+00 3.141263e+00 3.342374e+00 3.775106e+00 3.710435e+00 3.631593e+00 3.796941e+00 3.445527e+00 3.035479e+00 3.042204e+00 2.537637e+00 3.067575e+00 4.069282e-01 4.516459e-01 4.950505e-01 5.772119e-01 6.622217e-01 6.632758e-01 6.633168e-01 6.897152e-01 6.252945e-01 5.695893e-01 5.601525e-01 4.705158e-01 4.442440e-01
<GCONST> 1.365261e+02
<STATE> 3
<MEAN> 39
 -3.581482e+00 -3.602143e+00 1.748541e-02 -4.274473e+00 -5.139435e+00 -3.756983e+00 -5.674071e+00 -2.861689e+00 -1.863639e+00 -1.328783e+00 -2.759773e+00 -3.222980e+00 6.259650e+01 2.376430e-03 -5.127961e-04 1.865725e-03 2.355871e-04 1.499187e-03 -1.970727e-04 7.880598e-04 -2.874425e-04 -9.379386e-04 7.077495e-04 -1.458328e-03 -3.821569e-04 6.212953e-03 -3.974463e-04 2.528298e-05 -1.389394e-04 2.238030e-04 -8.819671e-05 -2.303885e-05 7.395142e-05 7.111674e-05 -2.229417e-04 5.211498e-05 4.644710e-05 1.563326e-04 -6.270007e-04
<VARIANCE> 39
 7.898791e+01 8.549170e+01 1.039326e+02 1.035625e+02 1.013827e+02 9.334486e+01 7.809044e+01 7.020847e+01 7.264623e+01 5.927662e+01 6.909829e+01 4.671127e+01 1.688386e+02 2.619247e+00 2.844096e+00 3.141263e+00 3.342374e+00 3.775106e+00 3.710435e+00 3.631593e+00 3.796941e+00 3.445527e+00 3.035479e+00 3.042204e+00 2.537637e+00 3.067575e+00 4.069282e-01 4.516459e-01 4.950505e-01 5.772119e-01 6.622217e-01 6.632758e-01 6.633168e-01 6.897152e-01 6.252945e-01 5.695893e-01 5.601525e-01 4.705158e-01 4.442440e-01
<GCONST> 1.365261e+02
<STATE> 4
<MEAN> 39
 -3.581482e+00 -3.602143e+00 1.748541e-02 -4.274473e+00 -5.139435e+00 -3.756983e+00 -5.674071e+00 -2.861689e+00 -1.863639e+00 -1.328783e+00 -2.759773e+00 -3.222980e+00 6.259650e+01 2.376430e-03 -5.127961e-04 1.865725e-03 2.355871e-04 1.499187e-03 -1.970727e-04 7.880598e-04 -2.874425e-04 -9.379386e-04 7.077495e-04 -1.458328e-03 -3.821569e-04 6.212953e-03 -3.974463e-04 2.528298e-05 -1.389394e-04 2.238030e-04 -8.819671e-05 -2.303885e-05 7.395142e-05 7.111674e-05 -2.229417e-04 5.211498e-05 4.644710e-05 1.563326e-04 -6.270007e-04
<VARIANCE> 39
 7.898791e+01 8.549170e+01 1.039326e+02 1.035625e+02 1.013827e+02 9.334486e+01 7.809044e+01 7.020847e+01 7.264623e+01 5.927662e+01 6.909829e+01 4.671127e+01 1.688386e+02 2.619247e+00 2.844096e+00 3.141263e+00 3.342374e+00 3.775106e+00 3.710435e+00 3.631593e+00 3.796941e+00 3.445527e+00 3.035479e+00 3.042204e+00 2.537637e+00 3.067575e+00 4.069282e-01 4.516459e-01 4.950505e-01 5.772119e-01 6.622217e-01 6.632758e-01 6.633168e-01 6.897152e-01 6.252945e-01 5.695893e-01 5.601525e-01 4.705158e-01 4.442440e-01
<GCONST> 1.365261e+02
<TRANSP> 5
 0.000000e+00 1.000000e+00 0.000000e+00 0.000000e+00 0.000000e+00
 0.000000e+00 6.000000e-01 4.000000e-01 0.000000e+00 0.000000e+00
 0.000000e+00 0.000000e+00 6.000000e-01 4.000000e-01 0.000000e+00
 0.000000e+00 0.000000e+00 0.000000e+00 7.000000e-01 3.000000e-01
 0.000000e+00 0.000000e+00 0.000000e+00 0.000000e+00 0.000000e+00
<ENDHMM>
~h "-"
<BEGINHMM>
<NUMSTATES> 5
<STATE> 2
<MEAN> 39
 -3.581482e+00 -3.602143e+00 1.748541e-02 -4.274473e+00 -5.139435e+00 -3.756983e+00 -5.674071e+00 -2.861689e+00 -1.863639e+00 -1.328783e+00 -2.759773e+00 -3.222980e+00 6.259650e+01 2.376430e-03 -5.127961e-04 1.865725e-03 2.355871e-04 1.499187e-03 -1.970727e-04 7.880598e-04 -2.874425e-04 -9.379386e-04 7.077495e-04 -1.458328e-03 -3.821569e-04 6.212953e-03 -3.974463e-04 2.528298e-05 -1.389394e-04 2.238030e-04 -8.819671e-05 -2.303885e-05 7.395142e-05 7.111674e-05 -2.229417e-04 5.211498e-05 4.644710e-05 1.563326e-04 -6.270007e-04
<VARIANCE> 39
 7.898791e+01 8.549170e+01 1.039326e+02 1.035625e+02 1.013827e+02 9.334486e+01 7.809044e+01 7.020847e+01 7.264623e+01 5.927662e+01 6.909829e+01 4.671127e+01 1.688386e+02 2.619247e+00 2.844096e+00 3.141263e+00 3.342374e+00 3.775106e+00 3.710435e+00 3.631593e+00 3.796941e+00 3.445527e+00 3.035479e+00 3.042204e+00 2.537637e+00 3.067575e+00 4.069282e-01 4.516459e-01 4.950505e-01 5.772119e-01 6.622217e-01 6.632758e-01 6.633168e-01 6.897152e-01 6.252945e-01 5.695893e-01 5.601525e-01 4.705158e-01 4.442440e-01
<GCONST> 1.365261e+02
<STATE> 3
<MEAN> 39
 -3.581482e+00 -3.602143e+00 1.748541e-02 -4.274473e+00 -5.139435e+00 -3.756983e+00 -5.674071e+00 -2.861689e+00 -1.863639e+00 -1.328783e+00 -2.759773e+00 -3.222980e+00 6.259650e+01 2.376430e-03 -5.127961e-04 1.865725e-03 2.355871e-04 1.499187e-03 -1.970727e-04 7.880598e-04 -2.874425e-04 -9.379386e-04 7.077495e-04 -1.458328e-03 -3.821569e-04 6.212953e-03 -3.974463e-04 2.528298e-05 -1.389394e-04 2.238030e-04 -8.819671e-05 -2.303885e-05 7.395142e-05 7.111674e-05 -2.229417e-04 5.211498e-05 4.644710e-05 1.563326e-04 -6.270007e-04
<VARIANCE> 39
 7.898791e+01 8.549170e+01 1.039326e+02 1.035625e+02 1.013827e+02 9.334486e+01 7.809044e+01 7.020847e+01 7.264623e+01 5.927662e+01 6.909829e+01 4.671127e+01 1.688386e+02 2.619247e+00 2.844096e+00 3.141263e+00 3.342374e+00 3.775106e+00 3.710435e+00 3.631593e+00 3.796941e+00 3.445527e+00 3.035479e+00 3.042204e+00 2.537637e+00 3.067575e+00 4.069282e-01 4.516459e-01 4.950505e-01 5.772119e-01 6.622217e-01 6.632758e-01 6.633168e-01 6.897152e-01 6.252945e-01 5.695893e-01 5.601525e-01 4.705158e-01 4.442440e-01
<GCONST> 1.365261e+02
<STATE> 4
<MEAN> 39
 -3.581482e+00 -3.602143e+00 1.748541e-02 -4.274473e+00 -5.139435e+00 -3.756983e+00 -5.674071e+00 -2.861689e+00 -1.863639e+00 -1.328783e+00 -2.759773e+00 -3.222980e+00 6.259650e+01 2.376430e-03 -5.127961e-04 1.865725e-03 2.355871e-04 1.499187e-03 -1.970727e-04 7.880598e-04 -2.874425e-04 -9.379386e-04 7.077495e-04 -1.458328e-03 -3.821569e-04 6.212953e-03 -3.974463e-04 2.528298e-05 -1.389394e-04 2.238030e-04 -8.819671e-05 -2.303885e-05 7.395142e-05 7.111674e-05 -2.229417e-04 5.211498e-05 4.644710e-05 1.563326e-04 -6.270007e-04
<VARIANCE> 39
 7.898791e+01 8.549170e+01 1.039326e+02 1.035625e+02 1.013827e+02 9.334486e+01 7.809044e+01 7.020847e+01 7.264623e+01 5.927662e+01 6.909829e+01 4.671127e+01 1.688386e+02 2.619247e+00 2.844096e+00 3.141263e+00 3.342374e+00 3.775106e+00 3.710435e+00 3.631593e+00 3.796941e+00 3.445527e+00 3.035479e+00 3.042204e+00 2.537637e+00 3.067575e+00 4.069282e-01 4.516459e-01 4.950505e-01 5.772119e-01 6.622217e-01 6.632758e-01 6.633168e-01 6.897152e-01 6.252945e-01 5.695893e-01 5.601525e-01 4.705158e-01 4.442440e-01
<GCONST> 1.365261e+02
<TRANSP> 5
 0.000000e+00 1.000000e+00 0.000000e+00 0.000000e+00 0.000000e+00
 0.000000e+00 6.000000e-01 4.000000e-01 0.000000e+00 0.000000e+00
 0.000000e+00 0.000000e+00 6.000000e-01 4.000000e-01 0.000000e+00
 0.000000e+00 0.000000e+00 0.000000e+00 7.000000e-01 3.000000e-01
 0.000000e+00 0.000000e+00 0.000000e+00 0.000000e+00 0.000000e+00
<ENDHMM>
~h "g"
<BEGINHMM>
<NUMSTATES> 5
<STATE> 2
<MEAN> 39
 -3.581482e+00 -3.602143e+00 1.748541e-02 -4.274473e+00 -5.139435e+00 -3.756983e+00 -5.674071e+00 -2.861689e+00 -1.863639e+00 -1.328783e+00 -2.759773e+00 -3.222980e+00 6.259650e+01 2.376430e-03 -5.127961e-04 1.865725e-03 2.355871e-04 1.499187e-03 -1.970727e-04 7.880598e-04 -2.874425e-04 -9.379386e-04 7.077495e-04 -1.458328e-03 -3.821569e-04 6.212953e-03 -3.974463e-04 2.528298e-05 -1.389394e-04 2.238030e-04 -8.819671e-05 -2.303885e-05 7.395142e-05 7.111674e-05 -2.229417e-04 5.211498e-05 4.644710e-05 1.563326e-04 -6.270007e-04
<VARIANCE> 39
 7.898791e+01 8.549170e+01 1.039326e+02 1.035625e+02 1.013827e+02 9.334486e+01 7.809044e+01 7.020847e+01 7.264623e+01 5.927662e+01 6.909829e+01 4.671127e+01 1.688386e+02 2.619247e+00 2.844096e+00 3.141263e+00 3.342374e+00 3.775106e+00 3.710435e+00 3.631593e+00 3.796941e+00 3.445527e+00 3.035479e+00 3.042204e+00 2.537637e+00 3.067575e+00 4.069282e-01 4.516459e-01 4.950505e-01 5.772119e-01 6.622217e-01 6.632758e-01 6.633168e-01 6.897152e-01 6.252945e-01 5.695893e-01 5.601525e-01 4.705158e-01 4.442440e-01
<GCONST> 1.365261e+02
<STATE> 3
<MEAN> 39
 -3.581482e+00 -3.602143e+00 1.748541e-02 -4.274473e+00 -5.139435e+00 -3.756983e+00 -5.674071e+00 -2.861689e+00 -1.863639e+00 -1.328783e+00 -2.759773e+00 -3.222980e+00 6.259650e+01 2.376430e-03 -5.127961e-04 1.865725e-03 2.355871e-04 1.499187e-03 -1.970727e-04 7.880598e-04 -2.874425e-04 -9.379386e-04 7.077495e-04 -1.458328e-03 -3.821569e-04 6.212953e-03 -3.974463e-04 2.528298e-05 -1.389394e-04 2.238030e-04 -8.819671e-05 -2.303885e-05 7.395142e-05 7.111674e-05 -2.229417e-04 5.211498e-05 4.644710e-05 1.563326e-04 -6.270007e-04
<VARIANCE> 39
 7.898791e+01 8.549170e+01 1.039326e+02 1.035625e+02 1.013827e+02 9.334486e+01 7.809044e+01 7.020847e+01 7.264623e+01 5.927662e+01 6.909829e+01 4.671127e+01 1.688386e+02 2.619247e+00 2.844096e+00 3.141263e+00 3.342374e+00 3.775106e+00 3.710435e+00 3.631593e+00 3.796941e+00 3.445527e+00 3.035479e+00 3.042204e+00 2.537637e+00 3.067575e+00 4.069282e-01 4.516459e-01 4.950505e-01 5.772119e-01 6.622217e-01 6.632758e-01 6.633168e-01 6.897152e-01 6.252945e-01 5.695893e-01 5.601525e-01 4.705158e-01 4.442440e-01
<GCONST> 1.365261e+02
<STATE> 4
<MEAN> 39
 -3.581482e+00 -3.602143e+00 1.748541e-02 -4.274473e+00 -5.139435e+00 -3.756983e+00 -5.674071e+00 -2.861689e+00 -1.863639e+00 -1.328783e+00 -2.759773e+00 -3.222980e+00 6.259650e+01 2.376430e-03 -5.127961e-04 1.865725e-03 2.355871e-04 1.499187e-03 -1.970727e-04 7.880598e-04 -2.874425e-04 -9.379386e-04 7.077495e-04 -1.458328e-03 -3.821569e-04 6.212953e-03 -3.974463e-04 2.528298e-05 -1.389394e-04 2.238030e-04 -8.819671e-05 -2.303885e-05 7.395142e-05 7.111674e-05 -2.229417e-04 5.211498e-05 4.644710e-05 1.563326e-04 -6.270007e-04
<VARIANCE> 39
 7.898791e+01 8.549170e+01 1.039326e+02 1.035625e+02 1.013827e+02 9.334486e+01 7.809044e+01 7.020847e+01 7.264623e+01 5.927662e+01 6.909829e+01 4.671127e+01 1.688386e+02 2.619247e+00 2.844096e+00 3.141263e+00 3.342374e+00 3.775106e+00 3.710435e+00 3.631593e+00 3.796941e+00 3.445527e+00 3.035479e+00 3.042204e+00 2.537637e+00 3.067575e+00 4.069282e-01 4.516459e-01 4.950505e-01 5.772119e-01 6.622217e-01 6.632758e-01 6.633168e-01 6.897152e-01 6.252945e-01 5.695893e-01 5.601525e-01 4.705158e-01 4.442440e-01
<GCONST> 1.365261e+02
<TRANSP> 5
 0.000000e+00 1.000000e+00 0.000000e+00 0.000000e+00 0.000000e+00
 0.000000e+00 6.000000e-01 4.000000e-01 0.000000e+00 0.000000e+00
 0.000000e+00 0.000000e+00 6.000000e-01 4.000000e-01 0.000000e+00
 0.000000e+00 0.000000e+00 0.000000e+00 7.000000e-01 3.000000e-01
 0.000000e+00 0.000000e+00 0.000000e+00 0.000000e+00 0.000000e+00
<ENDHMM>
~h "m"
<BEGINHMM>
<NUMSTATES> 5
<STATE> 2
<MEAN> 39
 -3.581482e+00 -3.602143e+00 1.748541e-02 -4.274473e+00 -5.139435e+00 -3.756983e+00 -5.674071e+00 -2.861689e+00 -1.863639e+00 -1.328783e+00 -2.759773e+00 -3.222980e+00 6.259650e+01 2.376430e-03 -5.127961e-04 1.865725e-03 2.355871e-04 1.499187e-03 -1.970727e-04 7.880598e-04 -2.874425e-04 -9.379386e-04 7.077495e-04 -1.458328e-03 -3.821569e-04 6.212953e-03 -3.974463e-04 2.528298e-05 -1.389394e-04 2.238030e-04 -8.819671e-05 -2.303885e-05 7.395142e-05 7.111674e-05 -2.229417e-04 5.211498e-05 4.644710e-05 1.563326e-04 -6.270007e-04
<VARIANCE> 39
 7.898791e+01 8.549170e+01 1.039326e+02 1.035625e+02 1.013827e+02 9.334486e+01 7.809044e+01 7.020847e+01 7.264623e+01 5.927662e+01 6.909829e+01 4.671127e+01 1.688386e+02 2.619247e+00 2.844096e+00 3.141263e+00 3.342374e+00 3.775106e+00 3.710435e+00 3.631593e+00 3.796941e+00 3.445527e+00 3.035479e+00 3.042204e+00 2.537637e+00 3.067575e+00 4.069282e-01 4.516459e-01 4.950505e-01 5.772119e-01 6.622217e-01 6.632758e-01 6.633168e-01 6.897152e-01 6.252945e-01 5.695893e-01 5.601525e-01 4.705158e-01 4.442440e-01
<GCONST> 1.365261e+02
<STATE> 3
<MEAN> 39
 -3.581482e+00 -3.602143e+00 1.748541e-02 -4.274473e+00 -5.139435e+00 -3.756983e+00 -5.674071e+00 -2.861689e+00 -1.863639e+00 -1.328783e+00 -2.759773e+00 -3.222980e+00 6.259650e+01 2.376430e-03 -5.127961e-04 1.865725e-03 2.355871e-04 1.499187e-03 -1.970727e-04 7.880598e-04 -2.874425e-04 -9.379386e-04 7.077495e-04 -1.458328e-03 -3.821569e-04 6.212953e-03 -3.974463e-04 2.528298e-05 -1.389394e-04 2.238030e-04 -8.819671e-05 -2.303885e-05 7.395142e-05 7.111674e-05 -2.229417e-04 5.211498e-05 4.644710e-05 1.563326e-04 -6.270007e-04
<VARIANCE> 39
 7.898791e+01 8.549170e+01 1.039326e+02 1.035625e+02 1.013827e+02 9.334486e+01 7.809044e+01 7.020847e+01 7.264623e+01 5.927662e+01 6.909829e+01 4.671127e+01 1.688386e+02 2.619247e+00 2.844096e+00 3.141263e+00 3.342374e+00 3.775106e+00 3.710435e+00 3.631593e+00 3.796941e+00 3.445527e+00 3.035479e+00 3.042204e+00 2.537637e+00 3.067575e+00 4.069282e-01 4.516459e-01 4.950505e-01 5.772119e-01 6.622217e-01 6.632758e-01 6.633168e-01 6.897152e-01 6.252945e-01 5.695893e-01 5.601525e-01 4.705158e-01 4.442440e-01
<GCONST> 1.365261e+02
<STATE> 4
<MEAN> 39
 -3.581482e+00 -3.602143e+00 1.748541e-02 -4.274473e+00 -5.139435e+00 -3.756983e+00 -5.674071e+00 -2.861689e+00 -1.863639e+00 -1.328783e+00 -2.759773e+00 -3.222980e+00 6.259650e+01 2.376430e-03 -5.127961e-04 1.865725e-03 2.355871e-04 1.499187e-03 -1.970727e-04 7.880598e-04 -2.874425e-04 -9.379386e-04 7.077495e-04 -1.458328e-03 -3.821569e-04 6.212953e-03 -3.974463e-04 2.528298e-05 -1.389394e-04 2.238030e-04 -8.819671e-05 -2.303885e-05 7.395142e-05 7.111674e-05 -2.229417e-04 5.211498e-05 4.644710e-05 1.563326e-04 -6.270007e-04
<VARIANCE> 39
 7.898791e+01 8.549170e+01 1.039326e+02 1.035625e+02 1.013827e+02 9.334486e+01 7.809044e+01 7.020847e+01 7.264623e+01 5.927662e+01 6.909829e+01 4.671127e+01 1.688386e+02 2.619247e+00 2.844096e+00 3.141263e+00 3.342374e+00 3.775106e+00 3.710435e+00 3.631593e+00 3.796941e+00 3.445527e+00 3.035479e+00 3.042204e+00 2.537637e+00 3.067575e+00 4.069282e-01 4.516459e-01 4.950505e-01 5.772119e-01 6.622217e-01 6.632758e-01 6.633168e-01 6.897152e-01 6.252945e-01 5.695893e-01 5.601525e-01 4.705158e-01 4.442440e-01
<GCONST> 1.365261e+02
<TRANSP> 5
 0.000000e+00 1.000000e+00 0.000000e+00 0.000000e+00 0.000000e+00
 0.000000e+00 6.000000e-01 4.000000e-01 0.000000e+00 0.000000e+00
 0.000000e+00 0.000000e+00 6.000000e-01 4.000000e-01 0.000000e+00
 0.000000e+00 0.000000e+00 0.000000e+00 7.000000e-01 3.000000e-01
 0.000000e+00 0.000000e+00 0.000000e+00 0.000000e+00 0.000000e+00
<ENDHMM>
~h "e"
<BEGINHMM>
<NUMSTATES> 5
<STATE> 2
<MEAN> 39
 -3.581482e+00 -3.602143e+00 1.748541e-02 -4.274473e+00 -5.139435e+00 -3.756983e+00 -5.674071e+00 -2.861689e+00 -1.863639e+00 -1.328783e+00 -2.759773e+00 -3.222980e+00 6.259650e+01 2.376430e-03 -5.127961e-04 1.865725e-03 2.355871e-04 1.499187e-03 -1.970727e-04 7.880598e-04 -2.874425e-04 -9.379386e-04 7.077495e-04 -1.458328e-03 -3.821569e-04 6.212953e-03 -3.974463e-04 2.528298e-05 -1.389394e-04 2.238030e-04 -8.819671e-05 -2.303885e-05 7.395142e-05 7.111674e-05 -2.229417e-04 5.211498e-05 4.644710e-05 1.563326e-04 -6.270007e-04
<VARIANCE> 39
 7.898791e+01 8.549170e+01 1.039326e+02 1.035625e+02 1.013827e+02 9.334486e+01 7.809044e+01 7.020847e+01 7.264623e+01 5.927662e+01 6.909829e+01 4.671127e+01 1.688386e+02 2.619247e+00 2.844096e+00 3.141263e+00 3.342374e+00 3.775106e+00 3.710435e+00 3.631593e+00 3.796941e+00 3.445527e+00 3.035479e+00 3.042204e+00 2.537637e+00 3.067575e+00 4.069282e-01 4.516459e-01 4.950505e-01 5.772119e-01 6.622217e-01 6.632758e-01 6.633168e-01 6.897152e-01 6.252945e-01 5.695893e-01 5.601525e-01 4.705158e-01 4.442440e-01
<GCONST> 1.365261e+02
<STATE> 3
<MEAN> 39
 -3.581482e+00 -3.602143e+00 1.748541e-02 -4.274473e+00 -5.139435e+00 -3.756983e+00 -5.674071e+00 -2.861689e+00 -1.863639e+00 -1.328783e+00 -2.759773e+00 -3.222980e+00 6.259650e+01 2.376430e-03 -5.127961e-04 1.865725e-03 2.355871e-04 1.499187e-03 -1.970727e-04 7.880598e-04 -2.874425e-04 -9.379386e-04 7.077495e-04 -1.458328e-03 -3.821569e-04 6.212953e-03 -3.974463e-04 2.528298e-05 -1.389394e-04 2.238030e-04 -8.819671e-05 -2.303885e-05 7.395142e-05 7.111674e-05 -2.229417e-04 5.211498e-05 4.644710e-05 1.563326e-04 -6.270007e-04
<VARIANCE> 39
 7.898791e+01 8.549170e+01 1.039326e+02 1.035625e+02 1.013827e+02 9.334486e+01 7.809044e+01 7.020847e+01 7.264623e+01 5.927662e+01 6.909829e+01 4.671127e+01 1.688386e+02 2.619247e+00 2.844096e+00 3.141263e+00 3.342374e+00 3.775106e+00 3.710435e+00 3.631593e+00 3.796941e+00 3.445527e+00 3.035479e+00 3.042204e+00 2.537637e+00 3.067575e+00 4.069282e-01 4.516459e-01 4.950505e-01 5.772119e-01 6.622217e-01 6.632758e-01 6.633168e-01 6.897152e-01 6.252945e-01 5.695893e-01 5.601525e-01 4.705158e-01 4.442440e-01
<GCONST> 1.365261e+02
<STATE> 4
<MEAN> 39
 -3.581482e+00 -3.602143e+00 1.748541e-02 -4.274473e+00 -5.139435e+00 -3.756983e+00 -5.674071e+00 -2.861689e+00 -1.863639e+00 -1.328783e+00 -2.759773e+00 -3.222980e+00 6.259650e+01 2.376430e-03 -5.127961e-04 1.865725e-03 2.355871e-04 1.499187e-03 -1.970727e-04 7.880598e-04 -2.874425e-04 -9.379386e-04 7.077495e-04 -1.458328e-03 -3.821569e-04 6.212953e-03 -3.974463e-04 2.528298e-05 -1.389394e-04 2.238030e-04 -8.819671e-05 -2.303885e-05 7.395142e-05 7.111674e-05 -2.229417e-04 5.211498e-05 4.644710e-05 1.563326e-04 -6.270007e-04
<VARIANCE> 39
 7.898791e+01 8.549170e+01 1.039326e+02 1.035625e+02 1.013827e+02 9.334486e+01 7.809044e+01 7.020847e+01 7.264623e+01 5.927662e+01 6.909829e+01 4.671127e+01 1.688386e+02 2.619247e+00 2.844096e+00 3.141263e+00 3.342374e+00 3.775106e+00 3.710435e+00 3.631593e+00 3.796941e+00 3.445527e+00 3.035479e+00 3.042204e+00 2.537637e+00 3.067575e+00 4.069282e-01 4.516459e-01 4.950505e-01 5.772119e-01 6.622217e-01 6.632758e-01 6.633168e-01 6.897152e-01 6.252945e-01 5.695893e-01 5.601525e-01 4.705158e-01 4.442440e-01
<GCONST> 1.365261e+02
<TRANSP> 5
 0.000000e+00 1.000000e+00 0.000000e+00 0.000000e+00 0.000000e+00
 0.000000e+00 6.000000e-01 4.000000e-01 0.000000e+00 0.000000e+00
 0.000000e+00 0.000000e+00 6.000000e-01 4.000000e-01 0.000000e+00
 0.000000e+00 0.000000e+00 0.000000e+00 7.000000e-01 3.000000e-01
 0.000000e+00 0.000000e+00 0.000000e+00 0.000000e+00 0.000000e+00
<ENDHMM>
~h "u"
<BEGINHMM>
<NUMSTATES> 5
<STATE> 2
<MEAN> 39
 -3.581482e+00 -3.602143e+00 1.748541e-02 -4.274473e+00 -5.139435e+00 -3.756983e+00 -5.674071e+00 -2.861689e+00 -1.863639e+00 -1.328783e+00 -2.759773e+00 -3.222980e+00 6.259650e+01 2.376430e-03 -5.127961e-04 1.865725e-03 2.355871e-04 1.499187e-03 -1.970727e-04 7.880598e-04 -2.874425e-04 -9.379386e-04 7.077495e-04 -1.458328e-03 -3.821569e-04 6.212953e-03 -3.974463e-04 2.528298e-05 -1.389394e-04 2.238030e-04 -8.819671e-05 -2.303885e-05 7.395142e-05 7.111674e-05 -2.229417e-04 5.211498e-05 4.644710e-05 1.563326e-04 -6.270007e-04
<VARIANCE> 39
 7.898791e+01 8.549170e+01 1.039326e+02 1.035625e+02 1.013827e+02 9.334486e+01 7.809044e+01 7.020847e+01 7.264623e+01 5.927662e+01 6.909829e+01 4.671127e+01 1.688386e+02 2.619247e+00 2.844096e+00 3.141263e+00 3.342374e+00 3.775106e+00 3.710435e+00 3.631593e+00 3.796941e+00 3.445527e+00 3.035479e+00 3.042204e+00 2.537637e+00 3.067575e+00 4.069282e-01 4.516459e-01 4.950505e-01 5.772119e-01 6.622217e-01 6.632758e-01 6.633168e-01 6.897152e-01 6.252945e-01 5.695893e-01 5.601525e-01 4.705158e-01 4.442440e-01
<GCONST> 1.365261e+02
<STATE> 3
<MEAN> 39
 -3.581482e+00 -3.602143e+00 1.748541e-02 -4.274473e+00 -5.139435e+00 -3.756983e+00 -5.674071e+00 -2.861689e+00 -1.863639e+00 -1.328783e+00 -2.759773e+00 -3.222980e+00 6.259650e+01 2.376430e-03 -5.127961e-04 1.865725e-03 2.355871e-04 1.499187e-03 -1.970727e-04 7.880598e-04 -2.874425e-04 -9.379386e-04 7.077495e-04 -1.458328e-03 -3.821569e-04 6.212953e-03 -3.974463e-04 2.528298e-05 -1.389394e-04 2.238030e-04 -8.819671e-05 -2.303885e-05 7.395142e-05 7.111674e-05 -2.229417e-04 5.211498e-05 4.644710e-05 1.563326e-04 -6.270007e-04
<VARIANCE> 39
 7.898791e+01 8.549170e+01 1.039326e+02 1.035625e+02 1.013827e+02 9.334486e+01 7.809044e+01 7.020847e+01 7.264623e+01 5.927662e+01 6.909829e+01 4.671127e+01 1.688386e+02 2.619247e+00 2.844096e+00 3.141263e+00 3.342374e+00 3.775106e+00 3.710435e+00 3.631593e+00 3.796941e+00 3.445527e+00 3.035479e+00 3.042204e+00 2.537637e+00 3.067575e+00 4.069282e-01 4.516459e-01 4.950505e-01 5.772119e-01 6.622217e-01 6.632758e-01 6.633168e-01 6.897152e-01 6.252945e-01 5.695893e-01 5.601525e-01 4.705158e-01 4.442440e-01
<GCONST> 1.365261e+02
<STATE> 4
<MEAN> 39
 -3.581482e+00 -3.602143e+00 1.748541e-02 -4.274473e+00 -5.139435e+00 -3.756983e+00 -5.674071e+00 -2.861689e+00 -1.863639e+00 -1.328783e+00 -2.759773e+00 -3.222980e+00 6.259650e+01 2.376430e-03 -5.127961e-04 1.865725e-03 2.355871e-04 1.499187e-03 -1.970727e-04 7.880598e-04 -2.874425e-04 -9.379386e-04 7.077495e-04 -1.458328e-03 -3.821569e-04 6.212953e-03 -3.974463e-04 2.528298e-05 -1.389394e-04 2.238030e-04 -8.819671e-05 -2.303885e-05 7.395142e-05 7.111674e-05 -2.229417e-04 5.211498e-05 4.644710e-05 1.563326e-04 -6.270007e-04
<VARIANCE> 39
 7.898791e+01 8.549170e+01 1.039326e+02 1.035625e+02 1.013827e+02 9.334486e+01 7.809044e+01 7.020847e+01 7.264623e+01 5.927662e+01 6.909829e+01 4.671127e+01 1.688386e+02 2.619247e+00 2.844096e+00 3.141263e+00 3.342374e+00 3.775106e+00 3.710435e+00 3.631593e+00 3.796941e+00 3.445527e+00 3.035479e+00 3.042204e+00 2.537637e+00 3.067575e+00 4.069282e-01 4.516459e-01 4.950505e-01 5.772119e-01 6.622217e-01 6.632758e-01 6.633168e-01 6.897152e-01 6.252945e-01 5.695893e-01 5.601525e-01 4.705158e-01 4.442440e-01
<GCONST> 1.365261e+02
<TRANSP> 5
 0.000000e+00 1.000000e+00 0.000000e+00 0.000000e+00 0.000000e+00
 0.000000e+00 6.000000e-01 4.000000e-01 0.000000e+00 0.000000e+00
 0.000000e+00 0.000000e+00 6.000000e-01 4.000000e-01 0.000000e+00
 0.000000e+00 0.000000e+00 0.000000e+00 7.000000e-01 3.000000e-01
 0.000000e+00 0.000000e+00 0.000000e+00 0.000000e+00 0.000000e+00
<ENDHMM>
~h "j"
<BEGINHMM>
<NUMSTATES> 5
<STATE> 2
<MEAN> 39
 -3.581482e+00 -3.602143e+00 1.748541e-02 -4.274473e+00 -5.139435e+00 -3.756983e+00 -5.674071e+00 -2.861689e+00 -1.863639e+00 -1.328783e+00 -2.759773e+00 -3.222980e+00 6.259650e+01 2.376430e-03 -5.127961e-04 1.865725e-03 2.355871e-04 1.499187e-03 -1.970727e-04 7.880598e-04 -2.874425e-04 -9.379386e-04 7.077495e-04 -1.458328e-03 -3.821569e-04 6.212953e-03 -3.974463e-04 2.528298e-05 -1.389394e-04 2.238030e-04 -8.819671e-05 -2.303885e-05 7.395142e-05 7.111674e-05 -2.229417e-04 5.211498e-05 4.644710e-05 1.563326e-04 -6.270007e-04
<VARIANCE> 39
 7.898791e+01 8.549170e+01 1.039326e+02 1.035625e+02 1.013827e+02 9.334486e+01 7.809044e+01 7.020847e+01 7.264623e+01 5.927662e+01 6.909829e+01 4.671127e+01 1.688386e+02 2.619247e+00 2.844096e+00 3.141263e+00 3.342374e+00 3.775106e+00 3.710435e+00 3.631593e+00 3.796941e+00 3.445527e+00 3.035479e+00 3.042204e+00 2.537637e+00 3.067575e+00 4.069282e-01 4.516459e-01 4.950505e-01 5.772119e-01 6.622217e-01 6.632758e-01 6.633168e-01 6.897152e-01 6.252945e-01 5.695893e-01 5.601525e-01 4.705158e-01 4.442440e-01
<GCONST> 1.365261e+02
<STATE> 3
<MEAN> 39
 -3.581482e+00 -3.602143e+00 1.748541e-02 -4.274473e+00 -5.139435e+00 -3.756983e+00 -5.674071e+00 -2.861689e+00 -1.863639e+00 -1.328783e+00 -2.759773e+00 -3.222980e+00 6.259650e+01 2.376430e-03 -5.127961e-04 1.865725e-03 2.355871e-04 1.499187e-03 -1.970727e-04 7.880598e-04 -2.874425e-04 -9.379386e-04 7.077495e-04 -1.458328e-03 -3.821569e-04 6.212953e-03 -3.974463e-04 2.528298e-05 -1.389394e-04 2.238030e-04 -8.819671e-05 -2.303885e-05 7.395142e-05 7.111674e-05 -2.229417e-04 5.211498e-05 4.644710e-05 1.563326e-04 -6.270007e-04
<VARIANCE> 39
 7.898791e+01 8.549170e+01 1.039326e+02 1.035625e+02 1.013827e+02 9.334486e+01 7.809044e+01 7.020847e+01 7.264623e+01 5.927662e+01 6.909829e+01 4.671127e+01 1.688386e+02 2.619247e+00 2.844096e+00 3.141263e+00 3.342374e+00 3.775106e+00 3.710435e+00 3.631593e+00 3.796941e+00 3.445527e+00 3.035479e+00 3.042204e+00 2.537637e+00 3.067575e+00 4.069282e-01 4.516459e-01 4.950505e-01 5.772119e-01 6.622217e-01 6.632758e-01 6.633168e-01 6.897152e-01 6.252945e-01 5.695893e-01 5.601525e-01 4.705158e-01 4.442440e-01
<GCONST> 1.365261e+02
<STATE> 4
<MEAN> 39
 -3.581482e+00 -3.602143e+00 1.748541e-02 -4.274473e+00 -5.139435e+00 -3.756983e+00 -5.674071e+00 -2.861689e+00 -1.863639e+00 -1.328783e+00 -2.759773e+00 -3.222980e+00 6.259650e+01 2.376430e-03 -5.127961e-04 1.865725e-03 2.355871e-04 1.499187e-03 -1.970727e-04 7.880598e-04 -2.874425e-04 -9.379386e-04 7.077495e-04 -1.458328e-03 -3.821569e-04 6.212953e-03 -3.974463e-04 2.528298e-05 -1.389394e-04 2.238030e-04 -8.819671e-05 -2.303885e-05 7.395142e-05 7.111674e-05 -2.229417e-04 5.211498e-05 4.644710e-05 1.563326e-04 -6.270007e-04
<VARIANCE> 39
 7.898791e+01 8.549170e+01 1.039326e+02 1.035625e+02 1.013827e+02 9.334486e+01 7.809044e+01 7.020847e+01 7.264623e+01 5.927662e+01 6.909829e+01 4.671127e+01 1.688386e+02 2.619247e+00 2.844096e+00 3.141263e+00 3.342374e+00 3.775106e+00 3.710435e+00 3.631593e+00 3.796941e+00 3.445527e+00 3.035479e+00 3.042204e+00 2.537637e+00 3.067575e+00 4.069282e-01 4.516459e-01 4.950505e-01 5.772119e-01 6.622217e-01 6.632758e-01 6.633168e-01 6.897152e-01 6.252945e-01 5.695893e-01 5.601525e-01 4.705158e-01 4.442440e-01
<GCONST> 1.365261e+02
<TRANSP> 5
 0.000000e+00 1.000000e+00 0.000000e+00 0.000000e+00 0.000000e+00
 0.000000e+00 6.000000e-01 4.000000e-01 0.000000e+00 0.000000e+00
 0.000000e+00 0.000000e+00 6.000000e-01 4.000000e-01 0.000000e+00
 0.000000e+00 0.000000e+00 0.000000e+00 7.000000e-01 3.000000e-01
 0.000000e+00 0.000000e+00 0.000000e+00 0.000000e+00 0.000000e+00
<ENDHMM>
~h "b"
<BEGINHMM>
<NUMSTATES> 5
<STATE> 2
<MEAN> 39
 -3.581482e+00 -3.602143e+00 1.748541e-02 -4.274473e+00 -5.139435e+00 -3.756983e+00 -5.674071e+00 -2.861689e+00 -1.863639e+00 -1.328783e+00 -2.759773e+00 -3.222980e+00 6.259650e+01 2.376430e-03 -5.127961e-04 1.865725e-03 2.355871e-04 1.499187e-03 -1.970727e-04 7.880598e-04 -2.874425e-04 -9.379386e-04 7.077495e-04 -1.458328e-03 -3.821569e-04 6.212953e-03 -3.974463e-04 2.528298e-05 -1.389394e-04 2.238030e-04 -8.819671e-05 -2.303885e-05 7.395142e-05 7.111674e-05 -2.229417e-04 5.211498e-05 4.644710e-05 1.563326e-04 -6.270007e-04
<VARIANCE> 39
 7.898791e+01 8.549170e+01 1.039326e+02 1.035625e+02 1.013827e+02 9.334486e+01 7.809044e+01 7.020847e+01 7.264623e+01 5.927662e+01 6.909829e+01 4.671127e+01 1.688386e+02 2.619247e+00 2.844096e+00 3.141263e+00 3.342374e+00 3.775106e+00 3.710435e+00 3.631593e+00 3.796941e+00 3.445527e+00 3.035479e+00 3.042204e+00 2.537637e+00 3.067575e+00 4.069282e-01 4.516459e-01 4.950505e-01 5.772119e-01 6.622217e-01 6.632758e-01 6.633168e-01 6.897152e-01 6.252945e-01 5.695893e-01 5.601525e-01 4.705158e-01 4.442440e-01
<GCONST> 1.365261e+02
<STATE> 3
<MEAN> 39
 -3.581482e+00 -3.602143e+00 1.748541e-02 -4.274473e+00 -5.139435e+00 -3.756983e+00 -5.674071e+00 -2.861689e+00 -1.863639e+00 -1.328783e+00 -2.759773e+00 -3.222980e+00 6.259650e+01 2.376430e-03 -5.127961e-04 1.865725e-03 2.355871e-04 1.499187e-03 -1.970727e-04 7.880598e-04 -2.874425e-04 -9.379386e-04 7.077495e-04 -1.458328e-03 -3.821569e-04 6.212953e-03 -3.974463e-04 2.528298e-05 -1.389394e-04 2.238030e-04 -8.819671e-05 -2.303885e-05 7.395142e-05 7.111674e-05 -2.229417e-04 5.211498e-05 4.644710e-05 1.563326e-04 -6.270007e-04
<VARIANCE> 39
 7.898791e+01 8.549170e+01 1.039326e+02 1.035625e+02 1.013827e+02 9.334486e+01 7.809044e+01 7.020847e+01 7.264623e+01 5.927662e+01 6.909829e+01 4.671127e+01 1.688386e+02 2.619247e+00 2.844096e+00 3.141263e+00 3.342374e+00 3.775106e+00 3.710435e+00 3.631593e+00 3.796941e+00 3.445527e+00 3.035479e+00 3.042204e+00 2.537637e+00 3.067575e+00 4.069282e-01 4.516459e-01 4.950505e-01 5.772119e-01 6.622217e-01 6.632758e-01 6.633168e-01 6.897152e-01 6.252945e-01 5.695893e-01 5.601525e-01 4.705158e-01 4.442440e-01
<GCONST> 1.365261e+02
<STATE> 4
<MEAN> 39
 -3.581482e+00 -3.602143e+00 1.748541e-02 -4.274473e+00 -5.139435e+00 -3.756983e+00 -5.674071e+00 -2.861689e+00 -1.863639e+00 -1.328783e+00 -2.759773e+00 -3.222980e+00 6.259650e+01 2.376430e-03 -5.127961e-04 1.865725e-03 2.355871e-04 1.499187e-03 -1.970727e-04 7.880598e-04 -2.874425e-04 -9.379386e-04 7.077495e-04 -1.458328e-03 -3.821569e-04 6.212953e-03 -3.974463e-04 2.528298e-05 -1.389394e-04 2.238030e-04 -8.819671e-05 -2.303885e-05 7.395142e-05 7.111674e-05 -2.229417e-04 5.211498e-05 4.644710e-05 1.563326e-04 -6.270007e-04
<VARIANCE> 39
 7.898791e+01 8.549170e+01 1.039326e+02 1.035625e+02 1.013827e+02 9.334486e+01 7.809044e+01 7.020847e+01 7.264623e+01 5.927662e+01 6.909829e+01 4.671127e+01 1.688386e+02 2.619247e+00 2.844096e+00 3.141263e+00 3.342374e+00 3.775106e+00 3.710435e+00 3.631593e+00 3.796941e+00 3.445527e+00 3.035479e+00 3.042204e+00 2.537637e+00 3.067575e+00 4.069282e-01 4.516459e-01 4.950505e-01 5.772119e-01 6.622217e-01 6.632758e-01 6.633168e-01 6.897152e-01 6.252945e-01 5.695893e-01 5.601525e-01 4.705158e-01 4.442440e-01
<GCONST> 1.365261e+02
<TRANSP> 5
 0.000000e+00 1.000000e+00 0.000000e+00 0.000000e+00 0.000000e+00
 0.000000e+00 6.000000e-01 4.000000e-01 0.000000e+00 0.000000e+00
 0.000000e+00 0.000000e+00 6.000000e-01 4.000000e-01 0.000000e+00
 0.000000e+00 0.000000e+00 0.000000e+00 7.000000e-01 3.000000e-01
 0.000000e+00 0.000000e+00 0.000000e+00 0.000000e+00 0.000000e+00
<ENDHMM>
~h "f"
<BEGINHMM>
<NUMSTATES> 5
<STATE> 2
<MEAN> 39
 -3.581482e+00 -3.602143e+00 1.748541e-02 -4.274473e+00 -5.139435e+00 -3.756983e+00 -5.674071e+00 -2.861689e+00 -1.863639e+00 -1.328783e+00 -2.759773e+00 -3.222980e+00 6.259650e+01 2.376430e-03 -5.127961e-04 1.865725e-03 2.355871e-04 1.499187e-03 -1.970727e-04 7.880598e-04 -2.874425e-04 -9.379386e-04 7.077495e-04 -1.458328e-03 -3.821569e-04 6.212953e-03 -3.974463e-04 2.528298e-05 -1.389394e-04 2.238030e-04 -8.819671e-05 -2.303885e-05 7.395142e-05 7.111674e-05 -2.229417e-04 5.211498e-05 4.644710e-05 1.563326e-04 -6.270007e-04
<VARIANCE> 39
 7.898791e+01 8.549170e+01 1.039326e+02 1.035625e+02 1.013827e+02 9.334486e+01 7.809044e+01 7.020847e+01 7.264623e+01 5.927662e+01 6.909829e+01 4.671127e+01 1.688386e+02 2.619247e+00 2.844096e+00 3.141263e+00 3.342374e+00 3.775106e+00 3.710435e+00 3.631593e+00 3.796941e+00 3.445527e+00 3.035479e+00 3.042204e+00 2.537637e+00 3.067575e+00 4.069282e-01 4.516459e-01 4.950505e-01 5.772119e-01 6.622217e-01 6.632758e-01 6.633168e-01 6.897152e-01 6.252945e-01 5.695893e-01 5.601525e-01 4.705158e-01 4.442440e-01
<GCONST> 1.365261e+02
<STATE> 3
<MEAN> 39
 -3.581482e+00 -3.602143e+00 1.748541e-02 -4.274473e+00 -5.139435e+00 -3.756983e+00 -5.674071e+00 -2.861689e+00 -1.863639e+00 -1.328783e+00 -2.759773e+00 -3.222980e+00 6.259650e+01 2.376430e-03 -5.127961e-04 1.865725e-03 2.355871e-04 1.499187e-03 -1.970727e-04 7.880598e-04 -2.874425e-04 -9.379386e-04 7.077495e-04 -1.458328e-03 -3.821569e-04 6.212953e-03 -3.974463e-04 2.528298e-05 -1.389394e-04 2.238030e-04 -8.819671e-05 -2.303885e-05 7.395142e-05 7.111674e-05 -2.229417e-04 5.211498e-05 4.644710e-05 1.563326e-04 -6.270007e-04
<VARIANCE> 39
 7.898791e+01 8.549170e+01 1.039326e+02 1.035625e+02 1.013827e+02 9.334486e+01 7.809044e+01 7.020847e+01 7.264623e+01 5.927662e+01 6.909829e+01 4.671127e+01 1.688386e+02 2.619247e+00 2.844096e+00 3.141263e+00 3.342374e+00 3.775106e+00 3.710435e+00 3.631593e+00 3.796941e+00 3.445527e+00 3.035479e+00 3.042204e+00 2.537637e+00 3.067575e+00 4.069282e-01 4.516459e-01 4.950505e-01 5.772119e-01 6.622217e-01 6.632758e-01 6.633168e-01 6.897152e-01 6.252945e-01 5.695893e-01 5.601525e-01 4.705158e-01 4.442440e-01
<GCONST> 1.365261e+02
<STATE> 4
<MEAN> 39
 -3.581482e+00 -3.602143e+00 1.748541e-02 -4.274473e+00 -5.139435e+00 -3.756983e+00 -5.674071e+00 -2.861689e+00 -1.863639e+00 -1.328783e+00 -2.759773e+00 -3.222980e+00 6.259650e+01 2.376430e-03 -5.127961e-04 1.865725e-03 2.355871e-04 1.499187e-03 -1.970727e-04 7.880598e-04 -2.874425e-04 -9.379386e-04 7.077495e-04 -1.458328e-03 -3.821569e-04 6.212953e-03 -3.974463e-04 2.528298e-05 -1.389394e-04 2.238030e-04 -8.819671e-05 -2.303885e-05 7.395142e-05 7.111674e-05 -2.229417e-04 5.211498e-05 4.644710e-05 1.563326e-04 -6.270007e-04
<VARIANCE> 39
 7.898791e+01 8.549170e+01 1.039326e+02 1.035625e+02 1.013827e+02 9.334486e+01 7.809044e+01 7.020847e+01 7.264623e+01 5.927662e+01 6.909829e+01 4.671127e+01 1.688386e+02 2.619247e+00 2.844096e+00 3.141263e+00 3.342374e+00 3.775106e+00 3.710435e+00 3.631593e+00 3.796941e+00 3.445527e+00 3.035479e+00 3.042204e+00 2.537637e+00 3.067575e+00 4.069282e-01 4.516459e-01 4.950505e-01 5.772119e-01 6.622217e-01 6.632758e-01 6.633168e-01 6.897152e-01 6.252945e-01 5.695893e-01 5.601525e-01 4.705158e-01 4.442440e-01
<GCONST> 1.365261e+02
<TRANSP> 5
 0.000000e+00 1.000000e+00 0.000000e+00 0.000000e+00 0.000000e+00
 0.000000e+00 6.000000e-01 4.000000e-01 0.000000e+00 0.000000e+00
 0.000000e+00 0.000000e+00 6.000000e-01 4.000000e-01 0.000000e+00
 0.000000e+00 0.000000e+00 0.000000e+00 7.000000e-01 3.000000e-01
 0.000000e+00 0.000000e+00 0.000000e+00 0.000000e+00 0.000000e+00
<ENDHMM>
~h "v"
<BEGINHMM>
<NUMSTATES> 5
<STATE> 2
<MEAN> 39
 -3.581482e+00 -3.602143e+00 1.748541e-02 -4.274473e+00 -5.139435e+00 -3.756983e+00 -5.674071e+00 -2.861689e+00 -1.863639e+00 -1.328783e+00 -2.759773e+00 -3.222980e+00 6.259650e+01 2.376430e-03 -5.127961e-04 1.865725e-03 2.355871e-04 1.499187e-03 -1.970727e-04 7.880598e-04 -2.874425e-04 -9.379386e-04 7.077495e-04 -1.458328e-03 -3.821569e-04 6.212953e-03 -3.974463e-04 2.528298e-05 -1.389394e-04 2.238030e-04 -8.819671e-05 -2.303885e-05 7.395142e-05 7.111674e-05 -2.229417e-04 5.211498e-05 4.644710e-05 1.563326e-04 -6.270007e-04
<VARIANCE> 39
 7.898791e+01 8.549170e+01 1.039326e+02 1.035625e+02 1.013827e+02 9.334486e+01 7.809044e+01 7.020847e+01 7.264623e+01 5.927662e+01 6.909829e+01 4.671127e+01 1.688386e+02 2.619247e+00 2.844096e+00 3.141263e+00 3.342374e+00 3.775106e+00 3.710435e+00 3.631593e+00 3.796941e+00 3.445527e+00 3.035479e+00 3.042204e+00 2.537637e+00 3.067575e+00 4.069282e-01 4.516459e-01 4.950505e-01 5.772119e-01 6.622217e-01 6.632758e-01 6.633168e-01 6.897152e-01 6.252945e-01 5.695893e-01 5.601525e-01 4.705158e-01 4.442440e-01
<GCONST> 1.365261e+02
<STATE> 3
<MEAN> 39
 -3.581482e+00 -3.602143e+00 1.748541e-02 -4.274473e+00 -5.139435e+00 -3.756983e+00 -5.674071e+00 -2.861689e+00 -1.863639e+00 -1.328783e+00 -2.759773e+00 -3.222980e+00 6.259650e+01 2.376430e-03 -5.127961e-04 1.865725e-03 2.355871e-04 1.499187e-03 -1.970727e-04 7.880598e-04 -2.874425e-04 -9.379386e-04 7.077495e-04 -1.458328e-03 -3.821569e-04 6.212953e-03 -3.974463e-04 2.528298e-05 -1.389394e-04 2.238030e-04 -8.819671e-05 -2.303885e-05 7.395142e-05 7.111674e-05 -2.229417e-04 5.211498e-05 4.644710e-05 1.563326e-04 -6.270007e-04
<VARIANCE> 39
 7.898791e+01 8.549170e+01 1.039326e+02 1.035625e+02 1.013827e+02 9.334486e+01 7.809044e+01 7.020847e+01 7.264623e+01 5.927662e+01 6.909829e+01 4.671127e+01 1.688386e+02 2.619247e+00 2.844096e+00 3.141263e+00 3.342374e+00 3.775106e+00 3.710435e+00 3.631593e+00 3.796941e+00 3.445527e+00 3.035479e+00 3.042204e+00 2.537637e+00 3.067575e+00 4.069282e-01 4.516459e-01 4.950505e-01 5.772119e-01 6.622217e-01 6.632758e-01 6.633168e-01 6.897152e-01 6.252945e-01 5.695893e-01 5.601525e-01 4.705158e-01 4.442440e-01
<GCONST> 1.365261e+02
<STATE> 4
<MEAN> 39
 -3.581482e+00 -3.602143e+00 1.748541e-02 -4.274473e+00 -5.139435e+00 -3.756983e+00 -5.674071e+00 -2.861689e+00 -1.863639e+00 -1.328783e+00 -2.759773e+00 -3.222980e+00 6.259650e+01 2.376430e-03 -5.127961e-04 1.865725e-03 2.355871e-04 1.499187e-03 -1.970727e-04 7.880598e-04 -2.874425e-04 -9.379386e-04 7.077495e-04 -1.458328e-03 -3.821569e-04 6.212953e-03 -3.974463e-04 2.528298e-05 -1.389394e-04 2.238030e-04 -8.819671e-05 -2.303885e-05 7.395142e-05 7.111674e-05 -2.229417e-04 5.211498e-05 4.644710e-05 1.563326e-04 -6.270007e-04
<VARIANCE> 39
 7.898791e+01 8.549170e+01 1.039326e+02 1.035625e+02 1.013827e+02 9.334486e+01 7.809044e+01 7.020847e+01 7.264623e+01 5.927662e+01 6.909829e+01 4.671127e+01 1.688386e+02 2.619247e+00 2.844096e+00 3.141263e+00 3.342374e+00 3.775106e+00 3.710435e+00 3.631593e+00 3.796941e+00 3.445527e+00 3.035479e+00 3.042204e+00 2.537637e+00 3.067575e+00 4.069282e-01 4.516459e-01 4.950505e-01 5.772119e-01 6.622217e-01 6.632758e-01 6.633168e-01 6.897152e-01 6.252945e-01 5.695893e-01 5.601525e-01 4.705158e-01 4.442440e-01
<GCONST> 1.365261e+02
<TRANSP> 5
 0.000000e+00 1.000000e+00 0.000000e+00 0.000000e+00 0.000000e+00
 0.000000e+00 6.000000e-01 4.000000e-01 0.000000e+00 0.000000e+00
 0.000000e+00 0.000000e+00 6.000000e-01 4.000000e-01 0.000000e+00
 0.000000e+00 0.000000e+00 0.000000e+00 7.000000e-01 3.000000e-01
 0.000000e+00 0.000000e+00 0.000000e+00 0.000000e+00 0.000000e+00
<ENDHMM>
~h "o"
<BEGINHMM>
<NUMSTATES> 5
<STATE> 2
<MEAN> 39
 -3.581482e+00 -3.602143e+00 1.748541e-02 -4.274473e+00 -5.139435e+00 -3.756983e+00 -5.674071e+00 -2.861689e+00 -1.863639e+00 -1.328783e+00 -2.759773e+00 -3.222980e+00 6.259650e+01 2.376430e-03 -5.127961e-04 1.865725e-03 2.355871e-04 1.499187e-03 -1.970727e-04 7.880598e-04 -2.874425e-04 -9.379386e-04 7.077495e-04 -1.458328e-03 -3.821569e-04 6.212953e-03 -3.974463e-04 2.528298e-05 -1.389394e-04 2.238030e-04 -8.819671e-05 -2.303885e-05 7.395142e-05 7.111674e-05 -2.229417e-04 5.211498e-05 4.644710e-05 1.563326e-04 -6.270007e-04
<VARIANCE> 39
 7.898791e+01 8.549170e+01 1.039326e+02 1.035625e+02 1.013827e+02 9.334486e+01 7.809044e+01 7.020847e+01 7.264623e+01 5.927662e+01 6.909829e+01 4.671127e+01 1.688386e+02 2.619247e+00 2.844096e+00 3.141263e+00 3.342374e+00 3.775106e+00 3.710435e+00 3.631593e+00 3.796941e+00 3.445527e+00 3.035479e+00 3.042204e+00 2.537637e+00 3.067575e+00 4.069282e-01 4.516459e-01 4.950505e-01 5.772119e-01 6.622217e-01 6.632758e-01 6.633168e-01 6.897152e-01 6.252945e-01 5.695893e-01 5.601525e-01 4.705158e-01 4.442440e-01
<GCONST> 1.365261e+02
<STATE> 3
<MEAN> 39
 -3.581482e+00 -3.602143e+00 1.748541e-02 -4.274473e+00 -5.139435e+00 -3.756983e+00 -5.674071e+00 -2.861689e+00 -1.863639e+00 -1.328783e+00 -2.759773e+00 -3.222980e+00 6.259650e+01 2.376430e-03 -5.127961e-04 1.865725e-03 2.355871e-04 1.499187e-03 -1.970727e-04 7.880598e-04 -2.874425e-04 -9.379386e-04 7.077495e-04 -1.458328e-03 -3.821569e-04 6.212953e-03 -3.974463e-04 2.528298e-05 -1.389394e-04 2.238030e-04 -8.819671e-05 -2.303885e-05 7.395142e-05 7.111674e-05 -2.229417e-04 5.211498e-05 4.644710e-05 1.563326e-04 -6.270007e-04
<VARIANCE> 39
 7.898791e+01 8.549170e+01 1.039326e+02 1.035625e+02 1.013827e+02 9.334486e+01 7.809044e+01 7.020847e+01 7.264623e+01 5.927662e+01 6.909829e+01 4.671127e+01 1.688386e+02 2.619247e+00 2.844096e+00 3.141263e+00 3.342374e+00 3.775106e+00 3.710435e+00 3.631593e+00 3.796941e+00 3.445527e+00 3.035479e+00 3.042204e+00 2.537637e+00 3.067575e+00 4.069282e-01 4.516459e-01 4.950505e-01 5.772119e-01 6.622217e-01 6.632758e-01 6.633168e-01 6.897152e-01 6.252945e-01 5.695893e-01 5.601525e-01 4.705158e-01 4.442440e-01
<GCONST> 1.365261e+02
<STATE> 4
<MEAN> 39
 -3.581482e+00 -3.602143e+00 1.748541e-02 -4.274473e+00 -5.139435e+00 -3.756983e+00 -5.674071e+00 -2.861689e+00 -1.863639e+00 -1.328783e+00 -2.759773e+00 -3.222980e+00 6.259650e+01 2.376430e-03 -5.127961e-04 1.865725e-03 2.355871e-04 1.499187e-03 -1.970727e-04 7.880598e-04 -2.874425e-04 -9.379386e-04 7.077495e-04 -1.458328e-03 -3.821569e-04 6.212953e-03 -3.974463e-04 2.528298e-05 -1.389394e-04 2.238030e-04 -8.819671e-05 -2.303885e-05 7.395142e-05 7.111674e-05 -2.229417e-04 5.211498e-05 4.644710e-05 1.563326e-04 -6.270007e-04
<VARIANCE> 39
 7.898791e+01 8.549170e+01 1.039326e+02 1.035625e+02 1.013827e+02 9.334486e+01 7.809044e+01 7.020847e+01 7.264623e+01 5.927662e+01 6.909829e+01 4.671127e+01 1.688386e+02 2.619247e+00 2.844096e+00 3.141263e+00 3.342374e+00 3.775106e+00 3.710435e+00 3.631593e+00 3.796941e+00 3.445527e+00 3.035479e+00 3.042204e+00 2.537637e+00 3.067575e+00 4.069282e-01 4.516459e-01 4.950505e-01 5.772119e-01 6.622217e-01 6.632758e-01 6.633168e-01 6.897152e-01 6.252945e-01 5.695893e-01 5.601525e-01 4.705158e-01 4.442440e-01
<GCONST> 1.365261e+02
<TRANSP> 5
 0.000000e+00 1.000000e+00 0.000000e+00 0.000000e+00 0.000000e+00
 0.000000e+00 6.000000e-01 4.000000e-01 0.000000e+00 0.000000e+00
 0.000000e+00 0.000000e+00 6.000000e-01 4.000000e-01 0.000000e+00
 0.000000e+00 0.000000e+00 0.000000e+00 7.000000e-01 3.000000e-01
 0.000000e+00 0.000000e+00 0.000000e+00 0.000000e+00 0.000000e+00
<ENDHMM>
~h "q"
<BEGINHMM>
<NUMSTATES> 5
<STATE> 2
<MEAN> 39
 -3.581482e+00 -3.602143e+00 1.748541e-02 -4.274473e+00 -5.139435e+00 -3.756983e+00 -5.674071e+00 -2.861689e+00 -1.863639e+00 -1.328783e+00 -2.759773e+00 -3.222980e+00 6.259650e+01 2.376430e-03 -5.127961e-04 1.865725e-03 2.355871e-04 1.499187e-03 -1.970727e-04 7.880598e-04 -2.874425e-04 -9.379386e-04 7.077495e-04 -1.458328e-03 -3.821569e-04 6.212953e-03 -3.974463e-04 2.528298e-05 -1.389394e-04 2.238030e-04 -8.819671e-05 -2.303885e-05 7.395142e-05 7.111674e-05 -2.229417e-04 5.211498e-05 4.644710e-05 1.563326e-04 -6.270007e-04
<VARIANCE> 39
 7.898791e+01 8.549170e+01 1.039326e+02 1.035625e+02 1.013827e+02 9.334486e+01 7.809044e+01 7.020847e+01 7.264623e+01 5.927662e+01 6.909829e+01 4.671127e+01 1.688386e+02 2.619247e+00 2.844096e+00 3.141263e+00 3.342374e+00 3.775106e+00 3.710435e+00 3.631593e+00 3.796941e+00 3.445527e+00 3.035479e+00 3.042204e+00 2.537637e+00 3.067575e+00 4.069282e-01 4.516459e-01 4.950505e-01 5.772119e-01 6.622217e-01 6.632758e-01 6.633168e-01 6.897152e-01 6.252945e-01 5.695893e-01 5.601525e-01 4.705158e-01 4.442440e-01
<GCONST> 1.365261e+02
<STATE> 3
<MEAN> 39
 -3.581482e+00 -3.602143e+00 1.748541e-02 -4.274473e+00 -5.139435e+00 -3.756983e+00 -5.674071e+00 -2.861689e+00 -1.863639e+00 -1.328783e+00 -2.759773e+00 -3.222980e+00 6.259650e+01 2.376430e-03 -5.127961e-04 1.865725e-03 2.355871e-04 1.499187e-03 -1.970727e-04 7.880598e-04 -2.874425e-04 -9.379386e-04 7.077495e-04 -1.458328e-03 -3.821569e-04 6.212953e-03 -3.974463e-04 2.528298e-05 -1.389394e-04 2.238030e-04 -8.819671e-05 -2.303885e-05 7.395142e-05 7.111674e-05 -2.229417e-04 5.211498e-05 4.644710e-05 1.563326e-04 -6.270007e-04
<VARIANCE> 39
 7.898791e+01 8.549170e+01 1.039326e+02 1.035625e+02 1.013827e+02 9.334486e+01 7.809044e+01 7.020847e+01 7.264623e+01 5.927662e+01 6.909829e+01 4.671127e+01 1.688386e+02 2.619247e+00 2.844096e+00 3.141263e+00 3.342374e+00 3.775106e+00 3.710435e+00 3.631593e+00 3.796941e+00 3.445527e+00 3.035479e+00 3.042204e+00 2.537637e+00 3.067575e+00 4.069282e-01 4.516459e-01 4.950505e-01 5.772119e-01 6.622217e-01 6.632758e-01 6.633168e-01 6.897152e-01 6.252945e-01 5.695893e-01 5.601525e-01 4.705158e-01 4.442440e-01
<GCONST> 1.365261e+02
<STATE> 4
<MEAN> 39
 -3.581482e+00 -3.602143e+00 1.748541e-02 -4.274473e+00 -5.139435e+00 -3.756983e+00 -5.674071e+00 -2.861689e+00 -1.863639e+00 -1.328783e+00 -2.759773e+00 -3.222980e+00 6.259650e+01 2.376430e-03 -5.127961e-04 1.865725e-03 2.355871e-04 1.499187e-03 -1.970727e-04 7.880598e-04 -2.874425e-04 -9.379386e-04 7.077495e-04 -1.458328e-03 -3.821569e-04 6.212953e-03 -3.974463e-04 2.528298e-05 -1.389394e-04 2.238030e-04 -8.819671e-05 -2.303885e-05 7.395142e-05 7.111674e-05 -2.229417e-04 5.211498e-05 4.644710e-05 1.563326e-04 -6.270007e-04
<VARIANCE> 39
 7.898791e+01 8.549170e+01 1.039326e+02 1.035625e+02 1.013827e+02 9.334486e+01 7.809044e+01 7.020847e+01 7.264623e+01 5.927662e+01 6.909829e+01 4.671127e+01 1.688386e+02 2.619247e+00 2.844096e+00 3.141263e+00 3.342374e+00 3.775106e+00 3.710435e+00 3.631593e+00 3.796941e+00 3.445527e+00 3.035479e+00 3.042204e+00 2.537637e+00 3.067575e+00 4.069282e-01 4.516459e-01 4.950505e-01 5.772119e-01 6.622217e-01 6.632758e-01 6.633168e-01 6.897152e-01 6.252945e-01 5.695893e-01 5.601525e-01 4.705158e-01 4.442440e-01
<GCONST> 1.365261e+02
<TRANSP> 5
 0.000000e+00 1.000000e+00 0.000000e+00 0.000000e+00 0.000000e+00
 0.000000e+00 6.000000e-01 4.000000e-01 0.000000e+00 0.000000e+00
 0.000000e+00 0.000000e+00 6.000000e-01 4.000000e-01 0.000000e+00
 0.000000e+00 0.000000e+00 0.000000e+00 7.000000e-01 3.000000e-01
 0.000000e+00 0.000000e+00 0.000000e+00 0.000000e+00 0.000000e+00
<ENDHMM>
~h "w"
<BEGINHMM>
<NUMSTATES> 5
<STATE> 2
<MEAN> 39
 -3.581482e+00 -3.602143e+00 1.748541e-02 -4.274473e+00 -5.139435e+00 -3.756983e+00 -5.674071e+00 -2.861689e+00 -1.863639e+00 -1.328783e+00 -2.759773e+00 -3.222980e+00 6.259650e+01 2.376430e-03 -5.127961e-04 1.865725e-03 2.355871e-04 1.499187e-03 -1.970727e-04 7.880598e-04 -2.874425e-04 -9.379386e-04 7.077495e-04 -1.458328e-03 -3.821569e-04 6.212953e-03 -3.974463e-04 2.528298e-05 -1.389394e-04 2.238030e-04 -8.819671e-05 -2.303885e-05 7.395142e-05 7.111674e-05 -2.229417e-04 5.211498e-05 4.644710e-05 1.563326e-04 -6.270007e-04
<VARIANCE> 39
 7.898791e+01 8.549170e+01 1.039326e+02 1.035625e+02 1.013827e+02 9.334486e+01 7.809044e+01 7.020847e+01 7.264623e+01 5.927662e+01 6.909829e+01 4.671127e+01 1.688386e+02 2.619247e+00 2.844096e+00 3.141263e+00 3.342374e+00 3.775106e+00 3.710435e+00 3.631593e+00 3.796941e+00 3.445527e+00 3.035479e+00 3.042204e+00 2.537637e+00 3.067575e+00 4.069282e-01 4.516459e-01 4.950505e-01 5.772119e-01 6.622217e-01 6.632758e-01 6.633168e-01 6.897152e-01 6.252945e-01 5.695893e-01 5.601525e-01 4.705158e-01 4.442440e-01
<GCONST> 1.365261e+02
<STATE> 3
<MEAN> 39
 -3.581482e+00 -3.602143e+00 1.748541e-02 -4.274473e+00 -5.139435e+00 -3.756983e+00 -5.674071e+00 -2.861689e+00 -1.863639e+00 -1.328783e+00 -2.759773e+00 -3.222980e+00 6.259650e+01 2.376430e-03 -5.127961e-04 1.865725e-03 2.355871e-04 1.499187e-03 -1.970727e-04 7.880598e-04 -2.874425e-04 -9.379386e-04 7.077495e-04 -1.458328e-03 -3.821569e-04 6.212953e-03 -3.974463e-04 2.528298e-05 -1.389394e-04 2.238030e-04 -8.819671e-05 -2.303885e-05 7.395142e-05 7.111674e-05 -2.229417e-04 5.211498e-05 4.644710e-05 1.563326e-04 -6.270007e-04
<VARIANCE> 39
 7.898791e+01 8.549170e+01 1.039326e+02 1.035625e+02 1.013827e+02 9.334486e+01 7.809044e+01 7.020847e+01 7.264623e+01 5.927662e+01 6.909829e+01 4.671127e+01 1.688386e+02 2.619247e+00 2.844096e+00 3.141263e+00 3.342374e+00 3.775106e+00 3.710435e+00 3.631593e+00 3.796941e+00 3.445527e+00 3.035479e+00 3.042204e+00 2.537637e+00 3.067575e+00 4.069282e-01 4.516459e-01 4.950505e-01 5.772119e-01 6.622217e-01 6.632758e-01 6.633168e-01 6.897152e-01 6.252945e-01 5.695893e-01 5.601525e-01 4.705158e-01 4.442440e-01
<GCONST> 1.365261e+02
<STATE> 4
<MEAN> 39
 -3.581482e+00 -3.602143e+00 1.748541e-02 -4.274473e+00 -5.139435e+00 -3.756983e+00 -5.674071e+00 -2.861689e+00 -1.863639e+00 -1.328783e+00 -2.759773e+00 -3.222980e+00 6.259650e+01 2.376430e-03 -5.127961e-04 1.865725e-03 2.355871e-04 1.499187e-03 -1.970727e-04 7.880598e-04 -2.874425e-04 -9.379386e-04 7.077495e-04 -1.458328e-03 -3.821569e-04 6.212953e-03 -3.974463e-04 2.528298e-05 -1.389394e-04 2.238030e-04 -8.819671e-05 -2.303885e-05 7.395142e-05 7.111674e-05 -2.229417e-04 5.211498e-05 4.644710e-05 1.563326e-04 -6.270007e-04
<VARIANCE> 39
 7.898791e+01 8.549170e+01 1.039326e+02 1.035625e+02 1.013827e+02 9.334486e+01 7.809044e+01 7.020847e+01 7.264623e+01 5.927662e+01 6.909829e+01 4.671127e+01 1.688386e+02 2.619247e+00 2.844096e+00 3.141263e+00 3.342374e+00 3.775106e+00 3.710435e+00 3.631593e+00 3.796941e+00 3.445527e+00 3.035479e+00 3.042204e+00 2.537637e+00 3.067575e+00 4.069282e-01 4.516459e-01 4.950505e-01 5.772119e-01 6.622217e-01 6.632758e-01 6.633168e-01 6.897152e-01 6.252945e-01 5.695893e-01 5.601525e-01 4.705158e-01 4.442440e-01
<GCONST> 1.365261e+02
<TRANSP> 5
 0.000000e+00 1.000000e+00 0.000000e+00 0.000000e+00 0.000000e+00
 0.000000e+00 6.000000e-01 4.000000e-01 0.000000e+00 0.000000e+00
 0.000000e+00 0.000000e+00 6.000000e-01 4.000000e-01 0.000000e+00
 0.000000e+00 0.000000e+00 0.000000e+00 7.000000e-01 3.000000e-01
 0.000000e+00 0.000000e+00 0.000000e+00 0.000000e+00 0.000000e+00
<ENDHMM>
~h "ng"
<BEGINHMM>
<NUMSTATES> 5
<STATE> 2
<MEAN> 39
 -3.581482e+00 -3.602143e+00 1.748541e-02 -4.274473e+00 -5.139435e+00 -3.756983e+00 -5.674071e+00 -2.861689e+00 -1.863639e+00 -1.328783e+00 -2.759773e+00 -3.222980e+00 6.259650e+01 2.376430e-03 -5.127961e-04 1.865725e-03 2.355871e-04 1.499187e-03 -1.970727e-04 7.880598e-04 -2.874425e-04 -9.379386e-04 7.077495e-04 -1.458328e-03 -3.821569e-04 6.212953e-03 -3.974463e-04 2.528298e-05 -1.389394e-04 2.238030e-04 -8.819671e-05 -2.303885e-05 7.395142e-05 7.111674e-05 -2.229417e-04 5.211498e-05 4.644710e-05 1.563326e-04 -6.270007e-04
<VARIANCE> 39
 7.898791e+01 8.549170e+01 1.039326e+02 1.035625e+02 1.013827e+02 9.334486e+01 7.809044e+01 7.020847e+01 7.264623e+01 5.927662e+01 6.909829e+01 4.671127e+01 1.688386e+02 2.619247e+00 2.844096e+00 3.141263e+00 3.342374e+00 3.775106e+00 3.710435e+00 3.631593e+00 3.796941e+00 3.445527e+00 3.035479e+00 3.042204e+00 2.537637e+00 3.067575e+00 4.069282e-01 4.516459e-01 4.950505e-01 5.772119e-01 6.622217e-01 6.632758e-01 6.633168e-01 6.897152e-01 6.252945e-01 5.695893e-01 5.601525e-01 4.705158e-01 4.442440e-01
<GCONST> 1.365261e+02
<STATE> 3
<MEAN> 39
 -3.581482e+00 -3.602143e+00 1.748541e-02 -4.274473e+00 -5.139435e+00 -3.756983e+00 -5.674071e+00 -2.861689e+00 -1.863639e+00 -1.328783e+00 -2.759773e+00 -3.222980e+00 6.259650e+01 2.376430e-03 -5.127961e-04 1.865725e-03 2.355871e-04 1.499187e-03 -1.970727e-04 7.880598e-04 -2.874425e-04 -9.379386e-04 7.077495e-04 -1.458328e-03 -3.821569e-04 6.212953e-03 -3.974463e-04 2.528298e-05 -1.389394e-04 2.238030e-04 -8.819671e-05 -2.303885e-05 7.395142e-05 7.111674e-05 -2.229417e-04 5.211498e-05 4.644710e-05 1.563326e-04 -6.270007e-04
<VARIANCE> 39
 7.898791e+01 8.549170e+01 1.039326e+02 1.035625e+02 1.013827e+02 9.334486e+01 7.809044e+01 7.020847e+01 7.264623e+01 5.927662e+01 6.909829e+01 4.671127e+01 1.688386e+02 2.619247e+00 2.844096e+00 3.141263e+00 3.342374e+00 3.775106e+00 3.710435e+00 3.631593e+00 3.796941e+00 3.445527e+00 3.035479e+00 3.042204e+00 2.537637e+00 3.067575e+00 4.069282e-01 4.516459e-01 4.950505e-01 5.772119e-01 6.622217e-01 6.632758e-01 6.633168e-01 6.897152e-01 6.252945e-01 5.695893e-01 5.601525e-01 4.705158e-01 4.442440e-01
<GCONST> 1.365261e+02
<STATE> 4
<MEAN> 39
 -3.581482e+00 -3.602143e+00 1.748541e-02 -4.274473e+00 -5.139435e+00 -3.756983e+00 -5.674071e+00 -2.861689e+00 -1.863639e+00 -1.328783e+00 -2.759773e+00 -3.222980e+00 6.259650e+01 2.376430e-03 -5.127961e-04 1.865725e-03 2.355871e-04 1.499187e-03 -1.970727e-04 7.880598e-04 -2.874425e-04 -9.379386e-04 7.077495e-04 -1.458328e-03 -3.821569e-04 6.212953e-03 -3.974463e-04 2.528298e-05 -1.389394e-04 2.238030e-04 -8.819671e-05 -2.303885e-05 7.395142e-05 7.111674e-05 -2.229417e-04 5.211498e-05 4.644710e-05 1.563326e-04 -6.270007e-04
<VARIANCE> 39
 7.898791e+01 8.549170e+01 1.039326e+02 1.035625e+02 1.013827e+02 9.334486e+01 7.809044e+01 7.020847e+01 7.264623e+01 5.927662e+01 6.909829e+01 4.671127e+01 1.688386e+02 2.619247e+00 2.844096e+00 3.141263e+00 3.342374e+00 3.775106e+00 3.710435e+00 3.631593e+00 3.796941e+00 3.445527e+00 3.035479e+00 3.042204e+00 2.537637e+00 3.067575e+00 4.069282e-01 4.516459e-01 4.950505e-01 5.772119e-01 6.622217e-01 6.632758e-01 6.633168e-01 6.897152e-01 6.252945e-01 5.695893e-01 5.601525e-01 4.705158e-01 4.442440e-01
<GCONST> 1.365261e+02
<TRANSP> 5
 0.000000e+00 1.000000e+00 0.000000e+00 0.000000e+00 0.000000e+00
 0.000000e+00 6.000000e-01 4.000000e-01 0.000000e+00 0.000000e+00
 0.000000e+00 0.000000e+00 6.000000e-01 4.000000e-01 0.000000e+00
 0.000000e+00 0.000000e+00 0.000000e+00 7.000000e-01 3.000000e-01
 0.000000e+00 0.000000e+00 0.000000e+00 0.000000e+00 0.000000e+00
<ENDHMM>
~h "x"
<BEGINHMM>
<NUMSTATES> 5
<STATE> 2
<MEAN> 39
 -3.581482e+00 -3.602143e+00 1.748541e-02 -4.274473e+00 -5.139435e+00 -3.756983e+00 -5.674071e+00 -2.861689e+00 -1.863639e+00 -1.328783e+00 -2.759773e+00 -3.222980e+00 6.259650e+01 2.376430e-03 -5.127961e-04 1.865725e-03 2.355871e-04 1.499187e-03 -1.970727e-04 7.880598e-04 -2.874425e-04 -9.379386e-04 7.077495e-04 -1.458328e-03 -3.821569e-04 6.212953e-03 -3.974463e-04 2.528298e-05 -1.389394e-04 2.238030e-04 -8.819671e-05 -2.303885e-05 7.395142e-05 7.111674e-05 -2.229417e-04 5.211498e-05 4.644710e-05 1.563326e-04 -6.270007e-04
<VARIANCE> 39
 7.898791e+01 8.549170e+01 1.039326e+02 1.035625e+02 1.013827e+02 9.334486e+01 7.809044e+01 7.020847e+01 7.264623e+01 5.927662e+01 6.909829e+01 4.671127e+01 1.688386e+02 2.619247e+00 2.844096e+00 3.141263e+00 3.342374e+00 3.775106e+00 3.710435e+00 3.631593e+00 3.796941e+00 3.445527e+00 3.035479e+00 3.042204e+00 2.537637e+00 3.067575e+00 4.069282e-01 4.516459e-01 4.950505e-01 5.772119e-01 6.622217e-01 6.632758e-01 6.633168e-01 6.897152e-01 6.252945e-01 5.695893e-01 5.601525e-01 4.705158e-01 4.442440e-01
<GCONST> 1.365261e+02
<STATE> 3
<MEAN> 39
 -3.581482e+00 -3.602143e+00 1.748541e-02 -4.274473e+00 -5.139435e+00 -3.756983e+00 -5.674071e+00 -2.861689e+00 -1.863639e+00 -1.328783e+00 -2.759773e+00 -3.222980e+00 6.259650e+01 2.376430e-03 -5.127961e-04 1.865725e-03 2.355871e-04 1.499187e-03 -1.970727e-04 7.880598e-04 -2.874425e-04 -9.379386e-04 7.077495e-04 -1.458328e-03 -3.821569e-04 6.212953e-03 -3.974463e-04 2.528298e-05 -1.389394e-04 2.238030e-04 -8.819671e-05 -2.303885e-05 7.395142e-05 7.111674e-05 -2.229417e-04 5.211498e-05 4.644710e-05 1.563326e-04 -6.270007e-04
<VARIANCE> 39
 7.898791e+01 8.549170e+01 1.039326e+02 1.035625e+02 1.013827e+02 9.334486e+01 7.809044e+01 7.020847e+01 7.264623e+01 5.927662e+01 6.909829e+01 4.671127e+01 1.688386e+02 2.619247e+00 2.844096e+00 3.141263e+00 3.342374e+00 3.775106e+00 3.710435e+00 3.631593e+00 3.796941e+00 3.445527e+00 3.035479e+00 3.042204e+00 2.537637e+00 3.067575e+00 4.069282e-01 4.516459e-01 4.950505e-01 5.772119e-01 6.622217e-01 6.632758e-01 6.633168e-01 6.897152e-01 6.252945e-01 5.695893e-01 5.601525e-01 4.705158e-01 4.442440e-01
<GCONST> 1.365261e+02
<STATE> 4
<MEAN> 39
 -3.581482e+00 -3.602143e+00 1.748541e-02 -4.274473e+00 -5.139435e+00 -3.756983e+00 -5.674071e+00 -2.861689e+00 -1.863639e+00 -1.328783e+00 -2.759773e+00 -3.222980e+00 6.259650e+01 2.376430e-03 -5.127961e-04 1.865725e-03 2.355871e-04 1.499187e-03 -1.970727e-04 7.880598e-04 -2.874425e-04 -9.379386e-04 7.077495e-04 -1.458328e-03 -3.821569e-04 6.212953e-03 -3.974463e-04 2.528298e-05 -1.389394e-04 2.238030e-04 -8.819671e-05 -2.303885e-05 7.395142e-05 7.111674e-05 -2.229417e-04 5.211498e-05 4.644710e-05 1.563326e-04 -6.270007e-04
<VARIANCE> 39
 7.898791e+01 8.549170e+01 1.039326e+02 1.035625e+02 1.013827e+02 9.334486e+01 7.809044e+01 7.020847e+01 7.264623e+01 5.927662e+01 6.909829e+01 4.671127e+01 1.688386e+02 2.619247e+00 2.844096e+00 3.141263e+00 3.342374e+00 3.775106e+00 3.710435e+00 3.631593e+00 3.796941e+00 3.445527e+00 3.035479e+00 3.042204e+00 2.537637e+00 3.067575e+00 4.069282e-01 4.516459e-01 4.950505e-01 5.772119e-01 6.622217e-01 6.632758e-01 6.633168e-01 6.897152e-01 6.252945e-01 5.695893e-01 5.601525e-01 4.705158e-01 4.442440e-01
<GCONST> 1.365261e+02
<TRANSP> 5
 0.000000e+00 1.000000e+00 0.000000e+00 0.000000e+00 0.000000e+00
 0.000000e+00 6.000000e-01 4.000000e-01 0.000000e+00 0.000000e+00
 0.000000e+00 0.000000e+00 6.000000e-01 4.000000e-01 0.000000e+00
 0.000000e+00 0.000000e+00 0.000000e+00 7.000000e-01 3.000000e-01
 0.000000e+00 0.000000e+00 0.000000e+00 0.000000e+00 0.000000e+00
<ENDHMM>
~h "gi"
<BEGINHMM>
<NUMSTATES> 5
<STATE> 2
<MEAN> 39
 -3.581482e+00 -3.602143e+00 1.748541e-02 -4.274473e+00 -5.139435e+00 -3.756983e+00 -5.674071e+00 -2.861689e+00 -1.863639e+00 -1.328783e+00 -2.759773e+00 -3.222980e+00 6.259650e+01 2.376430e-03 -5.127961e-04 1.865725e-03 2.355871e-04 1.499187e-03 -1.970727e-04 7.880598e-04 -2.874425e-04 -9.379386e-04 7.077495e-04 -1.458328e-03 -3.821569e-04 6.212953e-03 -3.974463e-04 2.528298e-05 -1.389394e-04 2.238030e-04 -8.819671e-05 -2.303885e-05 7.395142e-05 7.111674e-05 -2.229417e-04 5.211498e-05 4.644710e-05 1.563326e-04 -6.270007e-04
<VARIANCE> 39
